-0.11101949421859007 -0.06555763640090559 0.36319377823720467 0.004153756633886795 0.09750300112883623 -0.049709017843257854 0.13015937142150868 0.1608304979239929 4.1839060109521E-4 0.008693177307646524 -0.08507719308842096 0.023166824016748223 0.03208474334508003 -0.039033668259864734 -0.15821708241662727 0.0807126418049055 0.13341053192426935 6.698466162663231E-4 -0.0343649954889387 0.03092786875750735 -0.07843678848239545 0.05041153901181278 0.04964719783873604 0.10052545202925553 0.14676949574273365 -0.1447549359112539 -0.02199618795647234 -0.0020719248561482575 0.01071520746120986 -0.08485781100891562 -0.06935681815809347 -0.043639082346865504 0.16024190297127808 0.0020179998865922375 -0.13659392900487607 -0.008427701150116963 -0.09617928842812004 0.10786256742564608 0.1141682163250744 -0.03613960736697437 0.23857822146901517 -0.16140056866715244 0.012592590294595 0.001912014020009638 -0.12460858433484523 -0.08771104953313592 0.09017261359565557 -0.05258848361642948 -0.10753405044223781 0.008243625812151422 0.07507872817039292 0.09396870691314901 -0.027865702645966037 -0.019461447898674145 -0.0038961968370157616 0.0785410970877677 -0.049635443065616125 -0.002828695654162751 0.010271349248187896 0.008042865039447285 0.10944241925103411 0.294871584545551 0.13271196288721604 -0.09236414455006359 0.019290783974337415 0.09528580736527723 -0.017139360537406972 -0.06641541382117819 0.10430877837816453 0.07031661929346157 0.04073643163823481 -0.18144928069221317 0.1424710365674427 0.05853820147603041 0.018253969372559697 0.026647227801156748 -0.17233063986419483 0.10606770327367382 0.026646564121166862 -0.07958831576993165 0.09633658829403856 -0.15774333073913668 0.11430149153390304 0.006994738045643232 0.06216433423424726 0.18484289666105705 0.15624859647402192 -0.12061944562419777 0.1464468894480156 -0.04132161108858973 0.08105221367837878 0.03200907847532382 0.1275579334514477 -0.1430162661909724 0.005486833927866784 -0.1425613105252008 0.0018896511675586343 -0.009874203417037363 0.05998417287421507 -0.07268264605722344 -0.21514663889329944 0.07474757702684237 0.022440522972265693 0.02009020385135598 0.16621377374501445 -0.09421020130888776 -0.09950423945286352 -0.08958436463606952 -0.004846572826469784 -6.535933606296195E-4 -0.19382312161496928 -0.07428127371194083 -0.023289396193703158 -0.06599624023187932 -0.09071738647595029 -0.13469391623651641 -0.14459469639473668 -0.007226107853359351 0.08718320449847343 -0.11746251200402685 0.09455419163908968 0.1390875075798441 0.08485491827715665 0.13973369981477113 0.06290654899830392 0.1072563420466505 0.02638407071454717 -0.14429901313418358 0.23269640299363128 -0.039002031879762714 -0.022596646392076876 0.04000491234608115 0.11827443174967757 0.2116680930689501 7.910759425098847E-4 0.04026809914477604 0.1062170701335745 0.10442942421274072 -0.10502560156804502 0.14560550140790193 -0.13554721966780775 -0.06877917278007123 -0.007945098600494784 0.0671614076633188 0.009392846200854012 0.0998357013535375 0.15970342048820663 0.14153891510384692 0.007896451243392819 -0.08410642060878157 0.20825619664921247 -0.09281149822006589 -0.1924286253181107 -0.0033249166029627694 0.025035083510043927 0.07033333535126572 -0.04073532323916392 -0.046249512092978 0.09106051481763311 0.0892483207767313 0.0076546191554544936 -0.1099548330550155 -0.13356860617851934 0.04531627756806397 -0.10947885822745834 -0.23725978702954673 -0.09679415286795263 0.14925477250407115 -0.2592164213967931 0.06906979296590038 -0.16508003084135456 0.025933340585054195 -0.08037549925863273 -4.307326266619366E-5 -0.034351467445826844 -0.011156875529288582 0.05463045017447894 -0.05001446293478581 -0.044346216796614865 -0.03613291158173489 0.0735494823777206 0.03728866477689418 -0.0039212735972855225 -0.09248048427034163 0.08575783428584541 0.23243091722106038 0.08972892621094282 -0.012733418077734295 0.18802024028369418 0.060873363620674366 -0.03565037920820601 0.08687324607719758 -0.00977589248857565 -0.1391334349454412 0.10437744598331507 0.021585877581587226 
-0.05833411694602918 -0.04737442454348255 -0.05870119371404886 0.14699765877360757 0.0801554636985445 -0.07779170401196063 -0.0956300703742105 -0.12460333436584206 0.19661964628480477 0.020281401646056463 0.06856656423382257 0.1472870186283696 0.010303262637604418 -0.0787165397203849 -0.14110493947228214 -0.10665438971167296 -0.034273440422148096 -0.09325207100925328 0.011375314285273738 -0.005288798781810208 0.06401758075633728 0.04867763055059696 0.23031240505169145 -0.0450305659917102 -0.029954563117863778 0.052237008189403036 0.2992811530241892 0.014880548165739532 -0.20258754669677498 -0.03949790002563318 0.12682751724955948 0.07423057809974783 0.10666474123954399 0.1368673429536438 0.0886137751080022 0.04497449759910827 0.1122900332313662 -0.03661970813716394 -0.08035497452241305 0.11801211159899366 0.1152202064176128 0.1033901084309782 -0.0073754679842105274 -0.1722955706025603 -0.12570254929528105 0.006543346441740244 -0.18968529497105113 -0.03703909071302745 -2.877490127066593E-4 0.02262076217900947 0.13909403744504734 0.14668707520673324 0.19713812177012802 0.04579936529016587 0.12526365285285498 0.029926281997181146 0.03279031668285909 0.11902008866469993 -0.12469502424473608 -0.034839659299559664 -0.14194360645846452 0.05615709662650795 -0.06746390467602525 0.032873138224048984 0.035766869592454446 0.2664636276368597 0.061839015842708005 0.18450049115703115 0.10052431674486359 0.021323423530348235 -0.062268194635654806 -0.13877341342280136 -0.023797002887635556 0.04876614119856599 -0.08125464946323978 -0.11769454238456324 -0.020686365445720205 5.474986443609761E-4 0.11305725948680484 0.17148607873071225 0.08076964100900673 0.17449656704267477 0.08922694134676741 -8.081055554145753E-4 0.02150158300405821 0.23943274160985237 0.03422131533918413 0.09150948691936099 -0.10816016036755824 -0.07562998082329239 -0.08781976244288515 0.10528952691781608 0.34114181078774514 0.13239643271538537 0.04692516995082551 0.025399210317051675 0.20297532689569522 0.002077730269888259 -0.08285576032632229 -0.03024543103511858 0.004723690258254494 -0.11075547097089532 0.10001186889439938 -0.04115503698677596 0.040765080903566495 0.2343762285855474 0.08909297725190377 0.03129121416931619 0.1529511124099334 0.08250753876804318 0.07571116786493762 0.08782460898371494 -0.051402601566990176 -0.18161166725010067 -0.056689437649477974 -0.10912057254641944 -0.04069963419202012 -0.149413091636366 0.04285090215899036 0.1282253611798933 0.16665243161435886 0.09518189532548613 0.1725521162472237 0.19635067086007654 0.15810179511258393 -0.034374151879753366 -0.07122280608437179 -0.03836289449119958 -0.11859113063449098 -0.02339789899314417 -0.09459296419186243 -0.0641142689548859 0.10507896769856306 0.09076744033063523 0.19344489735754478 0.09480174430157821 0.04275023516542977 -0.07566726518205019 -0.004511693783456156 0.07264272328683163 -0.06675638830527368 -0.05921505898795457 0.09501446388937983 0.037500754245559285 0.07848949331027594 -0.04215318631554666 0.06973262914752064 0.11488267102368321 0.03807604225417469 0.0069027055364400845 -0.05044079541233053 0.024199628937229257 0.061545643089964755 0.004773932724725115 0.02344120436180616 -0.023308588176026455 -0.12324274051419139 0.06354528958504019 0.11369522949986487 -0.05754888871728335 -0.017370116853704556 -0.0023500099333828013 0.11767539928362725 -0.08897240467499272 -0.21968891140319316 0.1538083894242612 0.08031971995479562 0.04946561242557428 -0.19245159076216775 -0.041176497459740495 0.11085902363194873 7.543710965916347E-4 -0.08095736070928022 -0.03215851846109704 0.06450964200715416 0.05754002767337579 0.09030784297726745 -0.03181904220204975 -0.09489686257277889 0.028232883271219204 0.2643276884935035 0.06530060288213459 0.03655281208914065 -0.1588821015466877 -0.04006876312755086 0.08518723814551038 -0.06572325986283767 0.16368735727575706 0.22757556323971992 0.1076718754619923 0.09153678931311728 -0.01684337802504241 0.15619978751021826 0.057908495142142975 -0.006363354120958946 -0.06634677715373263 
0.1563867965655435 0.026069027879552047 0.1384244668658928 0.23395507271385013 0.16174408113324082 -0.17419419854756782 -0.14161950055040132 0.06307377254857198 0.11971348678611402 -0.12000592981177757 -0.12499220752042675 -0.1743580004834941 -0.012427583308222087 0.004701207397938225 -0.007760953529659269 0.12544116554987825 0.008994908367718282 0.10912833321950563 -0.05825385829116817 -0.06280923786151034 0.06894061170296016 0.1000046268262457 -0.02440385200355557 -0.07152965033557677 -0.11499730871015496 -0.03294415867978994 0.07540591006582685 -0.11446993594008661 -0.02260573534319345 0.12589894567812362 0.21018777621142998 0.11065975896828817 0.11046915440979278 0.007512086557510052 0.13416584749242513 0.05922327758216721 0.028445026715922313 -0.017808630959947804 -0.3902858427795102 0.0010642798538674978 -0.028120768378985736 -0.13374624456294998 0.03951305229289217 -0.03602300826348928 -0.07577761255559273 0.11091261422155933 0.09106379767669584 0.08562124912983647 -0.03360044631648165 0.07169051736180697 -0.20682302189101864 0.137399567799689 -0.04773771971726897 -0.08011503765029196 -0.17394967998709782 -0.09196662994373271 -0.0402988905171483 0.14848604560469775 -0.015971748777137796 -0.08108862790996141 0.010242549307175686 0.09337326778024266 0.09162101579936428 -0.006463075644233248 0.07985258427252936 -0.032225190987999155 -0.20834613115996387 0.07764635532026837 0.23313518606008243 -0.05467178148718144 0.06770335841886937 -0.0010180534457274488 0.011836872460535339 0.1299549053181807 0.07257607583033102 -0.019145019165853733 0.07380078975517215 -0.11189429176555378 -0.11798473721000328 0.01656471655932238 0.04681193552160348 -0.027888319658773156 -0.020034042343279202 -0.23705511155207884 0.0024563236102390896 -0.0068997494690367835 0.005783682535043088 0.11503691832773018 0.036191649404813536 0.0269940413748191 0.03496541564474409 -0.06033377636977124 -0.21596383785482196 0.05480290163945745 -0.02725005193289788 -0.2984222495664133 -0.06441484935425341 -0.2249371428410751 0.21764231459577943 -0.32075394005666474 0.0032371294652485403 -0.059506797926188314 -0.06892379487674753 -0.04389109804779574 0.0719257673133746 0.013837984034913094 -0.1433299018693345 0.09370242946376593 0.0029545203752937023 0.049952585796613116 -0.22813625569214993 0.023176589996852844 -0.022804466305992952 0.08169751113945665 -0.11501060315218258 -0.0016563145981452526 0.14233644311965574 0.060708633613019876 0.06087848907285593 0.04781713981977791 -0.10129941723453081 -0.02440795394723501 -0.26661936389287194 -0.11383089936634662 -0.21612166128243757 -0.03331323158012812 0.057587476136197226 0.07692447696706801 -0.013506080504544007 0.20605731833377547 0.04818826809827816 0.06407327385724224 -0.019258302888790775 0.03446409190469741 0.012058495949933832 0.04191866983128489 -0.05787852256323333 0.13318133507078214 -0.054710574857595236 0.07797777932419864 -0.04909109642243159 0.021693549073765674 0.050855285518599684 0.011578291095532368 0.09005884944971004 -0.08767017984411493 -0.07111123631425095 0.020704241430103493 -0.028109268250780122 -0.18650350755171233 -0.004506965765579283 0.023380934718766632 0.04285068983670929 0.11135340514194156 0.08136796490763634 -0.05204234989214654 -0.07721898084219042 0.07588288725041929 -0.03242850814957612 -0.04375396711425096 -0.020366724727664307 -0.06282224148775588 -0.05557420363880011 -0.08712623978942574 -0.042842618808417283 -0.09227482866386193 0.041561273517798925 -0.10804314873830796 -0.15190408377924985 0.049075193547121164 0.018330601510408735 0.07581341213054416 -0.06479184979828906 -0.049370749813659076 -0.13079567601274603 -0.013646759876568723 9.785433225029457E-4 -0.1128313598809831 -0.10179793197810025 -0.13083033100089608 0.11267869251509587 -0.005197452088623141 0.20630833093353465 -0.1580725622629835 0.01833690370461428 0.008734592113156634 -0.03213109348019731 -0.23857284770767276 0.01831268890592619 0.013091666546267103 -0.10342043285135528 -0.07849536857316299 -0.15516000729878196 0.15315868603536772 0.09186674367309622 -0.12056895415462304 
-0.02770443312943961 -0.032528431161714715 -0.12920157766437235 0.001142986890199446 0.004967493258513282 -0.008768104337044951 -0.025719079383289545 0.0380342507688903 0.0070833475621824744 0.044294733404877384 0.06485157808287079 -0.14605431717324038 0.0905528388458576 0.04504788933752198 -0.014431307661675224 -0.0025147587727773063 0.002423724209991483 -0.07647084229740693 -0.0973448622133282 0.21164847857937552 -0.011739074479980818 -0.037044431879571266 -0.004079722917791709 -0.00926568451047843 0.1489744954242446 -0.05593765840117541 0.03691573931092215 -0.024935619880018228 -0.13811935999645886 -0.1420223021152664 0.011488058039145588 -0.03960387547790979 0.067465432082577 -0.15013749242513158 0.0025446495438301996 -0.23320847275033627 -0.02485388470448189 -0.23876925187416204 0.011939379325137696 0.21243156088332957 0.034312841211870636 -0.09019065305359984 0.10504162786357103 -0.01289210885390446 -0.21377885481082007 0.04710414700276082 0.020516984780475925 0.02674243724537464 -0.02867222445087153 -0.12021680104598441 0.15561102693537052 0.035594533214529066 0.07795171383019031 -0.10317651868652383 0.12495738901656694 -0.07938628372463334 0.17377298221348517 0.14520180128001028 0.10712158037127532 -0.0016121922957585918 -0.11164657705555568 -0.04538721805296642 0.22282781192779022 -0.05807293765106803 0.16970394216635595 -0.05856271055343691 -0.05342760091893188 0.010713453148546522 0.2891315869577916 -0.035846524178574896 -0.07570116717538183 0.07002367530657509 -0.02530342210629583 0.04042346557772455 0.1458303417672165 -0.14998099898464176 9.264683247255417E-4 -0.025489553325524064 0.18634071510296324 0.14383736932368876 0.1557383974875539 -0.03279307562088725 0.03709102588427914 -0.1708210988817931 -0.09140497358802835 0.161582948268635 -0.008218515323802654 0.009316332800899826 0.01686449853141435 -0.060639352615056055 -0.11635777932176054 -0.0759710151744326 -0.15530474523314539 -0.08182862232297995 0.11113355203492056 0.08410772200345581 0.025359228532815876 -0.0408054572090706 -0.04382686096116818 0.01720408410106376 0.09063286336171071 0.013100507773731354 0.015466688220238587 -0.10983158001440428 0.138326634564535 0.07535891822913485 0.0049165984684307554 0.18642572265464194 0.04846702752241198 -0.11192600359801126 -0.06781555668113624 0.0017233422185619694 0.22871531464968003 0.07032088078389592 0.002059670481643763 0.18482469446848349 0.09846680823931288 0.12762366571004952 0.10850748245038902 0.04170170005358751 -0.09277349879228357 0.07080197331376342 0.16347838792573305 0.08750110156680423 -0.06179976638244678 0.06808443776076947 -0.11592188676935049 0.017446148776595078 0.022104196609311833 -0.017404965921330163 -0.00581082067073448 0.15513636178080956 0.09490586356861257 0.23806329240429427 0.14464752700902303 -0.13511438050221872 0.0031734499331764286 0.050368784843909664 -0.09864250168793069 -0.2827268144663551 -0.02561829729941427 0.15001325872147198 -0.03861459708352255 0.06575810855385558 -0.04441226963627977 0.10621044757500131 -0.058765534312433476 0.024851179257289628 0.1393578644325633 0.211861218899685 0.07579086893851127 0.1643750734718792 -0.06835616961404026 0.252164412268793 0.016758926415197578 0.022304423250279783 -0.1087989741126569 -0.030784092179202197 -0.038485298216520664 0.1458887704355305 -0.10113956825219189 -0.0011819371166123499 0.013190744841588805 -0.0097685673489587 -0.022702264231930804 0.04000826516930063 -0.007240100262166794 0.05712427679417018 -0.0321247910362124 0.06818180267360961 -0.06594144660598941 -0.08957514399978737 -0.09816117191421628 0.13546943427915442 0.10469583860339991 4.601943808979923E-4 0.015524860516793327 0.047373860779629656 0.08398661679797434 -0.029022900837976533 -0.08158022063111421 -0.0076012103104537805 -0.07468746509880872 -0.2253554879297439 -0.05796101757931083 0.045829237091458724 -0.008746520979516165 0.16178763596370732 0.05691318667456749 0.024066838691372036 -0.10271003571900507 0.166035302416331 -0.05192623120285773 0.028623878555494493 0.05125346407973346 -0.12439327391445136 
-0.057514003923296586 -0.024518078502852758 0.18018646672273197 -0.21925205843716625 -0.1329636128156321 -0.07455191419040955 0.021484865273585178 0.22743845651600997 0.1744280256105837 0.04918192951895659 0.0733031260736045 0.06310957596197517 -0.0514493783954511 -0.020816993833164207 0.017992930679768496 -0.017485432254519304 0.21022095821983147 -0.02107309686425942 -0.14289792699049703 0.05353031253704238 0.062049752491284214 0.010125668558940253 0.04608012578681321 0.03881280329179309 -0.041596479964634885 5.466031769580763E-4 -0.1110690930458154 -0.017405211800219957 0.04433732607537038 0.11787895745164238 -0.17985615728136436 -0.031172426719098895 -0.08215721819015732 0.08005491134757221 -0.005210794218088613 -0.007195546061655502 0.022506596741637172 0.03917977458443853 -0.20305413738863382 0.06910938689510339 -0.2564079609345962 -0.1514725958579469 -0.03338901159507591 -0.10957378916731834 0.07014072353566386 0.18115944288626962 0.032715872361555216 -0.09900078118476442 -0.07485748347611385 -0.057535125812669154 0.09530092123930572 -0.06577128888816175 -0.1860280961930859 -0.07131324869060789 -0.06941440688036053 -0.05230199045867006 -0.010499436657147093 0.08156227105147251 0.008315304373127793 0.08398776952828471 -0.08829696170082944 0.04275452155178009 -0.10431145387285762 -0.08360970116009764 0.15229368752545971 -0.0506688860280898 -0.012565476886479876 0.11401212782072298 -0.05870152591265556 -0.043340066367735415 0.09519539522190458 0.03559895585263155 0.13481669214992759 0.13883318563627017 0.044456180993558546 -0.0698084336216869 0.11179451814852726 0.12728353164655393 -0.12065156781000208 0.05212324041764963 -0.13211930889005566 0.027625767046697194 0.05567725425462167 9.022215735182389E-4 -0.17069519965523397 -0.21607871328108463 -0.10513620866772543 0.08338243859333759 0.020080079030128248 -0.012673237572792258 -0.04173764378007715 -0.12133307249178253 0.06913287654170856 0.07464151869455214 -0.1202998133328292 -8.732427722534398E-4 -0.1647530896893891 0.03757417697411048 -0.011363974332092824 -0.00463819464742155 -0.007148986434635304 0.004471443496597642 -0.07938834910225784 -0.013870023542133288 0.1454821146442561 0.09484729442098601 -0.02063424348952823 -0.0204969790853975 0.05696918824110751 0.12315293114732648 0.005342360206409445 0.11493038566935646 0.007217550561309593 -0.10555040719866973 -0.11640420944217054 0.01107006828808357 -0.0682023576404591 -0.025654295451826133 -0.15056397659538726 0.01928673431376338 0.06428681391217303 -0.11869108589198611 0.07381688716135924 -0.02829761188838707 0.0934193793336145 0.015110428294782364 0.06828360583416426 0.06984907612076563 -0.17675370228834852 0.07147558277354106 -0.085346766883176 0.003275107428861601 0.16312732148377734 -0.007177890177945164 0.2493024418418909 -0.14100866476956125 0.11221818876837342 0.07247467418533683 0.0786643940439472 -0.19988548089145383 -0.1717418712863047 0.0472941322779225 0.06086477015790046 -0.05693575151713885 0.02049518025476028 -0.08291032521133826 -0.004333305504194716 -0.12587655110170345 -0.13993085239636247 -0.022764549644179958 0.01420221789754115 -0.20738895651357256 0.1125487908595911 0.03207631012322299 -0.07299291236558952 0.23222953579631186 -0.013675717682826907 -0.10682592518103037 -0.07302341425703113 0.03787839199875228 0.051710371901152234 -0.05405718384040683 -0.1442473803060951 -0.040492059212221564 0.008801960893439074 -0.0772539062907052 0.055898787242932825 -0.067594374820409 0.05170736770439033 0.041465039890555874 0.15717042531724287 -0.01008013054207475 0.1701615426694878 0.11406092939969756 -0.13897474638821522 0.17484677336370713 0.0011093520695008828 -0.13235850108936137 5.3207361269386274E-5 -0.18680715223029998 0.09983457150368974 0.10623257295944603 0.08598030382693024 0.10513571250474289 -0.07681133534276531 -0.09568033325911171 0.18102507037486681 -0.05003806605815731 -0.07474869952869852 0.028374027195195415 0.012212422492684376 -0.15302384469758104 -0.015177459425488583 -0.0627887133797189 -0.12958934572487693 -0.17246725541658636 
