0.17746897140287807 -0.10555591226621462 -0.06518917203440523 -0.06117651065540084 0.03493946729839453 0.07175000460378035 0.04269014333556598 -0.02350034452606945 0.23302910934672133 0.10738235955496417 0.004840859982190756 0.07584517434836915 0.04908640607116971 0.15404027278456772 0.13153013733821609 0.05065714985196932 0.12911050169530894 0.02073586771029113 0.08039619186601782 0.027530683388273778 0.027860646547029307 -0.07054468612478228 0.044037856923500665 0.058786869985751077 -0.08125636957468328 -0.1503184317563465 -0.15005402069655702 -0.33031121457179036 -0.09716958987072866 -0.0944911230500266 -0.1397960853394364 -0.06355531571726357 -0.07679408599534025 -0.061586240807911384 0.071627609743508 0.03382448396201795 -0.06097228969574709 -0.06621846086555915 0.06739646522251704 -0.04482716958561768 -0.022048151418780682 0.18101640044793618 0.09868276019496332 -0.00974192060672361 0.03781420630351911 -0.018891221573525782 0.013421109343983897 -0.07438416881537735 -0.03514128933755187 0.08135522349774343 -0.033209288859602705 0.007903610481590558 0.05673543967834577 -0.1430074544885387 -0.1037880166878143 -0.12936915326019208 -0.1298548005274306 -0.2246940895310058 -0.07367296370876333 -0.04333362445353719 -0.12894668172757187 0.01579133529579067 -0.1753794034694922 -0.08153256160912785 0.07758246676748329 -0.023662668451231515 -0.09051972917597796 0.11162184863643422 -0.056915221329841025 0.005707541139476166 0.057307381780565506 -0.04039990425061679 -0.0014557869287520858 0.09515643562125567 0.029041162873382122 0.035930450772259974 0.004910515901740681 -0.13299140745281482 0.01634620643761517 -0.054489484270270755 0.10050250176125343 -0.0726287830028254 -0.09801862621439213 -0.1990630989353263 -0.1440065820849847 -0.09103741116042245 -0.09366138479779666 -0.16330835867893134 -0.049954636986092385 -0.161958196746541 -0.06906607718965634 -0.13184151615123965 -0.0719215819791194 -0.12673235717204173 -0.05642567067366629 -0.06069867615086513 0.005351307107407242 0.1447877436098585 0.08602549063558787 -0.11866668602604957 -0.0012387604118895166 -0.209098717193157 -0.03666572513825852 0.015477904459525772 0.02617123354259268 0.0243273153208264 0.020632713270019132 0.06563399641967727 -0.06920213632331192 -0.06122033388855104 -0.08845204523042377 -0.22083646478762392 -0.029343614524629323 -0.10533516391901437 -0.11422774037022837 -0.11223805593323431 -0.09151857477593875 -0.005571053649363592 -0.2819471190340327 -0.039829061933971587 -0.06507298907518265 -0.10970450916417054 -0.07353958324066392 -0.04798275733516283 -0.06343620481646553 0.08251853060613516 0.053449282637675705 0.0392273752771828 0.04297244223509905 0.03342830560002769 0.09513962996927668 -0.07901132072752239 0.041080823672769766 0.024678762182973848 0.09110584948049119 0.003006289634457249 -0.03502513648870068 -0.02919066523993353 -0.02501594488040313 -0.18989037330654437 0.0021506251872406776 -0.08028710432093589 -0.09959813173958434 -0.029324759281316774 0.06470593178569342 -0.0741402351553839 -0.041179505851804764 0.042009266977317515 0.017908087296364825 0.025977931086709104 0.011793479118816128 -0.018784653119023373 0.12111245146177765 -0.07945506435490712 -0.00446941889321326 -0.17081694087421234 5.114554782154731E-4 -0.002132961547581835 -0.016107633383600023 0.019992871160598162 -0.16489265952610438 -0.039937797690874806 0.056385240521781954 -0.043848881267189346 -0.11067792371865541 0.01034129144258251 -0.11625990768973019 -0.07336516393222454 -0.06128627029354272 -0.03344387546940114 -0.1321908594055145 0.028731567844809673 -0.12121749947386715 -0.055533819852021105 0.021227456635754875 -0.007834006036435625 0.019146176408016826 0.014502986856887475 0.11421717549526844 0.07870782784840608 -0.021008341007722905 0.05567472541006934 0.08488721167497183 0.10972930762617063 0.10271260952389699 -0.07509505242497475 0.040807453180583105 0.054869598210135755 -0.04372686689162076 -0.05338451970313234 -0.10433334861478125 0.004768038809132291 0.02416099072374433 0.05583061064227331 -0.05730195381689582 -0.08905522525102248 0.10031918477635421 0.04087393947651561 -0.027695053461179 -0.027500574573198853 -0.03796849596786256 0.024913149322358077 -0.10360336978217873 -0.09027783975428125 -0.06927854628546767 -0.014423119432438892 -0.061685849300644885 -0.026003105006422788 0.16781255364436856 0.076306016169139 0.2084645343761848 0.0029124673231175615 0.03374763058295352 -0.07011382557782136 -0.06177976201184423 6.151216629334187E-4 -0.002233868079808356 -0.11243029149365778 0.008969011001006265 0.0776836669357308 -0.11120606166269806 -0.002146824267826911 -0.13161965638889714 -0.06737937840574298 0.0497584565261105 0.09791888495745972 0.010547012736804397 -0.03961117327124241 0.03117731520999539 0.039229519197976466 -0.13094067669534673 0.11608598744201008 0.013706928182662309 -0.09281570979165103 0.14898736811119803 -0.05413949944097546 0.051557781066981195 -0.11108381725338748 0.01873404004957807 -0.008890082978206286 -0.04350045373284305 0.10766333908436661 0.04620635439651867 -0.04399597829883966 -0.09564720246680039 -0.0695917513237641 0.005927562375144253 -0.0408411605971327 0.06984324524651254 -0.02513571589910653 -0.08038343164778787 -0.036316493521614736 0.051994697254932415 -0.013626243370392532 -0.021608851810249668 -0.11025566714563244 0.021206891219955948 -0.005354497934350782 0.04519175770533801 0.058694014759030945 0.023281619132917836 0.03751489144905505 -0.010839849939294724 -0.04002381894004706 0.00405309058993356 -0.0807943628988814 -0.01149145901030591 -0.043360754439375114 -0.03135024528502576 -0.004329268597479219 -0.08774711104516024 -0.01915485717308592 -0.05783333148419929 0.022898963319737724 0.021509567118246222 -0.09327172411248455 0.0634970380963209 0.0822979111757343 -0.1088406625686627 -0.1425964382808514 0.042832688499378144 -0.004463292246224152 0.01972418990726818 0.0184300164364231 -0.03338104779779078 0.01863738817577967 0.13562224585889307 0.09907994021182662 0.004629181537190298 0.027337475165088252 -0.14748776825100426 0.052806797116386014 0.03677181599938663 -0.06547621489360801 -0.05389833452996186 -0.021427417027106137 0.023377696003597917 -0.017217929812014747 -0.07329226958810836 -0.10572044476285931 -0.046574415459802246 -0.022927646984093025 -0.10001885099208829 -0.0012820061163790902 0.08016915156645997 -0.050697647577780766 -0.08398270703185765 0.002470800108974535 0.05197641504257094 -0.19562947420047164 0.011120058894103219 -0.055632919288937224 0.1068474838114219 -0.052963069327652976 0.04949619696682596 -0.053628038081050246 0.06404849202749119 -0.006869228048271007 0.05891806882050993 -0.09703792726426533 -0.025278059338856504 0.012803505039490199 -0.025877406251103737 -0.10330005195224483 -4.835929381489242E-4 0.06708755309089022 -0.08755179022301443 0.05657846794253489 0.026456595415074974 0.05137219496073898 -0.0900141615440651 -0.002362643095372081 -0.08240425376260237 -0.17880064790345837 0.06221168059462877 0.004035555408162862 0.036477491182630405 -0.09957214978184091 0.04942566749413682 -0.1019572114505056 -0.07200287334333187 0.00324148795522955 -0.007138821401298381 -0.0570831522494713 -0.047005712726069446 0.03277898587971722 -0.042990094759330855 -0.03399386435188391 -0.002667967259427991 0.05116342453112164 0.10511701304940532 0.001507013037082949 -0.05787682705548694 -0.06998560301744441 -0.05466142401352957 -0.061328448818960074 0.05582575465322902 0.0613147065623648 -0.033503556953736545 0.10969509590873622 0.007148753811442751 0.12876235012386492 -0.06068233686354238 -0.09250404456115821 0.08503759277413528 -0.010388378591239967 0.04769581420536169 -0.06286193687403958 -0.08335424380219819 -0.060348237800765196 0.0375433709635187 -0.05583746478684912 0.030749815414981185 -0.047448091135367666 0.01850744642292324 -0.05785493435678558 -0.0425123576373242 0.015648928509718215 0.15378544909187356 -0.165964236276405 -0.13868555233139934 -0.019617230016585486 -0.008552585126272398 -0.04796892952930662 -0.03124362280638798 -0.04936514053972881 0.028986246083397216 -0.035935901312798085 0.005143336089682215 -0.011372966226882854 0.18479178223001586 -0.04770241787770214 0.13006422207645194 -0.052508990461568886 0.10984875857866401 -0.1108061606767661 0.04405445712399943 0.02925881505832408 -0.020053719191298648 -0.1453492997096241 0.036703807205520654 0.029825769517821125 0.04190341805227344 -0.043583537502105106 -0.08633143841034376 0.04557983761600965 -0.06982668217400222 -0.036067127221599285 0.01025621872492638 -0.01888954906402953 0.027920267102380776 -0.0770841653551749 -0.012012830261629446 1.8332007851064642E-4 -0.021871249375424406 0.06017981090968231 -0.03080574818568329 0.02968307508188529 0.03900396482338151 0.021203446745394667 0.19633245137106395 -0.0051456844822795845 0.02004028212592998 -0.02900938850897609 -0.0053275909453308155 -0.05244564668282165 0.03533976820324299 -0.08736061129260311 -0.21714126443320184 -0.12433322055205062 -0.05843120394050127 0.028785275458364547 -0.17166871105176415 -0.0065256717434421935 -0.0019671248294139067 -0.0353378123250353 -0.10257993722180471 -0.07178035918357456 -0.0940768863654136 -0.06477506070032069 0.033706897192265495 -0.07919564912104306 0.011599530540092317 -0.04911341884079882 -0.0848156522836322 -0.025368217941689274 0.03903831470266372 0.014704825740280491 0.08052293552632847 0.014016948525064025 0.0358927716157716 -0.10467976584407492 0.05322068967338144 -0.013175396652115817 -0.11285369640880388 -0.009383314804762824 -0.010637459689051883 -0.20344068999379536 -0.01889476413605687 -0.07905330873230863 -0.11412263823253385 0.005689603724042658 -0.11127191268107785 -0.02842758781499332 -0.08595104126568007 -0.08640424412303095 -0.09184091666781816 0.04608581601953816 0.07900760812242963 -0.1306487225754014 0.032219501643991864 -0.012376832452530472 -0.10828684584449132 -0.01223689453716198 0.09580259613223577 -0.01890138949254094 0.17190928331855573 0.07055174406493676 -0.04652738030609517 0.09995483621581573 0.08303192457273816 0.07249929788361295 -0.05991407520719853 -0.10655458911574356 0.015260556165470434 0.01919905672164405 -0.058678116297334285 -0.079687378916108 -0.0630571781192154 -0.05893441062413233 -0.047649683135804755 0.04408908046615383 0.009696764374404815 -0.07460139250272269 0.0724194411774289 0.07017773083597514 -0.04911098385753718 0.006620639492040282 0.03297893155645308 0.03743257505366777 0.04471863091188852 -0.019925932058850255 -0.03566425340274488 -0.02181169073092681 0.26860141766453094 0.02704222729736297 0.14683412750081734 -0.07336879776130746 0.08514901557130931 0.03573481907180389 -0.06453816596732873 -0.15321219499620062 -0.04688829872005576 -0.05504815819459235 -0.04133387196463268 0.031384975250602846 -0.06421922028995938 -0.034939605835187355 -0.09552041839044731 -0.09843174512146842 -0.06900401707858872 0.008544037544723217 -0.14021209744073931 0.029934395865073415 0.04620402745916652 0.0021309101285890506 -0.004135209906300406 0.04919693480815884 -0.009175332680746133 0.0381738393329791 -0.00501358278434245 0.031904999882776376 0.18460415641871994 0.008479855584364397 0.06095423417428739 0.0580775402129065 0.037227795060910354 -0.008467106977773637 0.01617917973042803 0.022345062923073453 -0.20249250619237413 -0.018083378088182344 -0.0866933531371322 -0.050369560337178584 -0.16107264599543955 0.010780462162739788 -0.06396691086152123 -0.12368833559925667 -0.09937043891895087 -0.01188326050460106 -0.07861443073163563 0.00750174849338469 -0.030970729242607534 -0.005660487866469353 -0.04470140351168074 0.1263818505016496 0.002909495558765203 0.08431378185347206 0.12119946209011188 -0.03308524306806685 0.10679097449790821 0.03379641456904507 0.05304503137465681 0.03438076202586749 -0.09699440402435067 0.08696078337425245 -0.10281355539922218 0.116488122445259 -0.03894347814234911 -0.1313161115677453 -0.03344146954907497 -0.05829979990023714 -0.09521459037071894 -0.08994179819778075 -0.029524476283534752 -0.025426241460486852 -0.05028828442812422 -0.013552073200088952 -0.04820743146308068 0.03923194913376816 0.026947217907313546 -0.058720307155177696 0.11843834009154891 -0.08845660427092238 0.06655566013112472 0.0817196183444151 -0.06523202260316557 -0.10404834255670117 0.0695918259820567 0.045764852110824206 -0.02839994285537719 0.09780681477002635 -0.022686739332414864 0.02545841330717207 -0.003088867123462396 0.040943453422860356 0.02894165967690974 -0.07470757659305316 -0.021877041843226263 -0.018176920964857568 -0.011537675430629021 0.03119722827628125 0.05426478678517503 -0.13493442509504167 0.059395112140977264 0.07693834998115971 0.044477385300465404 0.006889491422959749 0.0577765753340213 -0.046481254229728125 0.045522342451036035 0.10166997336152678 0.00711321360835529 -0.012358206545981798 -0.0053522854889319115 -0.14923935928640544 0.10041652902218808 0.042400125444919515 0.11623287040165045 -0.09329361561528852 0.1887143331338924 0.032606117013363585 -0.04044105919046024 -0.16937199290767244 0.00983208169743692 -0.10864033627575077 -0.027122039626789853 0.013404534614202724 -0.2030989700985177 -0.050801237994605904 -0.03455992925930901 0.05752122374657356 -0.0022272364870324682 0.057035902868053934 -0.034459266588684874 0.07449892004045494 0.03463349859504685 0.09702452462626879 0.02566863665879522 0.1355437204575423 -0.047462404245063275 0.022387145652866404 -0.008224091166056317 -0.09250644127645069 -0.04618220537571052 0.10873477491392267 0.12129042568024583 0.118959387760773 0.19051442487947165 0.06056494616975188 -0.024025833594068974 0.03290182939227674 -0.02984530992786012 -0.10519999740464565 -0.04784774970682289 -0.16023477428551897 0.006608205299952873 0.0726919303946123 -0.003931948962698723 0.040227469399192806 -0.0754640367515894 0.03609071051242959 -0.010518779598524422 0.016698976151798522 -0.061546613370251635 -0.0919474999719991 0.0957072031404149 -0.0800496756054141 0.03601160639138111 -0.0038033814693308474 -0.04138287010552051 0.12036263586135175 -0.18330529326496978 0.0075029297692706986 0.08119122849025912 0.03869681541522882 0.14691539587005756 0.043724091234147076 0.07437381885033019 0.031153909520789638 -0.039530223856329504 -0.04080145618037048 0.017116796777705962 -0.0023277535832251887 0.06640832095090808 -0.09892531698274512 -0.012372750492035118 -0.004180512525753481 0.01773485921556961 -0.00639811230190484 0.08119356810066185 0.01556957744109098 -0.01367718675841754 -0.057742053944073155 -0.004873226290925005 0.0692078185767262 0.021514683689242073 -0.0664915270486488 -0.023079783367207656 -0.07840853624116742 -0.15091803014424598 0.031571856924630146 0.052309615793275505 0.04908413844821486 0.06183408418755545 0.08401174677807194 0.04629998385899347 0.006407310575355085 -0.014942737880503563 0.018845540734349877 0.07317612642963071 0.04178793093663219 0.05415382742756346 0.0014033923893345508 0.03380952135720416 0.12144653489953763 0.08329020398722453 -2.7791743153487937E-4 0.09965107363679533 0.015497664614394373 0.06928468911351142 -0.005439287696357095 0.07955362827477015 -0.06877104997246476 0.005857148177201558 0.01972586705695748 -0.027876626825800624 -0.054300581559190784 -0.3597415965269781 -0.18816299800038644 -0.057034268112188716 0.1283551429751813 0.14302131480957395 -0.011620471501713948 0.09266104951955989 0.03466651777866263 -0.06452019541487658 0.16098815644429326 -0.06231522083292413 -0.04149210186016152 0.029780356124801788 0.1341566860953788 0.1595611308802259 0.1945850490410201 0.1077497621616519 0.06556495712875055 -0.010493190047132448 0.05747634117397128 0.11745889837993108 0.08959080323393649 0.12667814910178507 0.038357598807315006 0.05603780611232437 -0.04227981431240974 0.03545275191751667 -0.025623323731552718 -0.14071471611180977 -0.005026736388653964 0.007102796527951578 0.02341358708636186 0.14918676606988254 0.11720872222302373 0.21282294122754475 0.10628726882962325 0.12345987053059872 0.16503852152871096 0.06895258834110267 0.09825910765846321 0.09833386350512609 0.046450798115984154 0.04567961999461531 0.07972947764397718 0.12660676822461475 0.027476931830816335 -0.09533755214473748 0.03457647727493739 0.038313448500627734 -0.008629828784609859 -0.027136502696842868 -0.06047988810033825 -0.020441220479679247 -0.03795030797992764 0.05568443546645186 0.03489218306935672 
-0.09457718797412601 0.03489726647103696 0.03406999847310711 0.020054666470249918 -0.0383712590146834 -0.12912043625140854 0.030461522979767373 -0.09417348495286805 -0.06807096958454813 0.033838543133931254 -0.0032086191738120756 -0.031007297759994855 0.022867719879806535 -0.019582707242640454 0.03239707713899174 -0.054185358235278286 0.05668038921196881 -0.07404800217948285 -0.1265442059294884 -0.0542194239541783 -0.062460578773486375 -0.025865931810914813 -0.06260765492661638 -0.07814298878600072 0.11775340341564124 0.06265756159095992 0.08025351959161311 0.380586646301361 0.04244432997305776 -0.017675286320224696 0.0595691010191959 0.11068762407524253 -0.0012684661876865328 0.036998322181004135 -0.16486606118667504 0.01488879321937772 -0.0657434264997381 0.0874828677990539 -0.12999472633457607 0.020797692944048513 -0.03565663421957209 -0.0775418092343846 0.003771929406729409 0.009648600979734252 -0.10875404686804631 0.005243149909693411 -0.024276589434279138 -0.01019608020372925 -0.019405695691003904 -0.02528922639377757 0.04450084125500759 -0.04626950649081563 0.027352868683230423 0.12668316204658917 0.17918442391156442 0.24035660365344355 0.09557462541719527 0.1286799911721493 -0.04495002050600303 -0.007979950620105796 0.02255143223639306 -0.0466715287103327 -0.09051592353816304 0.00458129878917333 -0.009086761609535997 0.018310193209226937 -0.05395831340661833 -0.146778635297017 0.0398576415764781 -0.0868415224883487 -0.034828145567226645 -1.7950827938472956E-4 0.07871318934131658 0.02178646255031238 -0.08203916389592031 -0.11769421572340502 0.029827083090645776 -0.084210075906599 0.008931692394413316 0.029611799452609815 -0.045681193679645384 -0.07638953760285293 0.08653138234459676 0.2773200938801852 0.11951802180852987 -0.01763612308165411 -0.03528568298257239 0.13648610760250826 0.01578149819813234 0.04554522622213441 -0.01785606782173638 0.04339702700660356 -0.06770836247438342 -0.003639350410658826 0.014252815802116856 -0.15931194474318955 -0.026061145782238403 0.003107358223240328 -0.01622389381643578 0.12067946342307943 -0.02935083153084124 0.008880752835380817 -0.07727111367720657 0.03596688680310102 -0.0040009647139123165 -0.038546008364010384 0.03743667217305672 -0.010779006691238513 0.013213283708456283 -0.012699064122889448 0.04289720218590269 0.19011618165694505 0.030219589907337484 -0.043081747771473014 0.06565973810460078 0.12220295942126344 -0.08355000198542496 0.02941351043948199 0.09556444626611801 -0.15228464864942107 -0.15936188841426752 -0.1553962383482872 -0.0985045290371587 -0.10834758002059243 -0.07770452125548107 -0.08128734064516406 0.09036039167136627 -0.027351515000387554 -0.02912454143609214 0.014049024541107298 6.671964411727723E-5 0.10268320518856286 -0.020856102858247138 -0.009135570143565582 -0.05155232578029158 -0.02175903786286026 -0.04726796338901966 -0.11307787873741727 0.09360407792686282 0.1459613878605927 0.1418653931322539 -0.0035753663155633024 -0.05208849875531782 0.03170153872667556 0.04409116786115259 0.040843830987663435 0.05689245365523788 -0.005205647507098034 0.016191843714124732 -0.07816506294224067 -0.039342268813501294 -0.03226042240772078 -0.03700829194642434 -0.0996764242788897 -0.009484935345002964 -0.025102901388326684 0.0673106054281251 -0.029371927410345708 -0.005713290172360377 -0.06920655259294693 -0.05559444326218476 0.02054340754652708 -0.057499101939203136 -0.020586663114872027 0.02346264090574595 -0.0447116112727048 0.025952500677773962 0.19429570004952268 0.08188784642559145 0.15779992392049436 0.08353236055508877 0.021358884407042547 0.09553152041583683 0.007753208019370978 -0.01969117232390482 0.01792330155714583 -0.04256191295158877 -0.06910828585226003 -0.072683876658354 -0.022330039549110225 -0.07250918890533826 -0.03450718525041259 -0.0627533821003155 -0.06367110299596473 -0.0866788673419081 -0.09486327277429471 -0.023602742411540402 0.015390375715851211 0.1145297813333046 0.0800869983740001 -0.09602067226271212 -0.003760663195841018 -0.10839608864359646 0.05611455209090978 0.04111659679131979 0.09466956301428418 0.06355009667643136 0.037633706116933535 -0.028165842970934305 0.13878727564421 0.02202650854158637 -0.07966990790029141 0.07256159910701696 -0.021672309855200182 -0.03531284080349536 -0.08007778565007108 -0.12674087437217013 0.009887546054909881 0.002057359436337526 -0.0974897773132591 -0.13236308926672158 0.008796874905048872 0.025922887310982363 0.05911015433733309 0.109655677079478 0.024624048057995167 0.05514483916014064 0.061537852104809096 -0.015431560345811477 0.02174497812225853 -0.06418066479681327 -0.062352163496580654 0.11993950733573899 0.0404152777074437 -2.978238180848505E-4 -0.022629203618311448 -0.009954822897354066 0.044228061055374246 0.07082544723905461 0.043085710515526815 0.022797314827083744 -0.07794369596839518 -0.08722872809304819 -0.027814002010038735 -0.06666228971486463 0.0220881157785095 -0.07331119408919336 -0.09776630814794626 -0.07668733084603813 -0.03340545056050889 0.08306014046784979 0.07211485770384919 -0.01864498572842513 0.059683929789980036 0.021109384548900753 0.019277967538514653 0.08262574902498662 -0.02164305685343324 -0.032876151546541985 -0.0035048462554654004 -0.002377819695471404 0.14284806441242215 -0.03555165200535654 0.011789537592845652 0.04300628391042044 -0.028339079859982314 0.10365370776786241 0.057467631559453475 -0.04633977180585771 0.0037040531699588826 -0.0015219790530422055 0.004635078077934571 0.044257925291060186 -0.0014538963074100747 -0.04636069091874224 -0.160305861516665 0.07906916269311197 -0.049234686353099764 -0.004801427220762336 0.07033179697947879 0.10867966304216428 0.018573514820743698 0.011647177086143486 0.16138951549343517 -0.04113853513778257 -0.07449509177734366 0.10642787027084545 -0.10994001371773547 0.07453280542199481 0.06628074348539949 0.06088997832125271 0.006877789780200488 -0.13348731815101297 0.043654613061059465 -0.02078157218084627 0.0434728245976892 0.00961352688815963 -0.005286925748299614 0.03689675498199528 -0.04884463011268636 -0.03696253176275984 -0.09780803952189425 -0.09170994288793614 0.12976430716597642 0.051018412293297837 -0.034369614781976525 0.101352216022773 0.04902991351865981 0.09244410956558799 -0.018773921725144024 0.019135563324676513 -0.03816120794787469 0.07766667663739668 0.010022471967449795 0.14808418179304683 0.09176601401580153 0.17856819368237692 -0.039225839127354396 -0.12789526881728583 0.05637064313729549 0.041902738652762735 -0.04516606060921247 -0.0549766747467888 0.024000083582527518 -0.1331109998228317 -0.04055075866632718 -0.03030853478614985 0.03909566538844251 -0.1002707087528526 -0.08805384207690894 0.0017741577445251583 -0.11111691743403462 0.030086706965598058 0.024677089363399716 0.05146083302134079 0.01763407796188644 0.03751784044337736 0.03992260132573259 0.010508899319251766 -0.08904787870005001 0.0902437128917446 0.06250798642883656 0.006771948935761369 0.1840282971830508 -0.06083759530468606 -0.06665253472709426 -0.12885455140326443 0.02162150394691648 -0.028018815827459315 0.10264532178160393 -0.0767248548977937 -0.08512709186294173 0.003304889965297362 -0.04424593680345164 -0.0029847127091940603 -0.020967218717569274 0.012254753035453269 -0.09109071532031449 0.04036632904237429 0.0255810863449076 0.041324271191419217 0.012346140671416433 0.041120299974064994 0.10622896005223029 0.06352943659554211 0.06826690939469088 -0.01938676057095198 0.06180153593481508 0.08881445769206742 -0.036233198186758866 -0.0749864240936979 -0.007773582253094118 -0.028711542065574094 0.08530876556019465 -0.010556040041368293 0.08799095042736359 -0.03150770531780223 0.03473697686292452 0.016743778480819444 0.07171249909173076 0.035382908935154334 0.016438589069143594 -0.04700280718406453 -0.11340610385380645 -0.03952592270523116 0.05220097135049459 0.11481150795557526 -0.1187394883382691 0.01347443083573509 0.06896585316424533 -0.00917038302150189 0.07817550750466819 0.0627967557060616 0.08338172553421246 0.071045927497954 -0.08059615897985921 0.03375143479795932 0.06224751167426523 0.10191617722774096 -0.04916878272581647 -0.06176521697899894 0.03653360880751051 -0.08377704157069493 0.00486263804228384 -0.03019462894766894 0.01116330783247146 0.045947958439399916 0.015863977420109268 0.03496021287930338 0.004179080594046136 0.0157443802966756 -0.018205243929267766 -0.04492141736323766 -0.017611899404744395 0.07783987783836882 0.10550375515849077 0.04093606664298779 0.13027214599684947 0.07197177167561152 0.07393525364706993 0.1261112456992333 0.1377845300015818 0.046106703315544104 0.11652572341182556 0.07565045842920155 0.10308540047082689 0.021371399620978407 0.012222873731941496 -0.015974993613159644 -0.06563716444306862 -0.08599158890127732 0.044056694270620374 -0.10203924470868254 -0.013788505339193992 0.13122629269793745 0.1110339927375757 0.021865650610519843 0.007298934728539934 0.10152395010341594 0.10729599757326101 0.10759258197430473 -0.04610276685798526 -0.037796017554611025 -0.030599930014821496 0.06691220631334024 0.04593030790716089 0.06798117654388763 0.1296350879395523 0.1153279841145777 0.05377557292442359 0.07701775303182065 0.08299043085082346 0.054745197969614426 -0.004479653290041243 -0.06504402599069883 -0.08086831948618367 -0.06791422446987558 -0.03251857035476331 -0.1069371674756231 -0.029103348941836523 -0.09801643419682891 -1.1114629568108211E-4 -0.008223791149179968 -0.06508451249364662 0.07214722590676623 0.06509392683792074 0.05012689078727352 0.16325171791828935 0.14019830471445818 0.08037807166950311 0.11359108747077298 0.16156494222156764 -0.003914935892342117 0.030703460669186083 -0.002595585677414436 -0.0042129716486502935 0.04028261730977302 0.12616094730980973 0.16572105608969703 0.0134098200450987 -0.059859938015964544 -0.002349505086257886 0.10020342320763374 0.03590283120984801 0.03559741954019414 -0.021476262249182285 -0.17051505047460538 -0.05629977582506813 -0.16689359093074013 0.004129315408289675 -0.011611665779896857 -0.048220925972042104 0.02565818024924409 0.11494885797602274 -0.06296519840299034 0.0982327396484405 0.05641365535759775 0.08125118325831306 0.023525354730951752 0.07372277973566381 0.04376821659204717 0.07578589513199417 0.0871099490379585 0.15186325279459467 0.10958428352663394 -0.017188549215633817 0.06855579270066692 -0.0013956767041042376 0.03987136237026075 0.04306573025214871 -0.005295757774057663 0.020022300227089805 0.004766054241235753 0.054309956328232295 -0.05981091195489012 -0.02174916275901915 0.011385632304279513 0.025824334643792437 -0.042511675198169986 -0.0257968873996901 -0.08248944556346822 0.05386136056824565 0.06620087122091863 0.05896644314947516 0.07798242850676243 0.010360919656791027 0.03543784396149066 0.033843868750510785 0.12819519855716 -0.008295732587382405 0.07296626686982306 0.049482880836602926 0.06094766637332476 -0.051465667511708744 0.10176912383895301 -0.049313879916340495 -0.025774083422874405 0.0018863498922471167 -0.049041993221574036 -0.07438101038416693 -0.065442650769512 -0.055103171665477714 -0.1715856051074931 -0.11223495001615488 -0.060559592680339586 -0.07741958977388054 -0.12055290681234108 -0.05433344065147589 0.07613025987165835 0.07976442278080657 0.09612182101069126 0.06947297479433331 0.13368281023641404 -0.03183208605494314 0.07839597806901707 0.034861517106752817 0.10396453821006131 0.12477271625038662 0.03559751980842385 -0.06516039911360938 -0.06348010596549741 0.04163006334800978 -0.07797025163056845 -0.032799708299852945 0.06945001578678224 -0.03378073992294997 -0.018724153133740484 -0.013359431489895147 -0.033819352252797384 0.025107119616540736 -0.10252982106153487 0.012748988092447972 -0.07032010773662145 -0.05820944955558937 -0.11307798788556447 0.058020078258267146 -0.016463904247121387 -0.06471566138660902 0.02778100139239912 0.18889352272950885 -0.011846041881371757 0.1206846760952673 0.07890092347136818 0.05371036001569519 0.06188617927214343 -0.08737209690831656 -0.013588339974101688 -0.049187706853924755 0.07798395971975056 0.05289780634921385 0.03307608917518299 0.008781173189320866 0.051970591523740534 0.06135114107796136 0.047248618553912075 0.05099588273951958 0.04933817813962033 0.0037775819108325807 -0.10640919940913754 -0.10235227001686624 -0.13233278429164466 -0.11115357253106949 -0.11147600954501058 -0.006932710841419663 -0.0713595815726489 -0.06437983818695237 0.025752664862858887 -9.799568122463506E-4 -0.0024344595094437623 0.012449435784972625 0.06540373018335968 3.0819086715625345E-4 0.07224135276876419 0.06284485348600209 0.03463607297191468 0.05925295279888104 -0.04652732003320091 -0.016670482447669006 -0.06792983828211271 0.08253858495398224 -0.015313871801227529 -0.12441136926840801 -0.048900645536496944 0.06804996915294394 -0.0452104156905441 -0.008225028140525755 -0.08931173078312621 -0.06353425057194817 -0.010208998097427232 0.02391045258509722 -0.21619076214840566 1.3344244982070526E-4 0.017551525555966167 -0.052874492173616484 0.11272515704825171 0.0948668886931961 -0.04960559776090902 0.04741294267393262 0.1040492873673054 0.040824469225166214 0.13541176437798827 0.05278101059275913 0.03440430840719976 -0.048827125657452036 -0.01326121155779762 -0.10722203467843815 -0.0509933921054189 -0.12396694818786849 -0.04601999687781233 0.033754250682528235 -0.02803058242088596 -0.0238612169462023 -0.10920941105677993 0.042257815751860654 -0.12884889098921157 -0.06499212239749565 -0.01235232048205367 0.019111018538490062 2.6541511338771466E-4 0.007598236772389253 0.024864648442632857 -0.03147557646534009 0.10324406804410233 0.019993235726141513 -0.010595362526105625 0.098949276972865 -0.0436295293034352 -0.012911112353085417 -0.06571890843107689 0.024084717880902072 -0.10846087832798144 -0.034691435854791786 0.0175201575916231 0.04356088889399731 0.0021639535298646657 -0.042383291761535796 0.02515217829053552 0.025444752424633902 0.03658176350409604 -0.04301268545253486 -0.019521493792136232 0.06862987262000558 -0.057427272285493186 -0.051957525643045704 -0.07190283909838507 -0.10213102255090103 -0.07386454679995487 -0.1625558392120626 0.04364756016608108 -0.06571197793889821 -0.05818963320284442 0.0133713010421686 -0.14456353969729435 -0.06956366814801271 0.049428304618041936 0.08483229164867466 -0.06238018739861455 0.028158559744473358 0.011414346541975711 -0.06343753401274592 -0.05127987136976427 -0.010043856838108217 -0.16459842920094017 0.010420110964371992 -0.019512681807528718 -0.010943764167207942 -0.10160422637569803 -0.05248435043210409 -0.04038113262568961 0.04176532930698223 -0.08454754191910088 -0.0537290267647378 -0.0533390769968169 -0.14368430077751448 -0.0728905269038416 -0.029566291102138074 -0.07524286480559075 -0.10818750550581077 -0.07216774606809484 0.008928077739249755 -0.05903313825912622 -0.07255579278432878 -0.07047407740631008 0.033236406001118574 -0.08778836061240448 -0.10630310791865961 -0.01648136213056183 -0.018928845909916486 0.04555457187627994 -0.022699221277351453 -0.016497497974523778 -0.08738824379078487 0.05556108253628105 -1.463159168557916E-4 -0.008803837474537085 0.04553002457723852 0.02492517992463243 -0.06844234723773493 0.09833596881428856 -0.023460454550997656 -0.185000563694935 -0.1769854649120941 -0.12679373988254103 -0.0029480698324747105 -0.08392765375719263 -0.2537007197577125 -0.15358340639191226 -0.15731555462430696 -0.03815896222158873 -0.08131104560338151 -0.1304061697865907 -0.15278683177845792 -0.10647320265660687 -0.19247433195909794 -0.11576991090955462 -0.0649361962705052 -0.030639314868052946 0.016330429459637207 -0.11833747524099733 -0.05575740269995891 -0.06241108710741837 0.07647128127589244 0.03139254181998947 0.11543775145576471 -0.017931022270162342 -0.014186577954959895 -0.1285632229841191 0.05416335611865294 -0.02850862904536889 -0.048165874680863634 -0.12360502255358054 -0.13556152898041582 -0.09854667550149765 -0.20385447153810135 -0.1555326481783625 -0.16321187596201522 -0.08699177927036444 -0.1461438729540841 -0.16481188143332573 0.004653829191563337 0.012447269240686504 -0.12506785796790773 0.012637963973131001 -0.024010617951173374 0.005148477457810943 0.0073586718072593035 -0.016008794625968884 0.004100158998911372 -0.042567287055202005 0.01041929014683924 0.007422105073186079 0.04336705712650853 0.01215986596716956 -0.04371620639869461 
0.28316997704645885 0.09602365335057758 0.025659463102255278 0.1572286781395261 0.13175377420412615 0.029308089278545647 0.13264058428251596 0.07269401917052218 0.23522431156353021 0.0011728033890859586 0.07158793231403422 0.034257298184773494 -0.08637632450566002 -0.034167347793692404 -0.03216705311929016 -0.21847412276222322 -0.003812234751576072 0.03404218135961844 -0.10381851444247694 0.04332949997085208 0.1110319655866531 0.04907688131144323 0.14410073773023513 0.1288768384587026 0.086286827427211 0.09131118392786343 0.08206891107077476 0.1707769707754024 0.144693769397497 0.025764116938458613 0.026600140173460053 0.11719401460205192 0.06224630106984028 0.10711444200494513 0.1222041767389535 0.007282307953899757 0.10260606573950827 0.07978256678072299 0.037489108639117745 -0.07706796695228603 -0.03305133089362088 -0.00277516752614642 -0.02225299503827109 -0.007914609587758421 -0.017134174910182123 0.044260513784591275 0.029375863436148356 0.0059922454805199565 0.01390770286728502 0.08102554074677218 0.05430944367945248 0.03303380288132833 0.08657157761129305 0.05009802788152782 0.08669830359862156 0.15968496529816445 0.236339320938439 0.15667881168650613 0.058081039876393716 -0.031997093167661625 0.09307997665238485 0.1854463825200736 0.12550098342859833 0.04079664788938629 0.1344411182260174 0.03865635365631594 -0.018932850298067717 0.07290380338212778 0.02458978204539203 -0.0181384670190947 0.061003326436800016 0.08587291512174568 0.06903894466667126 0.007915750976801538 0.001939007781145422 -0.10485202496293312 0.11908779923058779 0.07054819685731235 -0.102824225775755 0.08323422279725193 -0.016389991530961292 0.07895699520015508 0.10879745474009729 0.042970567222138344 0.1843771395663773 0.09740055691220854 -0.07622892346971685 0.020094023802297543 0.06957638342242782 0.12945879668954255 0.07693683115099087 0.12015400145406388 0.062399407991136524 0.054165700109130625 0.05829666971248855 0.009915630113947386 0.026367410253427107 -0.08524943062709685 0.05029580964288746 0.08540226342485208 0.06930757482325169 -0.05836227217527426 0.05358555926932233 0.06764186765688428 0.08034170854783974 -3.839911567044452E-4 -0.07147035112361062 -0.021415228923281716 3.4331825148358776E-4 0.08062353503066917 0.09835916442979283 0.062085141743507835 0.0856354153562226 -0.0063346205695098195 0.14027253234172116 0.0670184592470515 0.15991080040728173 0.14180402847934384 0.198443860811156 0.10237718934190687 0.13525704064232974 0.10140749634227486 0.109875874737247 -0.011181701180897043 0.17613305601323012 -0.07335259529375356 0.15921318783172864 -0.00850958956980956 -0.08888897237071647 -0.03842650498487783 0.14524952679102066 0.10431648914354019 0.04650749741861434 0.08491888644522715 -0.20289249194095904 -0.1493733447935168 -0.04634484169397766 0.08041137967830814 0.00746099257861661 0.09849524220100922 0.055856499888666464 -0.03848581708133331 0.05116214319816719 0.004019543736466859 -0.038674891006204165 0.05386842389371396 0.10749398686711069 0.031249819721741623 0.05613918110182606 0.11955140584940101 0.14236913248805336 -0.012596529221765363 0.09263221360794789 0.010857516858029374 0.09665174911400207 -0.0323181003221692 0.046417843067281694 0.08653456652090645 -0.013218460858759476 -0.07447856722171754 -0.024407101915931352 0.05272251468223126 -0.02189484026356241 -0.01814881964724801 -0.07272807228122845 -0.08198192227674059 0.020358266534101603 -0.07985664611592448 0.02681459679458332 0.0910325705869044 0.07899261625191745 0.08051218858858289 0.09021830042277622 0.07696776104280338 0.08882764118123927 0.046361846294952096 0.15207672535366284 0.10226401527308343 -0.01583586484510514 0.02742478097346884 -0.032802866841459596 0.026934959221726795 0.018354135529386945 -0.026679387950720078 0.03069323060719039 0.056367461900523934 -0.010349620390954845 0.04535651880208822 0.11912020545972626 0.03910135127795006 0.02233160156804438 -0.03710773065587582 0.1073827603604446 0.10634566990084655 0.07602965819488298 -0.215737678507918 0.10591367054567609 0.05930647915970987 0.10827525596992396 0.19914592580816107 0.10663753897669954 0.06964658436307028 0.05042602611945784 0.04377668943912888 0.09482645847704674 0.037409169198077796 0.06740022916902881 0.08772806253767135 0.0015132146261896484 0.0971469037783743 -0.05550565776013781 0.05757369795347732 -0.005807972923430112 -0.012141085523462162 0.07477084225174328 -0.010446423474408656 0.06440586402861068 0.1348483156033164 -0.019671196570355164 0.09846570689219293 0.14198626543623308 0.06836946054983381 0.025042032060602876 0.044253831455746864 0.19634591286772948 0.016391766419708093 0.07748884498772636 7.270695306805768E-4 0.0725873177505567 -0.0505837237375504 -0.011349793985723085 -0.04201100936178852 0.12649618240660102 0.1119695608435926 -0.03589189577555979 0.09668113153135613 0.09729290599514158 -0.024554417423736787 0.09418549486472344 0.12069308675843018 0.09467289799621492 0.038602909754076584 -0.00816384537125098 0.018308498541178782 -0.04873640400330824 0.10884813888398451 0.0373977738573473 -0.021375543185811717 0.047598866164145354 0.023796598443817162 0.0650272400608193 -0.09938596264420753 0.030659469632405352 0.12416045920656155 0.05166025981988658 0.09240678973244901 0.10889681955123345 0.006925103376004226 0.11631555607509045 0.12291710575576342 -0.039360011396761124 0.10416324623690158 0.11761335070704669 -0.12218650072180225 0.013498465305484177 0.035545421463294535 0.10296146695796743 0.06148562459905226 0.07751342570331071 -0.022252801010013597 0.07251215532031896 0.0016291631390723633 0.03602392939362521 0.011374430945791363 0.08764223872715296 -0.014393232744627083 0.09519199625078943 0.0876069282047917 0.15684732361484943 -0.0232919364996677 0.06204184592907288 0.008785697685685797 0.037280198587667124 -0.08989745382524321 0.0028750516980469857 0.03125832607224604 0.1749682027853663 -0.04586618725490718 0.03013657185769064 0.012951231303447854 0.08236360810098282 0.064873602208635 0.045067553670658386 -0.012130643080223094 -0.004703151771358905 -0.05027966676386418 0.020071633273678443 0.047088354899368585 0.0048146477493018905 7.806237235512926E-4 -0.03625249527156266 0.0027545901134607433 -0.005297292862683842 0.07489927898416143 -0.05152299451214109 0.08983502936686431 0.0970203147813813 -0.014899154144502415 0.05174105679397029 0.02111596072382388 0.05621540085516212 0.05046878247752531 0.02890037848175053 0.015351485025540599 0.037377476877442715 -0.06144078854773564 0.06311837838144352 0.029146441676174518 -0.05895417540424968 -0.010781976444937369 -0.005148928335376229 -0.027113801436630107 0.0706335707032425 0.18374262968862975 -0.08995220671474435 0.04355365786974624 -0.054174809490149654 0.06017785997144143 -0.05486515907587966 -0.03461135792602016 0.06031497572376997 0.01809159859331942 0.0874059208825805 0.13165643221307258 0.1123578778994094 0.020261741066857027 0.15067613775241656 0.01408052720130167 0.028826470020831458 0.023039654854497806 0.1095511060775968 0.03189712221140943 0.014096708661388393 -0.025425983027052783 0.04336764581616793 -0.047312406583954005 0.0022461863146376643 -0.018730553381808807 -0.018007598035398326 0.11539285851053939 0.007303237981561818 0.05267366300862298 -0.006952683234162736 0.039081492292020195 0.016204589712984607 0.09403745649481124 -0.02614694039554211 0.01774871894864583 0.0401595067045322 -0.06663533152395013 0.02227875040679837 0.037443945825833026 0.06569057146146663 0.014147287058224427 0.08817658761513013 0.07718600352693729 0.0068758776636115215 -0.001343159994982939 0.014153581752590976 3.134443019442596E-5 -0.01739463897848298 -0.06390882212357488 0.0845626139906683 0.11370724805466047 0.03175696445640319 0.08808373598446681 0.09054195466183712 0.09105889957558601 -0.08367207056668306 0.04498406217530779 0.0743300667979188 -0.07648434646342105 0.009679277115221863 -0.04063459893847601 0.005522106740835165 -0.012007890643540515 0.05057227011477015 -0.02694910131600345 0.10886124008713308 0.1149495682487016 -0.010585897846341792 0.017511547067656442 0.044478251309230936 -0.02952412993108032 -0.05450358109333223 0.014864040492337364 0.04070320400733312 -0.04850778742465146 0.027278400535598185 0.036685991186460085 -0.08077738098870389 -0.02384724637681697 -0.11899534555627489 0.024901630386511216 0.08852604953284765 0.031216744476986868 -0.03228528329938716 -0.025549180585069064 0.014127152028261664 0.020620141191616707 -0.026954424943311305 -0.010658067552645435 -0.09548026595591465 0.05325503815587684 -0.012371741002693464 -0.057542861048027534 -0.05348080407884555 0.08335249972944266 1.4610155688273094E-4 0.013288983871831753 0.12838216124980434 0.07811407217710337 -0.01752343315377245 -0.023499786905569246 0.019704602754384674 0.008298720212482234 0.014525950806633896 0.05374672584754893 -0.04672142637679402 -0.0062762408234794615 -0.06899516895311857 -0.014376283591875382 0.12166205568164228 -0.012416252637003302 0.00382694683449229 -0.11110003312765579 0.08378002127088868 0.06290971992528381 0.0010687731159384779 0.010656350955551753 0.03227186451008661 0.1209613604585625 -0.09855499997078924 -0.04519780376970124 0.1627685145284394 0.021353240087358567 -0.04188086342143146 0.08400311687056523 0.14776109599716158 -0.08510642892508383 0.0027284832877325625 -0.03728269308542471 -0.031586753426985456 -0.09914282543089667 0.05412311183015932 0.07311688731101257 -0.14460402090475755 -0.05344580841406102 -0.026179818256151618 -0.010995235481113893 0.12735745057987685 0.014203136735143645 0.04624362592371871 0.08239161387457342 -0.08505958860198926 0.036629984505983655 0.015997658818856016 -0.012846097109447807 0.031236957236164542 -0.09565451701781616 -0.06316852596321779 -0.07692806246095217 0.027994839241083994 0.003572125735506231 0.040101179091096215 -0.08134297720952745 0.02352591100371263 0.0651753633385337 0.007462416244697396 -0.1321558009057528 0.06012476174922579 -0.0021970659885281385 -0.01783794561040144 0.10023113651973826 -0.06673065851243996 -0.015080695159427513 0.047401382760344606 -0.05682379867145807 -0.021708743953638542 0.020794425194028653 0.025064573403037336 0.002209125306323226 0.04071164173317651 -0.05376545789193142 0.05010042243607631 -0.014838303188460102 0.024004411737813657 0.06760318375698149 -0.014096656141228636 0.033150890875673175 -0.06661852216082131 0.05009544195765739 0.047132040078158216 0.006260023638487777 0.04008899413586669 0.05770649171746216 -0.10069697962182794 0.02719004234334341 -0.027807628608463236 -0.03145303279133614 -4.931987859409586E-5 0.0698208754123013 -0.06304366337367293 -0.02951013542426736 -0.034996701045417966 0.06598158775412075 0.013333799046128497 -0.024943672330146032 0.019175505308308326 -0.15401289141838342 -0.042104607550759746 -1.382176930998384E-4 6.059748549405546E-4 0.07338305268599493 -0.05842083353023869 -0.01263810427003863 0.03355308896139788 0.0162571632379211 0.09036855531447151 0.042467037709438285 0.07345860446775349 0.08358190355099747 0.025661834132044453 -0.042377070092225515 0.08400966160345429 0.016216722171980686 -0.05410025907656032 0.005402832550108843 -0.12469341510691362 0.05703796934734814 -0.004416051134535209 -0.13691713693973318 0.0261417094339025 -0.14018368687203778 -0.025217325342344638 -0.017319062379740496 1.0944714147696655E-4 0.004857606736752511 -0.05726084840172752 0.02074899457700991 0.03937741743539053 0.04276258152843057 -0.09869178864152438 0.08385672888513271 -0.014464466102209486 -0.008793539391107028 -0.03734563197615041 -0.010328426510229064 0.07218486277490782 0.06676167791213179 0.17756474074589745 0.027243564567531704 -0.05587575513600691 0.06938130391870943 -0.012854563919789749 0.06394539390881733 0.025137983245999952 0.02066736154783628 0.04864355911869929 -0.037737257303986145 -0.06153486342696107 -0.050260370382661734 0.053141844791616745 -0.08362541542925445 0.09218873848769776 0.06318026818211385 -0.03472773942652984 -0.06707960675676496 -0.09877926403322118 0.01281901024661596 0.034020891547374484 0.04584343263494742 -0.05843057852103195 -0.10609813209066729 0.03664057250603226 0.03975219748586388 -0.04594108354989033 -0.034802164879391286 -0.03240805881873234 -0.0038556374819186203 0.042344597776008956 -0.07002801980072967 -0.0672046218504866 -0.043660328818122034 0.05275284826679272 0.06448780048065399 0.023358803298787843 0.016347477026711188 0.02117944508735523 -0.12000999045345859 0.03134593507119399 0.01717293927715992 0.029730410470273593 0.028982606613749178 0.05915027409191541 0.0400268208129463 -0.056792995082879424 -0.02415160928801739 0.03652266398026469 -0.02274155986296722 0.02794341003377983 -0.006452990763883986 -0.09100163710307331 0.0017113954451397498 -0.06958930583818239 0.017727081033410665 -0.0387818749791303 -0.04575921858842764 -0.005056810406454359 -0.07268978731551944 -0.12174615334680179 0.048467266854175614 0.02500002180300024 0.026846586716114677 -0.07174530937966159 -0.012842013540845574 -0.046185609821366824 -0.039546451470281394 -0.09155245988695976 -0.004052314456318321 0.011463460918193447 -0.023718024037859126 0.015878261237528148 -0.03125274299431703 0.049670481636228545 -0.017017668831181595 -0.04527524168200117 -0.050417178490276916 0.03069982096247027 0.021426947052720635 -0.03808285057892616 -0.06429610985716643 0.004603289291564505 0.008544846663655308 -0.001223467260597306 0.13488588899992324 0.05598774404852386 0.06261065602394027 -0.08087401069756611 -0.03936027965566967 0.09180597601665226 0.011135177298111735 -0.0032886860456534097 -0.11744690293392125 0.052329498444133773 0.0550467016625131 -0.012764636881595211 -0.024061673711702865 -0.028317128925122146 -0.09993310107453665 0.03175910063373763 -0.04183204029697042 0.02264178521513416 0.015976901930845278 0.02610957195136899 0.020451058331496436 0.0828870613675485 0.05635004709771972 -0.04582495437676077 0.020589812780491185 -0.054389103007988646 -0.032908967226714395 -0.026116349205247514 -0.02629637217704947 0.049441236450637284 0.08173970638746694 0.003327015994954276 -0.12261042651798117 0.04845025778150288 -0.07380413939002302 -0.11050891710340616 0.00633336898743493 0.09372184237297831 -0.01690923036601131 0.005081559056591237 0.002577967202682116 -0.07265422038761812 -0.004978189647305154 0.07446681232315146 -0.015656584865201394 -0.03839794352900318 -0.0619009802581825 -0.08742545509800095 0.011628667753860294 -2.631977418705324E-4 -0.04972392170893087 -0.020086707928710833 0.05143372093698882 -0.02973448573874023 -0.13439271502189307 0.07557250052771634 0.12349986537884616 0.015238852179099774 -0.10070294339469282 -0.03588032410554572 -0.039422847126761106 0.08228128228759159 -0.032251035017454736 -0.0054087488401622676 0.02620677914407468 -0.042983338864168455 -0.03085164001831622 -0.036935191081205576 0.03969513192031844 -0.0563938134967865 -0.07497193438713981 -0.06763383612659504 0.020002746315583547 0.008772958170736176 0.04154145148556479 -0.0418463243601006 0.0508123012399529 0.033902196982266285 -0.006770221450835833 -0.0904430421931501 -0.07338971100223501 0.001203171863543584 -0.10921127051260131 -0.052527327935205675 -0.08527812647266661 0.09330010501237025 -0.05471173848379384 -0.017067368803365984 -0.07793328991942595 0.04952209339234223 -0.009518925459545094 0.013842243613567552 0.034348602682367446 0.061545864395094275 -0.09616924063545108 0.08156717909174366 0.021744376493547112 0.023746451826680493 -0.04969623699934506 0.004121931933095644 0.05464378888922645 0.08176643992868389 -0.08171665235345374 -0.13308570461352073 0.02912527703433878 -0.009303801422787127 -0.02951081607863994 -0.034471888139662246 -0.029930194675833275 0.07669365066136033 0.017060676589925036 -0.07169557236245815 -0.10794778538606159 -0.051974740659206424 0.043515454417673446 0.03595245091974853 -0.042845145461009294 -0.03141252204932329 -0.01763831554743338 -0.018852323302360623 0.053575116473781006 0.01486029726222282 -0.012047904433775554 0.018833079276760267 0.05672465736860987 0.03566328628508068 0.011165138320694358 0.02464829053949343 -0.024957700767108387 0.029832539326443572 -0.0025766253663220932 -0.04075908058109807 7.092612685065506E-4 0.06186828776197112 -0.03051311992826268 -0.06717616971802261 -0.111787446183278 -0.11623021546400976 -0.036833103477563044 
-0.0711974456834924 0.054211987386266626 -0.08553009079935552 0.015657318416643987 -0.029654782974133435 0.10744033073043147 -0.05592523324751821 0.011506018224374841 -0.046029548932492524 0.039312975978155924 -0.06393757464971006 -0.07941299896493062 -0.014359239439709983 0.05842943903087352 0.03312185252955509 -0.002534535953460243 0.05598381639633861 -0.01144744658217101 0.00914533877782414 -0.01187239651443575 0.04240920808202942 -0.03239893309412509 0.009399117240832356 -0.03588089054277505 -0.03205674994625033 0.01476263750095524 -0.08853846778785356 0.05078688671080056 -0.018107671338267357 -0.05768952932632833 -0.1161741442029434 -0.017483407499100774 0.0672676986012895 0.014612064910392195 0.013451521111081602 -0.030169894856431626 -0.028752998703857568 0.015914491429212172 -0.03615007016082508 0.03188435101187923 -0.015716234474722084 0.07680928403333069 -0.005766895085451734 0.035210094387496435 0.09311116045601851 0.015141174031768415 -0.01967761747262243 0.07017963754696845 -0.009056805127582106 -0.023067518954909726 0.07523822505116724 0.03517768459983988 -0.0060416750834733 0.0809525889006833 -0.042776844525355094 -0.04066029004408152 -0.057674265194349844 0.12097477528286646 -0.05626465660319509 -0.09549648447678406 0.046588651983578165 -0.02753683827926985 -0.02962315393251895 0.043015213067536695 -0.05748049868993332 0.005782387024272509 0.017273336610297993 0.003475267596494633 0.052024601964237645 -0.034795303438754074 -0.01116100194728755 0.07831184553631651 0.09115252017542065 0.014922343775624985 -0.02176969944368293 -0.042518764141957224 0.009572360596939578 -0.003984512691470091 -0.035354468590094904 0.11105403736518668 -0.004800191518710412 0.015344793850431686 0.03828473069679382 -0.044940239108213036 -0.04366442149491585 8.762759884850931E-4 -0.057698466319498716 0.008148353525844325 0.010837896200685943 -0.04723254941905818 -0.10033811591786461 -0.11762929002152403 -0.0347130636877034 -0.04177168550356282 0.042352063167933184 0.06654236212949981 -8.383741473476353E-4 0.05490375905309167 0.01429780146607388 0.02698399683525079 0.03512735027335886 0.007709771614400809 -0.02395466551683214 -0.011566927730690407 -0.022269635275419163 -0.033876067537171185 3.183428535598256E-4 -0.0512957531344614 -0.049067372103150445 2.5447017899692993E-4 -0.05699523111580685 -0.012110152917534665 0.057458877096688905 -0.030790766267885086 -0.017696520799054517 -0.06641128872319665 0.01953915852622546 0.010502575498114617 -0.0843583578376005 -0.058870902120655065 -0.0037812258585253095 -0.030024345418701495 -0.05256112513262012 -0.0795404836421164 0.01226225421051002 -0.0028553657555066697 -0.02229833157267859 0.05367280458503765 -0.004055600091245599 0.08740824236867735 -0.018175037764112518 0.07562335171902898 0.01966697294549371 -0.11249961694622505 -0.08185520525510759 -0.09238646259773423 -0.009193635763074071 0.1313994974819465 -0.033818052806213375 -0.039472360594177296 -0.038040052780339416 -0.01774602978473224 -0.06679070931017354 -0.031285739556210966 0.03052360814203597 -0.0015601001572387886 0.046720239006690374 -0.009711746091985975 0.024993661106203546 -0.013013887448528898 0.029289295310840728 -0.009257090566062297 -0.07541128921439183 0.13650536813619754 0.06776012505055624 0.07942195698579393 -0.00697705414112126 -0.006031585785300898 -0.023418219546486294 0.022517868410112052 -0.014308691915689847 0.013362841877603579 -0.003723540954124509 -0.05528321878631139 -0.032064464766298796 0.09571453181205557 -0.08231215211469761 -0.04176968915624281 -0.009693779960151826 -0.04692024721928749 0.04870774180368358 0.03407317245335501 -0.050204110829129366 -0.0023210040735924743 0.07241156276706927 0.07453700519408174 0.0755590734774844 -0.12267396234884227 0.06270770397990594 -0.02510698811635096 -0.02251797781992483 -0.048763646719350004 0.05149742494655746 -0.037545143806471476 -0.018071747756711352 -0.0711717488962607 0.08911926077699986 -0.08247580794615465 -0.05989090871316374 -0.02381214433582536 0.051834102505439565 0.09725228482097044 0.008704454388660594 0.12366531967383299 -0.011120098192445674 -0.028366959741183796 0.013497334696747 0.02881337169517933 0.030463038271606745 0.02332455087837408 -0.08911061941464295 -0.03840550923522136 0.029821240060169577 -0.05592312086518558 -0.06564320458689417 -0.05920412332275788 0.024543530993289302 0.0020010150034165857 0.0568378759815859 -0.02575906893077308 0.03952780936255426 -0.06863993100049802 -0.013931320070339356 -0.005002168453294163 -0.0035749473198380265 0.03253176118506748 -0.001620726051852052 8.38973438835989E-4 0.0074789394775687116 -0.006493578400384261 -0.028233839760121678 -0.05128792419332997 -0.02563303056889007 0.04313083460270901 0.022608480129766344 0.04507650268212461 0.022830244259868307 -0.04836170919424806 -0.04764067317890921 -0.002435524068208227 -0.0025999957721767747 0.016131209165650768 -0.013609621018014311 -0.02203006156293401 0.05024532138703531 -0.019783753172245764 -0.04522599923046812 0.02696100232860081 0.09061191910378041 0.034979035562333095 0.06400329625914787 -0.0604620938668957 0.08127261423595258 -0.0023438674688422505 0.019572892700315873 0.03309529079459699 0.018400006489462745 0.06136751677292692 0.005929845974954152 -0.04014062814719044 0.0059753962269844686 0.015946310853702197 -0.08155509767445779 0.029973025305740978 -0.02640127688571974 0.028120056573862323 -0.06659228206752281 -0.00717549374277593 0.06274202516340906 -0.07810273536090237 -0.017110427885323583 -0.023325085439630723 -0.03731791064009114 -0.07787163929159562 0.08139868153660497 0.021861972114098814 0.0017452077887549933 -0.003508704692651757 0.10009870292247128 0.0021789619515207377 0.025982243114332334 0.04023879562693537 0.049079095300614245 -0.008497443557307511 -0.06296868742945394 -0.03332329890055437 0.007412543680749023 -0.038951269111922766 -0.024113813552570362 -0.003613436986412884 0.038932713445402334 -0.07877586603622762 -0.012332365058842864 -0.03182358384857091 0.06272369140876574 -0.08079162078966663 0.03262850839850725 -0.09441806976384876 -0.051055156899844356 0.09366231052109757 0.03586590421572624 0.04565170580317987 0.013756951324172472 0.11417330782414432 3.898960800758229E-5 0.1768297442210123 -0.018769913574033573 -0.0013545539556400784 -0.01539982349198745 0.03189333562089996 0.045834029351001 -0.005409697097421548 0.012560148001895933 -0.06402951360227498 -0.007810060295149311 -0.0070016977993769694 0.03179841430624099 -0.035330098402561176 0.0877401390111449 0.07251975745587333 -0.08082344102887482 0.01493149276168084 0.007302915405995108 -0.02112653284309068 0.04356951316904369 -0.09251509233387285 -0.053053541534344426 -0.04995037441648686 -0.02432274233939186 -0.010780578754023565 -0.028441621033101668 -0.022749295570159988 0.052167317994925924 -0.014491136606074491 -0.020401333772174464 -0.017441490018144403 0.026949634328152377 0.10108472085015073 0.09221253440689485 -0.013875329452376836 -0.026053014533981497 0.06163895073657768 -0.0555194281707121 0.06121626982973563 -0.024283176883013558 -0.0015387724926632822 -0.05055695550838028 -0.05324420506791475 -0.05847396582533131 -0.020433382346026624 -0.034074608410792 -0.05485577001528202 -0.012030747514014863 -7.53764371266526E-4 -0.03241011036822401 -0.0048929964543071745 -0.034013291084300415 0.10166196362134063 0.03211736168035689 0.022547989471048264 0.014921416619430649 0.0072213962981636255 -0.056098672005109824 0.08347011323886556 -0.05644682282488488 -0.05687166542182594 -0.015099450116073096 0.06759103325600109 -0.010730219914601258 0.06787723865291168 -0.025169132700400033 0.06436589609766889 -0.1074129008653716 0.0788208269881846 -0.003485511074670672 -0.01620058638307754 -0.056213893264669204 0.02912740770633522 -0.018834071335218607 0.024708565243573097 0.05376378232454325 -0.12761344597087326 -0.015259672419489561 0.05000110755544232 -0.003943612796410388 0.04884647302377704 0.04407530770220507 -0.06945231694914022 0.007526077695576334 -0.13343800312014661 0.028608452101645476 0.04234679148094049 0.06007299144879086 0.03166527359829243 -0.04089291142172086 -0.045392565859844435 0.016637974851675133 0.01026509288346349 0.0896682821249749 0.053239322536595995 -0.0018739362608655755 -0.08369663232232429 0.007627529626464391 -0.026686032585331275 0.09218209941434322 0.005758218205314559 0.06515149170984379 0.02903686187633115 -0.03452182312548774 0.021946796324732627 -0.013456852543390066 -0.006926918149297596 0.0762583705556557 -0.027990766498819198 -0.0627367119684726 0.008720756941752394 0.007065361487786436 -0.04128697782167648 -0.05115758143592256 -0.02350870713754713 0.07445722570208547 -0.027074821526076185 0.0430181134819754 0.01621228188658445 -0.009173428042448918 -0.07526631809855051 -0.047830412883485225 -0.0071609614836154615 0.056581411821626966 0.031377247305425744 -0.004601148039251951 -0.05949816222678661 -0.03685906289195216 0.0507120148129587 0.016657943481494054 0.015775339239711878 0.05433384561322069 -0.04940327603638385 -0.043814113733360444 0.025351678338981012 -0.007172737776106109 0.041108510090513514 0.010967438579257523 -0.07483790197507381 -0.11326212414847617 -0.017174986204524078 0.007868249669157338 0.03081191319397724 -0.02454757057393629 -0.010437009427311022 -0.07506578665874504 0.034867077299139855 0.03599634226693469 0.03336535672152249 0.045397600395826444 0.028728014685340857 0.09230371435258616 -0.007395506722549334 0.061898226814385476 0.03825206949601998 0.027229985122540615 0.021034704349869603 -0.09213492197620388 -0.1033893631366096 0.007154242042855029 -0.02680281736600992 -0.08497735279933429 0.05176873477504316 0.016212859943512594 -0.04664686700383229 -0.049609480463766696 0.05938990541981611 -0.03397301842125653 -0.02732957522507671 -0.1057003266230291 -0.031010191268534302 0.019925460370192074 0.011701574705340504 -0.006551770013139804 -0.01731250979407062 -0.03431213589676477 -0.06889987356126634 0.005033360398752116 -0.01902141506254851 -0.004847095837637046 -0.06636651267907759 0.09110579626589425 -0.13041931052616834 0.012987545207349986 0.023338675618207436 0.009241793304407175 -0.021984651562597334 0.013083020586966459 0.06703879377316271 -0.06559727889276286 0.04834410936578942 -0.07384149557030828 -0.03116094126601296 0.04775912715333533 -0.0562047536860452 -0.024774400531942527 0.009653045615806313 -0.05302776820933572 -0.003133482507293529 -0.04950651310383321 -0.062745035078459 -0.03396528631032935 -0.0381412767645146 0.01197722800626959 0.005736393628720501 0.025969693634794663 0.009664250485195423 -3.889803368322343E-4 0.04947029255005226 0.02887701637755823 0.02206471229486357 -0.0065270647701963554 0.009431543866130362 -0.0062301570875303545 -0.013392436897948676 -0.02244387789710172 -0.05615455968066168 0.017736876206018028 -0.0533366612418455 -0.03375744839735586 0.0467609032240589 -0.11807057868507054 0.0709343813927963 -0.02264177517611313 -0.14962610917635924 -0.07309592559268091 -0.006728668275166167 -0.0026619002730971816 -8.177017397060126E-4 -0.031953152845703756 0.08644787666024742 -0.06386842617390974 -0.06664961729230442 -0.012533453473092506 -0.012886375240057006 -0.04890240487129252 -0.0703021912977876 -0.015484761075969373 -0.05974529535276921 -0.013972455546423604 0.06828506279998492 -0.004059098391936452 0.027179255450696663 0.025390634573635492 -0.004312823506539734 0.06433354398252941 -0.012163147775938604 0.002434205922099379 0.03217011539430518 0.04069753261500047 -0.0070852447179507285 0.05762574996156478 0.038078596838547564 0.026518176589371494 0.06246854100125869 -0.02306625765020655 0.0502447757392814 -0.010247986863935011 0.1444356838618003 -0.022768345548107815 0.06762309302178132 0.07571631078179171 -0.03738919424872245 -0.05521760080093878 -0.026882296040691266 0.043715992758616096 -0.024736852193475198 0.041095947728178345 -0.009366720395811068 -0.09219293811970695 -0.02659377667747763 0.10702338708296198 -0.08234476464605893 0.10332737294185784 0.013004960589882172 0.056189325383418955 -0.0325346892858944 -0.013514722807021762 -0.044825420001021125 0.03653778853686005 -3.3341401623625033E-4 -0.04501483562682495 -0.0013945418405097551 0.055949394074977864 -0.017956604158578165 0.007321369870956435 0.04043365328462279 0.06565095240068013 0.043086315216403735 -0.0523771253634455 0.04164936688231801 0.0522011940620742 -0.07525168626985813 -7.704651500531775E-4 -0.005783498863987467 0.036781519885521655 -0.07634608009324069 0.01760005985668729 -0.01959720625830681 0.015128356495689221 -0.04224027301564425 0.016115489114997973 -0.03616785420652514 0.05547976224054534 -0.04211461891201384 -0.005621729546556816 0.007256068026083213 0.05780242095294243 -1.1978060529235932E-4 -0.05692496902117973 -0.08314517537269979 0.04646313917465019 -0.02957523372237189 0.051749200533678597 0.056854298167436756 -0.0299122273077818 -0.08903675705241185 -0.021988989044750586 0.052632418609914675 -0.001079839983746515 0.02462208258924907 -0.06423644647010773 0.009745294864386533 -0.10215661246614227 -0.05479725187441064 0.022852090985748984 -0.02937358059608166 0.06991658408166682 0.032311194755339896 0.1342484714368109 -0.007689525030629451 0.03729218690939554 0.02568124424152388 -0.018671269491121485 -0.05381084956566727 0.009795895920138943 -0.028323512588573865 -0.0029787888359808926 -0.07555849195428987 -0.031290521286903863 -0.02419381224805213 -0.14931371191480583 0.03040471978289336 0.04641666054884682 -0.12517950768344205 0.05569721881485452 0.024647616808288756 -0.05379230281240679 0.03656458453073251 -0.03438864116359458 0.04685818908084058 0.07293753351909531 0.004701455667012804 0.028670320712373108 0.020882972067440643 -0.01103840285380133 0.031430895412693914 0.07946633288885183 0.009156499771940257 -5.662381113488866E-4 -0.01252569492389101 0.019196580559254828 0.014918533364437847 0.011228920628204206 0.02034444390526556 0.08014009699900847 -0.07211397186147828 -0.02883322240098482 -0.028755027534650323 -0.13202607865262406 -0.021952467271847288 -0.073509820851662 -0.017260063775268408 -0.01796507684413269 0.008263843679601984 -0.15581650333067878 0.04242565043499842 -0.03770721818849708 0.11584452644556205 -0.0038610792239767593 -0.04297711830575604 -0.02343604624925095 -0.011383592298122448 0.06978135717144746 0.03635796536097687 0.028844710597333085 -0.07559653975301568 -0.011284580195544505 -0.00373519440471556 -0.06530864879614345 0.0101738478275766 0.01617055444799182 -0.020881840679804097 -0.017614224468490956 0.02644795769021911 -0.03182951161207277 -0.024994804679286317 0.03408458235509821 0.10710920169955411 -0.053104070115671614 0.02841346903157691 -0.004995289914727997 -0.05419011815863381 -0.014756246451482716 0.011676909994320289 -0.02077956219834125 0.0283631322635527 0.053722773480689 -0.04503985300720569 0.005422800736822264 -0.0930785529859351 -0.0842631288452613 0.06382873921505651 0.04404447100542913 -0.014046067973929212 0.06802181194257033 -0.00159756119733957 0.09294530528946514 0.09221508960309911 0.0651844261064133 0.11052383772244723 -0.006635801066531365 0.015134116593282747 0.03171436156063962 -0.036986977082090755 0.11409532888298422 0.02276807813782776 0.022155894929115315 -0.15377462004620138 0.03595208069545434 -0.007024876903240222 0.04399628514644164 0.1374724502056279 0.009442212243417058 0.05655056137507177 0.01224556972928155 -0.01454054392023225 0.03504601241792503 -0.048270465087556495 -0.005359468477308917 0.04232236731200246 0.030975692161871227 0.031000599549359225 -0.029318163259372376 0.06273705620108834 -0.061381377691509774 0.07715013663328554 0.03370905515832257 -0.02424717174701715 -0.07082600238790476 -0.003260512540773588 0.03151350969433865 0.016737373810349804 0.059549515550894584 0.0355001133834974 0.030793140864487877 -0.024070586647832792 0.04834179771292999 0.03335823710267618 -0.08619476272692567 -0.022354255080027818 0.14720317506923175 -0.06875613747151954 -0.07379551924766442 0.047119978285405026 -0.08768235375348281 0.08288626772058372 0.026292904208527087 -0.012403838464707348 -0.018700107003261048 0.012476526239088487 0.03486752206878024 0.0015513255093285098 -0.005935879921971933 0.0959303727891358 -0.025219815916904927 0.03350812032357077 -0.03174157631678684 0.059279264830430285 0.0039205678869578785 -0.09175840073501615 -0.056702784139554006 -0.04136550730388164 -0.018761579097724353 0.024566435027430507 -0.011882942061610462 0.05392235007128155 0.051169191389651585 0.010735806582702775 
-0.581931062975302 -0.15967971828826985 -0.057776863145198656 -0.11591787538582655 -0.12570761782035167 -0.126542516872397 -0.07626601831237159 -0.09891946513031044 -0.06164529000918178 -0.03407018255362526 0.07267694614091112 0.0662657048250857 0.18292530783420935 0.11095028784377396 0.16748656153244412 0.06672747507321015 0.15793317462157166 0.009336889579292415 -0.005348739280351991 -0.07795291561837002 -0.09774643340487517 -0.2134469570052937 -0.07880172775251235 -0.20097908192917271 -0.06952667970660605 -0.16721172629322126 -0.11875073309574857 -0.24648300083902522 -0.33062644647694306 -0.1395025887156344 -0.09329645376428332 -0.031095768890055973 -0.1943792131352763 -0.04890042082059813 -0.11051219533381174 -0.02812150486285662 -0.06680008087911223 -0.07613453389566303 -0.17250539698436265 -0.024138280577598713 -0.12197422680466366 -0.03057565955795335 0.03093710955661666 -0.079783266882922 -0.005648480870494083 -0.10838822239798673 -0.1167052845644165 -0.07147467148022571 -0.13259408240002124 -0.103358342780182 -0.14055128055584873 -0.1242552700404076 -0.013483587180835074 -0.02222588832476723 0.00820943042908704 -0.06448211012393525 -0.2920389712429172 -0.13290168381699816 -0.022627700037366073 -0.04439801077711636 0.04183608693066831 -0.2375637932511117 0.09263315094127068 -0.0654228732055393 -0.10637547309786131 -0.05915461676724069 0.15646624843817195 -0.09534862368851645 0.07751552420463845 -0.049570117701111874 0.05511491878553842 0.09024707396435322 -0.17258685099986848 -0.09944708137285682 0.0550326864567711 -0.06078214384031312 -0.086817655384262 -0.019290886154746407 -0.05510026584528711 -0.0622225307525977 -0.07196486043925582 -0.016871724377014334 -0.1053216649605076 -0.12255278948302846 -0.24617519657500003 -0.0498335233347438 0.10373817843696861 0.05234944352726155 0.03517647024914187 0.010375219196912751 0.05753352812545165 -0.06743219342804838 -0.05191361561730573 -0.10574242126716511 0.0021152536147035317 0.03461587540146101 0.13993816973967566 0.06451164766905373 0.11350137332176322 0.03507981472328103 -0.06151860847166067 -0.10541979631686767 -0.06341729075984472 -0.10426354112066517 -0.03256948105990088 -0.04169876478620508 1.6800096026337768E-4 -0.05098067953251158 -0.13855267325862702 0.08300379537088054 -0.10769456513559575 -0.09110457268309907 -0.29949158263436065 -0.10759433035452781 0.005039231399972248 -0.0462446495154845 -0.032771861894423604 -0.0054540687013595645 -0.07535438448153954 -0.1473499266663842 0.0218793870124226 0.007563733245345475 -0.03325698891834999 0.030022678017722283 -0.07639924160329419 -0.006661801988717211 -0.07414704776912805 0.06156362951386761 -0.0524113568979321 -0.04558112597510928 0.07304019179833275 -0.05601126372058877 -0.10101967829878558 -0.018225806490814164 0.008942447330300385 -0.06766376395116146 -0.10805494089056407 -0.051106507255409654 0.05756904968361925 0.11373117195871246 -0.18324776567829815 -0.006694697808869076 -0.029175588012209357 -0.04540650539320545 0.003134840833972304 0.003028558771461434 -8.930768439705126E-4 -0.05031384325559394 0.027192088867878543 0.010882424663309142 0.05858912842565061 0.07112670647781977 0.01708107234592083 -0.01676045545702454 0.04520639569804669 0.028368580363547384 0.13551020313100934 0.088979112500122 -0.06001353991913233 -0.14172637750693623 -0.0703443605290714 -0.008485580959127008 -0.033656943865821104 0.004020178706675194 -0.01397097649091895 -0.010585546636315626 -0.028508334979622015 0.02965428721210994 -0.0979314705223425 -0.04510420791859299 -0.0066037739800920555 0.05843113119105382 -0.11888721918122697 0.007942532239103314 -0.03740166233846073 0.05705469657422939 -0.08300546044868083 0.015239964408689934 -0.09567666553508444 -0.02961608588946371 -0.009637422857215009 0.032122295128340105 0.008283508877860682 -0.021282413180610193 -0.07569754005426944 0.031635126716498055 -0.10159040837083297 -0.05277144448846818 0.09270037307471701 -0.0018200433596401867 0.017038376429336675 0.052054051590756524 0.020077320473243048 -0.04219171396973465 -0.013003081241975484 0.02508854495861496 0.03741887451683466 -0.059685598486862244 0.06178831656949281 -0.0013622914975756017 -0.06815578427981657 -0.009011790362835932 0.029797700817429107 -0.07079152585990423 -0.12594530024572495 -0.017322021783707953 0.017767518922759244 -0.060961448238740654 0.047673975326045476 0.004443977718942887 0.051028545322423055 -0.033705297230605794 -0.09773783107429278 0.08563857163435781 0.0057107123836544985 8.549171255164143E-4 -0.07541966751485889 0.035124883173235505 -0.019195873338681856 0.016319421660837562 -0.09374456787446728 0.08588728530191797 0.04492937093797442 0.10223123986188754 6.149056036027007E-4 -0.04515192994590108 -0.03228015696498492 -0.10180605382643003 -0.03883404454802779 -0.013448524373674324 0.012586725178655217 -0.052171545154923525 -0.08998255985750561 0.02643464732725364 -0.06997668339363575 -0.021572880383859846 -0.17619670751411465 -0.016796838948074384 -0.057896958531807464 -0.06115885559301841 -0.07285822017652231 0.11381411464221165 0.08670246637547838 0.13270564731887538 -0.05786381487952432 -0.09512417677918462 0.013776611500714731 0.13772845886973564 -0.00896020510135952 0.07101995823963489 -0.045774183974061564 0.14039197813094878 0.08050941553504118 0.03298923479538413 0.020654379733944954 0.002365037900377385 0.11097083305735722 -0.10566494140598892 -0.002299133316903689 -0.09684296944433962 -0.025612470060459025 0.006136312775606616 -0.05411921057485429 -0.1046916833995458 -0.22656636104266992 -0.05461711480018415 0.01780670503165137 -0.026211129050744988 0.07335450042471078 0.0259593556588537 0.0190726580722318 -0.07345382309526789 0.030046742610699517 -0.029602182465544444 0.024701910038299874 0.03913883365680416 0.03845222487513986 -0.07784250119375354 -0.01003401485162778 0.10614626129862893 -0.05696463440777832 0.05728242052685544 -0.032450539185068114 -0.1492272530948947 -0.017296819285119537 -0.05138387788734862 -0.04661272880200814 -0.009996496991657383 -0.09527875249165871 0.18082892667901815 -0.03214129174577935 -0.05956152862044168 -0.07255909572135083 -0.13879714282489636 0.005919384858208563 -0.0492612074410562 0.0814233440542161 0.003908781453343901 0.03826627323117037 -0.12405253280971554 0.06876538941843174 0.012898425059422593 0.04384257851256837 0.055134049210538404 0.027946475335225787 0.047878238919895934 -0.062492058304264575 0.071896912134195 0.006451766675600629 0.1329148689631595 0.1231959292658745 -0.06813782699780925 -0.09228312743631126 -0.08871334164592562 0.07391362153330623 -0.05121817082351355 -0.14252871400944173 -0.026788393956443373 -0.008080287534120642 0.02923281827277327 -0.17328789868886918 -0.09378559606022234 0.015413028058226006 -0.11629529870003263 -0.03554838119952269 -9.87505064427009E-4 -0.06283119863115488 -0.07058799413613664 0.17251633354930743 0.06647705378165257 0.061567303309256936 -0.09671143495355324 -0.06269703178715293 -0.0971843670876783 -0.058073313467932514 0.08935025785372017 6.272634681047959E-4 -0.03828536261542285 -0.019948269730403867 0.02443146352464348 0.1686157795165335 0.03566342130622004 0.048266485904174705 -0.04775539737416943 -0.020683308409823402 0.08145915677179608 -0.0353296756489399 -0.16334686015364255 0.030489206960656823 -0.12950736748837074 0.012268906232302045 0.011992480471517694 0.0026258932545999364 0.009600130232111665 0.031447539580386256 0.005207994338135642 0.10386589948983137 0.08865460541995501 0.004410528868734319 0.09030526760769589 0.015029298180090297 -0.022982132163355234 -0.018107969573114654 0.19395106651381164 0.11500773712234448 -0.007853585011678358 0.024626999533127834 -0.17926936160434764 0.11616167845607002 -0.1600055804634612 0.059703986961491116 -0.002653696208391517 -0.1257789218186505 -0.12873715596386093 -0.023176050581970715 -0.04457741720037263 -0.08352996614323037 -0.12631912842638057 -0.13762924704030133 -0.005645797541135253 0.0036559517816004863 -0.0161155658442296 0.102770366641344 0.1703505651585993 0.019971193307706105 0.105763465534117 -0.12468156743087731 0.1406261923039334 0.04566227650870108 0.044106182725941016 0.029194741431538627 0.08788211373680521 0.1510715737476432 -0.11861683297207355 -0.017104375050973605 -0.17244060307011946 -0.11956477478559492 -5.295995322526109E-4 -0.11693136224586924 -0.09755912767463287 -0.062489055239896375 -0.15768628829762785 -0.052525888436281296 0.05359182759602469 -0.057205873079194405 -0.01976536843718406 0.05449669138951769 0.012864049352593474 -0.021076569592570604 -0.013312520151206883 -0.03866571950474315 0.1086885568049894 -0.10783066815797789 0.11690737252938653 0.04665753687961504 -0.06679884844080469 -0.03926001493405887 -0.10985246771085999 -0.06412790245055924 0.018703986806173394 0.12848253730325598 -0.0856095448165228 -0.006663279004844532 -0.0762313045037586 0.0489304357612816 -0.051736411480220096 0.08838809579270226 0.048183427296504794 -0.06166082179425801 -0.07126802616921496 0.022199151804543824 0.04093711347498479 -0.11555117830797616 0.05612630388998148 -0.0803293222186908 -0.1263942716847452 0.047416175913810976 0.08355921538273829 0.03553846373832513 -0.016364896960074878 0.03727067251036816 -0.09942775451208785 -0.0767251498514932 -0.030402673690768874 -0.0230198672840088 -0.02709273790575778 -0.06570142727735986 -0.03147167523239421 0.06860723132116174 0.0920819207924036 -0.015147686580659379 -0.09098869784078262 0.00826107279487918 0.05899052713934145 0.018503943497369457 0.013715458679332094 0.12286814946825726 0.016527628774714257 0.12092950262218326 0.06824778164866006 0.03546093073134131 -0.010856361064954188 0.17484085695701979 -0.03635330542293604 0.00970287017932436 0.00519953761151964 0.03398098375759135 0.030542937147316377 -0.058388737422772716 0.013530006534271926 -0.020041363522119944 0.03975754976569031 0.04147252921302112 -0.0025563094425438493 -0.14976433840963285 0.016305325422489608 0.11710011492954672 0.060106538020799585 -0.015302027955713664 -0.06877563894570159 0.09309820193523918 0.006876028287363511 9.70432815252274E-4 -0.032667267158688895 0.1196902582419037 0.031076601767628626 0.023073326781181576 -0.03299588383836366 -0.05536960307189655 0.09523735957514982 0.0947409528903497 0.25633021010039114 0.01979668442796354 0.12512913977360468 0.045789011926396436 0.10423516811949636 -0.13066963325711115 0.025477922671441708 0.073503339241696 -0.06809341857173386 -0.07918829184461638 0.05642104758608225 -0.07027688008107617 0.08371796898663315 -0.03497883875366659 -0.09230106516698414 -0.011920817113041047 -0.031206479090083363 -0.002638261551119352 0.12655577695613315 0.13052580258318788 0.09293659592163726 -0.039529196865271767 0.19097622616036136 -0.009720822772161346 0.06687619077830169 0.01167560092175192 0.1668576061527059 0.1265629649964287 0.048078159424764184 0.09922010411459146 0.16417986383052732 0.04735369455460139 0.03299933392464547 -0.07017524176330912 0.0587025177222362 -0.03386660969881682 -0.03163277382961458 0.011149024333850618 -0.03639683219626662 -0.011767991246168102 -0.079346144855182 -0.019932628664508817 -0.08441777070543817 -0.09934763323768313 0.0021652536937502138 0.07822027721125646 0.02647837424522812 0.04914713883630406 0.04641486509147333 -0.02420245094331259 0.02855694860614044 -0.04015191336345904 -0.031041324981558618 0.1653399192292362 0.04436984655203259 0.05217664498002287 0.007456137672857561 0.09863697936892309 0.11241056790108726 0.004148773630136234 0.04247063426227349 0.07140121011930607 0.0907624199928519 6.763483521519803E-4 0.04157699727448841 -0.11760422387160682 0.06602353515061557 -0.029668579773342425 0.029827545646981903 0.026441929680773583 0.014038415555802645 -0.08448724875221474 -0.04616101658198629 0.03206039618404723 0.07593011730011828 0.028972095915963003 -0.05346975032808064 0.08637138567352996 -0.019814496078700682 0.05771077140880704 0.05924604130855384 0.026122195908811225 0.13283156319938205 0.08005190945905744 -0.03483900364640983 0.07848147479245217 0.0886409695412431 0.00985904417222783 0.07564242245886971 0.13443559465962848 -0.04146272891831504 0.05931791957812788 0.00600329682251323 0.07111166987383458 -0.02490588746566932 -0.0037570871779037908 -0.014444138856949028 -0.07170644234786208 -0.10353683116202002 0.0023328355372647554 0.11337716463999009 0.08010111431768396 0.0705849745410696 0.05190332427189799 0.0474974658091284 -0.0706858489739212 0.04532204430443653 0.006489819453285647 0.03799998782789729 -0.007796979008226075 0.03148728279147525 0.014080099677099292 0.09093587022437123 4.010940401436583E-4 -0.02532316843678508 0.1181380175532816 0.006279702234458217 0.030589451744152615 0.07288187756269084 0.03861996925241136 -0.014127858103000521 -0.01408903344958114 0.09560833239039415 0.020403396640023448 0.09692005129667539 0.07637480964876214 -0.0574388307867186 -0.11295829530551757 0.058160255561374184 -0.0031517389677353396 -0.008907504526175588 -0.01131314327775694 0.028304143999847656 0.021226014077752837 -0.12223615548292055 -0.01623521267094662 0.04143994883742149 0.09312448029785884 0.020570841482411055 -0.0050998135049318966 -0.03520963283152153 0.06124186019319156 0.05465126992335051 0.005874660750496241 0.1215763931040131 0.07680166785110386 0.1305222176210307 0.05034789868301312 -0.056066855362601614 0.056905454974955846 -0.06647860017095444 0.11081129989121904 -0.03622734709841587 -0.06468593605584107 -0.023090182077770444 0.0779835185044527 -0.020329067355633192 -0.01594238966855366 0.12312609575139034 0.003188715283821866 -0.06724245333169346 0.08906288444082175 0.008179591586250163 0.03601685915897308 0.06440202530493093 0.014916643253654799 0.03483371869568614 0.13842298113524776 0.12485198942631796 0.23148478632071978 0.13675427064698423 0.0612111614270112 0.11540596067385271 -0.057825286457675956 0.12299043929931806 0.08875632256836778 0.03599922010373904 0.005199180292025069 -0.0064140209733905326 0.015435513123981642 -0.08896887823953553 -0.12773861234872672 -0.07198120965648273 0.044705024822932884 -0.017591569623945345 0.043082723642837294 -0.04148197379762067 -0.03554369148939218 -0.07068977178722066 0.1409342466398609 0.11523509275680917 -0.005795430892542181 -0.004055465110116623 0.038157372820994635 0.06359980738935542 0.04382192566422175 0.05351758142773232 0.06114916410470343 0.09909838354921244 0.11159718189839882 0.022034584505638794 0.1334996330544765 0.12899297845679727 0.04145363106646236 -0.03462657389998188 0.057337673061696515 0.029255179915955987 0.008902191579890521 0.09374103391579222 -0.08849729595104897 0.08762777981037798 0.030910757089367212 0.023988463886837803 0.11570139109989767 -0.006345533241153322 0.056118743379772795 0.08998529312622366 0.021695637405252176 0.1042098496343018 0.04766603924135193 -2.6088272638787806E-4 0.13275117413756088 0.04705878023327338 0.008699806488878825 0.10297339437891666 -0.022334489882149845 0.00750409407902195 0.04932361740428118 0.09977720786160493 0.09628226974431449 -0.06847293863096013 0.07217297092619698 0.05019844920471966 0.026939980392569236 0.15978034359196502 -0.011977894258159217 0.05784784711633267 0.025193789875975738 -0.005710926243633425 -0.03443530670616511 -0.03786738031826045 0.0066059828617240635 0.10008335262080162 0.1968384699923524 -0.042129384265764055 -0.03475012940808122 0.043735621270423714 0.004919896891897433 0.07826907645590621 -0.08444862949774808 0.0467702676990252 -0.05763257627888824 -0.004594329912495137 0.05535085687018889 0.12832266006943752 -0.04500337789233409 0.007230554738907804 0.05579872560761531 0.07694417895245989 -0.02228935595218084 0.08513530219676811 0.03149732567804909 -0.03130073835222942 0.07645735077609542 0.06989321244366116 -0.22054352013791087 0.007361523232541219 0.02459737434337176 0.07539775170236099 -0.04133644979982408 -0.011344225206567849 -0.04825835805411119 -0.002072134463590175 0.08333839478156319 5.713313411365923E-4 0.0047371337700981495 0.08899848950931223 0.018806136569261372 0.08169232063613387 0.014920105983144388 0.07202815757645198 0.04673379238425669 0.11770934451384728 0.07221887516604952 0.06963668494655977 -0.017183116997570358 -0.08291519451476417 -0.059732967381213656 -0.011811632245697359 0.05083534848163248 0.0223305627177566 -0.026121162072680473 0.04369958897790304 
-0.006657623380239631 0.012044714645903402 0.017064885191328552 0.03149122190930627 -0.0019063778979936173 0.07834784107096876 -0.009360810766588276 -0.006873112105068692 4.964674377859004E-4 -0.12239674377064995 -0.0382508379862764 0.035380073052700675 -0.03305756595953917 0.0011366148546913001 0.10755516243524844 -0.039438080320580285 -0.003766884343835136 5.638623468028704E-4 -0.06720915235147011 -0.021607780935627357 -0.04982032092427618 0.0580564666044466 0.012745391499627605 0.06786532841933968 0.035462485696687966 0.04998858470965968 -0.006532346989625433 -0.04279345110019556 0.06581445875695556 -0.03326951983930536 0.02687874410264467 0.008545693432071648 -0.015865951584196448 -0.015566537399615743 0.09235741079544045 -0.13730245820095888 0.005643825062910583 -0.07747840253329587 -0.0283906249133357 -0.07506962334131632 0.01285551945936456 0.02976049668428471 0.07978742562770431 0.05928273676883679 -0.041918838752359355 0.020437355185860345 -0.026650900904842744 -0.02623235197349531 0.007644503790085822 0.10988129372962413 0.0051727371829541355 0.02522621435181259 0.04201956646532388 0.032068164791095165 6.781866444163275E-4 0.10168626810393404 0.0158819263252891 0.041573706269522975 -0.015150309151456837 0.03038670967816565 -0.01770449480456926 -0.01503189915198531 -0.002602787977546891 0.0029548927271978898 -0.013834261775541224 0.08869196540981789 -0.04028843489509241 0.07041004407180894 -0.05027071409447385 0.038255467046126715 -0.027125973353094763 -0.025779601074423737 -0.010639657115715172 0.021519165783184597 0.0174431504267142 0.05722568568867599 -0.04361501140103066 -0.045144757990752626 0.006793004257808647 0.04256850887044136 0.04269869061409377 0.09351807403706071 -0.06250543271560786 -0.09600567784277524 -0.11812971976073196 0.06239173693724894 0.06212468586273084 0.05343155480896008 -0.004752407269272775 -5.574656981534747E-4 -6.910952201734038E-4 0.053894753343249904 0.02365211944225277 0.020562258819792414 -0.05248460016345035 -0.009593679309608924 -0.017902385430758113 -0.04189766838866912 -0.10719815224755419 0.027768660279988713 -0.03212360776810483 0.05153224913972184 0.045322198872522264 0.01587562422155602 -0.02690788200111116 0.0322606052959959 -0.031480537142284964 0.02087696831120449 -0.04987644110022512 -0.02820270938941599 -0.09717444730454089 0.00993872070080418 -0.10151733218140621 0.011458357911686777 0.010476375287079518 -0.017786842301378388 0.06448803810473791 0.027291445864047238 -0.017019849823569258 0.01675206203771095 -0.052688526256536763 -0.0136985407199463 0.04375384441455968 0.08178223032241183 0.06113704665235798 0.06695999591918203 0.00507719184973835 0.044824453891182815 -0.044417026829124476 -0.04106339387128793 -0.07953418084415029 -0.02274686830268018 0.018367449088395552 -0.026565803037990107 0.07578438144879748 0.10439048540273582 0.0038347340296460667 -0.007413733457357 0.006355929728008799 -0.008557630495862934 0.025848636038625073 0.03105617446078703 -0.036147285898863686 0.12326496613960015 0.022099042720097984 0.10939491242727603 -0.010257082687574708 0.08129039991386088 -0.01874491170719415 0.02679380637868992 0.011812626115089991 -0.07977156238305001 0.05175164446847419 -0.015162694867079366 -0.06628955815326398 -0.011206350508672927 -0.032056386220395285 -0.013075954719323135 0.06369811733840354 -0.06672013163866485 0.005816793575202422 -0.05430287719882151 0.04457053989319641 0.04405375147975909 0.023855912934189302 -0.01689434434662754 0.048604400926221675 0.029590372711686734 0.11092296309445752 0.05861734252066075 0.040686503891664484 -0.09369651454003307 0.0038456068691674556 0.00451911242108486 0.03167020257968835 0.08000367319236762 0.014851766246849746 -0.05383893356391873 -0.0037017847526067947 -0.02002322597161855 -0.023576676553279892 -0.04991033889208612 -0.03656590357822426 0.05086757363259653 0.03884329238264871 -0.0483027747154088 -0.033488292416740915 0.011046546426820316 0.03900424519629219 -0.05322404276205454 -0.04502030506307882 -0.012494556650579932 -0.005126906014678735 -0.005603721689418011 0.060935516309759435 -0.025993767577551136 0.00776811909454671 0.0384514280683034 0.08724827274488446 -0.026909052461445104 -0.003624058097567779 0.00781556968088754 0.06172488593944032 0.028344499753818 0.07662889155615106 0.10059323952507587 0.01995624800537488 0.03018766169880571 0.04319630800690806 0.07938743641407212 -0.005813825302679452 -0.0052311738022574284 -0.11370532377267456 -0.02425886495438407 -0.08076544628018101 -0.0072686892307323794 -0.04609583960441575 -0.10219827292363227 -0.03328585607931827 -0.05651437035725663 0.016179185972327252 0.09826448438586181 -0.001794553657459791 -0.07587249168440638 0.016796644690649364 -0.14553789065376707 -0.026679390257091568 -0.010521274158338478 0.0839148974908025 0.03588675966259225 0.030287650828687868 -0.05128192530361994 0.04727810789167715 -0.06333102069280262 0.03721469127473596 -0.02424538066168747 0.049477263947509585 -0.0024309583449619305 -0.024370885713888533 -0.03306637307291916 -0.02625286613763533 -0.06437216573009819 0.07445083176630053 -0.018784805715140383 -0.06146103038535823 -0.04883114262350847 -0.018631509653992382 -0.05941476651232081 -0.04943146615402577 -0.01584478048029991 0.03968643121184459 0.01178879684941869 -0.03775963341547239 0.018524390304147716 -0.048716367466919444 -0.014277590051892696 0.040615326593325986 -0.07313473562521652 0.01689650956627643 0.03305707665201516 -0.04766143612302376 0.017068051139054696 0.019355604663065105 -0.05779489944808772 4.6911492465379886E-4 0.06610965404346132 -0.05710098629469683 -0.002713763744003355 0.012971898299869855 -0.029189253491325052 -0.010144069368451702 -0.006637237915030715 0.025958539024926564 -0.05192271450529019 0.03907745181638369 -0.013189047621372185 -0.038200985275086634 7.638655035619035E-4 -0.0480557465665832 0.0444589751782362 0.018006743975287256 -0.04093972156140187 -0.03042147808892768 -0.12138864746924972 0.0026538848067617685 -0.008630685167928313 0.07634047082330253 -0.029816333061438792 -0.07972030412833926 -0.05830464582576281 0.0040107905709774625 0.1098398446070878 0.0018224569022279602 -0.016462202798751848 -0.04274595275728661 0.05875044448870761 -0.0013534678548737323 -0.02187355960145197 0.0387618484268878 -0.055994197260059365 0.013874322978013422 1.433822549195608E-4 -0.00525294572632327 -0.005314794738670798 -0.11858512865921579 -0.03478635314687947 -0.03702475006774144 -0.01653881789137783 0.006312980907098075 0.006804255147661896 -0.03527283835775178 0.09231493192175773 -0.016635632740507333 -0.038543439230780706 -0.005329644291888576 -0.11933621246886177 5.652120924590245E-4 0.05585424532465544 -0.016130630576150544 -0.00525133698372614 -0.03990603857517029 0.03292713645771923 0.012253760452565121 -0.10132888410882575 -0.01515619715315216 -8.33938427176602E-4 -0.05557185644788975 0.005957649529800521 0.0055510769881773276 -0.02636289222805617 -0.004626015210051521 0.002343917193285087 -0.0037120698437536122 0.004442574880871375 -0.02501211273901602 -0.04877354665164895 -0.062236106339104466 -0.07690348274582226 -0.09431464934205852 0.014898631538283974 0.025297257531773337 -0.00361449643932722 -0.004947014665997704 0.008620525129980855 -0.05133006223331617 -0.04810358861884972 0.07290058804917278 0.011990883135908285 -0.035013982265157076 -0.10944658899638804 0.0051013666211420965 0.009392597390158044 0.10112898470819545 0.009627866288488078 0.030009599342258133 9.099125621068955E-4 0.05628907726473768 -0.03680477320891954 -0.008279387865670562 0.04609033285470715 0.06160187754579287 0.09253587493715049 0.024416729001808215 -0.011952592435192711 -0.03969958039095238 0.04457094764065022 -0.05758663072925269 -0.0250291380619621 0.030475175677284864 -0.00779529179851227 -0.03761621117544979 0.04548154136862548 0.020145801188886276 -0.0024895681770303203 -0.027480257412124287 -0.0038474421261703255 0.1091583159171824 -0.03921153968893671 -0.05504248710921078 -0.003801416879310146 0.031712130424375394 0.08182717299402088 0.009210968435753598 0.018607270344211 0.005754401868045465 -0.020818838579160604 0.044485549588370345 0.037262909884140265 -0.05359468962325203 0.05299994195920197 -0.025332173364757075 -0.009144183000412648 -0.014441009554599149 -0.0618320013167549 0.056888904098120384 -0.01187103972095863 -0.05083901334642137 -0.002201504277063458 -0.07852505274205371 -0.09100479797862367 0.018373345393446313 -0.02276866673080626 -0.04938830203594174 -0.0790785845206274 -0.0029130872009415086 7.844003683023106E-4 -0.020547799256576547 -0.03105754547761396 -0.0396822355295393 -0.007805793055545918 0.026771605766691402 0.01742313534052767 0.017177360779104475 -0.007701576937491837 0.009083212370758128 0.02465437313920556 -0.04591413030741234 0.014767083020819471 0.07961820482813557 -0.04703930703065734 -0.07411190809356828 -0.05846040162635362 0.0564289979886327 -0.06617369034872697 0.024167350201409168 -0.011045684230912 -0.041173404960125885 -0.005530035576592089 0.04132760320209428 0.06290424526722463 -0.008206700026851957 -0.03179109562653405 0.013742545689433432 -0.028344649685293162 0.002377068294780629 -0.04496384800319267 -0.014842405281416407 0.007837767190220592 -0.020240798951828082 0.007702496961884354 -0.017825368588788647 -0.010021450107999286 -0.0437084812465841 0.06763200418588235 -0.0017322306581268455 -0.04684700920446142 -0.04911418473884122 0.05932867127116741 0.05843020614094749 -0.0913515088981858 0.015142920607850942 -0.042949896980484376 0.014583315100565196 0.03740726269005454 -0.04767320284666673 -0.0073736916588644065 0.019953104572970365 0.03642907789276595 -0.0017959034982297844 0.07792319352141644 -0.10733760640683444 -0.058274900639323064 0.013428273739255063 -0.08035660652591 0.008610972465062176 -0.06901609626486586 -0.06431511884325586 0.07629033488646352 0.023190455880319427 0.04207464567799718 -0.02750977322920446 -0.022406668603913004 0.0062004271527684495 -0.032329859329131426 -0.06992648714401818 0.0783258503718167 0.12147543489695571 -0.06300411359737579 0.016319628101127925 0.04225145277467611 -0.039230632397698785 -0.1076370021708556 -0.09042957270876442 -0.10189018949828131 -0.04031217604765467 -0.006206062319458753 0.010587500170549465 -0.018214763050925595 -0.04748962102523776 -0.07053424481513389 -0.045122957991324646 -0.0034022662712675914 -0.04763826260559489 -0.008655099999857753 0.09398827234299634 -0.037121649720492804 -0.051500847921483954 0.09713334929524452 0.010279182843625041 0.031232261396108588 0.06828819736937333 0.010664183928126665 0.036662163245733036 -0.014803689828576917 -0.07110312528672838 0.017747923064999744 0.029696753519048973 -0.04003623223984734 -0.03876409970490833 0.028368633702196642 -0.07363469380332777 -5.364060601045663E-4 -0.016161209648423894 0.017652248783757273 0.038473691299794346 -0.08978606958205056 0.032463476265899814 0.08111378200333691 -0.010988018248996326 -0.06936231203978172 0.004362170154486968 -0.03688563000705883 0.02093262398105249 0.008224341699134531 0.00442927429403265 -0.08664559874223732 0.005850358342460739 0.1062084497372339 0.017980273562424032 0.027587571713020214 -0.029862511831871684 -0.020100186640529708 -0.043029182220186445 -0.05851635569265701 -0.014934883836804896 0.01398742014274906 0.033765277705038094 -0.006535895678511419 0.08445547131977871 0.004969343995924314 0.041361984914383684 0.031164224016887485 0.015495456858132525 0.11790412922001364 0.028031948802900462 0.035262076624873094 0.12658151403437504 -0.006017814429887467 -0.03660052347903857 0.018828712557224368 -0.04745016233665791 -0.04067033761924539 0.005610898227319146 0.003951904616905387 0.07899676236015758 -0.03510725459294385 -0.0021792655904300604 -0.1410326648105642 0.03645540736962188 0.033842443014599516 0.12529729714577406 -0.046279421333972705 0.02107473637037504 0.02321951959762938 -0.052010998375315025 -0.03568307863860799 -0.06739291812296548 -0.0999385796682547 -0.04123207462832087 0.043364036263073516 -0.06768471125232839 -0.015583880335072027 0.03437269388087378 -0.015400991129065721 -0.028622187666699148 0.04046200420885927 0.043461233236320514 0.011645020289109492 0.007808797979329499 0.01612949172924483 0.0813659811270699 0.1382002625211289 0.006600465668303139 -0.0057732913834532915 -0.05196695294341241 -0.06172339088225802 0.0690996444067348 -0.026917459026761816 -0.012732982571406514 0.009458640415006285 -0.03738718389238873 -0.047902226076531974 -6.90551865166805E-4 0.077371306175627 -0.03439341319989751 -0.11018888158430545 -0.010985084857324752 0.008046213675813436 -0.12476404290402074 0.03421370912594392 0.04921088694654993 -3.744349058128244E-4 -0.03628116956147286 0.02732329904249264 -0.06337924987800901 -0.03350515034481251 0.007116066476549039 -0.05250835641832482 -0.006055130860409939 -0.013328496338098567 -0.030437931132082704 -0.042940575124989847 -0.009803975399651303 -0.011226032321565558 -0.1277330439437479 0.05967633899625694 -0.007226208545519809 -0.01275287362410751 -0.02133885629828709 0.020325371162947678 -0.06619105784729867 -0.032390220497354856 0.012946863345742597 -0.05340923063192614 0.0073713798091331025 0.02269451771746441 -0.12399467210103735 -0.012013233843686102 0.007164094471720057 -0.059349843631591646 -0.07095569061384838 0.06198241797509375 0.01942469342156682 0.01772545005094614 0.002824048192279891 0.035207359488917976 0.004666523800782965 0.01976302814392099 0.0677471085472875 -0.04781383705734221 0.04093935663921023 0.07600954767531974 -0.042494574874360126 -0.020417745236826833 -0.028356384842897615 -0.006710384086161121 -0.09279103825690134 -0.07865405460909147 0.06197588110212932 0.08601932184954683 0.02308508633281852 -0.008537238175938273 -8.75848329383238E-5 -0.0036792707766104766 0.005794653915408784 -0.08819139213413604 -0.016715221695495896 0.07024961890698837 -0.11250006890511904 -0.03223153439906802 0.019462244861766766 -0.065766448559499 0.05566857629853328 -0.041957252869086054 0.02321568676661107 0.06350264287658587 -0.08598531621609178 0.08635223186531212 0.0875292641059265 -0.06651618408811182 -0.043860518545153986 0.04021585389299768 -0.032740823874892876 -0.058700377273972724 -0.04909915347820858 -0.020925429756035334 0.05329492412065594 0.06572950559348847 -0.013332617124004225 -0.02907951534339566 -0.0034455998156454363 0.014523007902321965 0.11927434237790427 0.01901051421903758 0.11962414714174921 -0.06334679747252507 0.08017206958999466 5.253460041012456E-4 -0.12856477807571584 0.01393457204383372 0.02597427450593596 0.01239514841970388 0.04901298775292567 0.032029502089471695 0.029418151966197147 -0.010612372299680269 -0.06832661114318292 0.0030416006545746044 -0.041411504420048616 0.09356504727668444 0.04044844318350567 0.028053304041035326 0.024956913031851807 0.10635664637019804 0.033652911772455094 -0.005617645121293994 0.03814851786825975 0.006107529131085636 0.019892697462525637 -0.081703153987935 0.01377134616971485 0.009080991540657569 -0.05623333723203573 -0.03054925645239577 -0.042054772658197945 -0.004982418704860555 0.004004689789359063 0.02345929356844349 -0.06162451525908116 -0.00240565442201056 0.003413071961728009 0.05047947856616257 -0.028203283592891464 0.0121194013493552 -0.011279174975828709 -0.025377683349486462 -0.022352429806064632 0.0029050405867477903 -0.09108507437748051 -0.043997496225533596 -0.018021608989966877 -0.09642755804810482 0.012642432250385258 0.03359809483380226 -0.0682930059343232 0.001711580909844431 -0.10814852858874786 -0.016264874289251052 0.028593015609864374 0.04529187335958371 0.06709134674401378 -0.027828995436628288 -0.03836918992457654 -0.07818998662377812 0.009704125691398712 0.023105314416254453 0.03159508185547607 0.016357170554170245 0.053020738499046975 0.10289494632051736 -0.03608714784421652 0.09784638049109214 0.0035688694490912153 -0.07504956527416114 0.06632991571810523 -0.08582352011958634 -0.014609581941905992 0.006376735923891432 0.03563091109379369 0.042445140106156 0.0719082043528319 -0.04068111481360052 0.06183800423035161 0.07610615681438752 -0.002208841953952159 0.009643642345659578 -0.045716815565524406 0.05337829631435188 -0.015297340023380387 -0.08032744563254304 0.005941856469563607 0.028510496043711177 -0.06221483456371737 -0.033107053213709034 -0.15048198206919086 -0.01433461391775685 -0.029616589476907023 0.02519419217790982 -0.04178880494626584 -0.10757596209859321 0.05729135549810756 0.0012054665945346798 0.05020091976586692 -0.0027514246563592037 
