-0.08418433115215877 0.20093454084226137 -0.08522199739539771 -0.16508616986517274 -0.09006858998576495 0.04092978278391132 0.03990313441624851 0.1452903778843975 0.05624740042251648 0.03459273157399684 0.04650259060912025 0.002158138024871209 0.030315948996801408 0.1184012414715785 0.15119547357377483 0.03143631857666478 0.016860647178380452 0.14579288356151887 -0.01993043406986915 0.17203660759667047 -0.022549333701754413 0.0967563422998226 -0.0014889377037864938 -0.028937868467943117 -0.003718386685985613 -0.1972792907347836 0.02539060171139786 0.03967585584511282 -0.22706839026837586 -0.2766804787914457 -0.09655245815562088 -0.06068809033106888 0.18436069389194434 0.07365912283192211 -0.07846974701524266 -0.11624062424836458 0.14554762019659914 0.16409041764925722 0.12695180274558682 0.182517561244358 -0.006188249428893533 -0.031689088435446815 0.13870649076694336 0.04623680618783221 -0.07076728953828461 -0.020642837276822847 0.05166410825908215 -0.11177799249340559 0.27004043016201223 -0.10981870783354396 -0.13800343059876358 0.014519454620843137 0.17163671726708699 -0.08193852960718036 -0.18595627718064323 0.016965454993807142 0.07694218097315128 -0.062241883370688644 -0.05265125177147995 -0.041217791951887184 0.153930680904676 0.01705989184001852 0.03389629701158773 -0.024959616873375015 -0.030975529481703155 0.03969658674681645 -0.11439466028621503 -0.10437012077040682 -0.01519326245344576 0.06539910583079055 0.020613072986844796 0.010845160938545899 0.22709204437418107 0.13372747342268565 0.09356543818605359 -0.06010127936904175 0.12341051974526625 -0.1378929302861343 -0.13144310497070943 -0.0038994220377256647 -0.08496088616489222 -0.1091856512057925 -0.05747807963314829 0.11542763630472441 0.004315270858785974 0.046305974973445324 -0.06379127805052831 0.08285116112636956 0.005076756005285514 -0.10511007653862789 0.056985030647825695 0.04592440672362334 -0.106364784224438 -0.005182382562659232 -0.044776508371875114 0.07620761514193243 -0.07858684267705025 -0.06573937092091056 -0.03987498325010176 -0.016933122964133303 -0.131752069019456 -0.07896444501273905 0.01659317565297692 0.08322841258910509 -0.07515824162697471 -0.2110108282969789 -0.1015735567411554 0.1601655024788748 0.03945242936293538 -0.026200907680516396 -0.06117131895397149 0.08220168658275583 0.12487690419872802 -0.04039513773067453 -0.028623487022761507 -0.023186245369790564 -0.1841670285357397 -0.18144335969938846 0.05237868846706204 -0.13357212377848088 -0.09995398030702676 0.04004647858709535 -0.21363284015158443 -0.03199848330715479 0.15468698690698968 -0.1699602222984671 0.05728819080908701 -0.06133158794616338 0.15014346041514925 0.12070981080398241 -0.0823048179474571 -0.028751885732852422 -0.09764938000754658 -0.14034274951226278 0.04355053816923943 -0.07625623491691537 -0.005563504120158144 0.06693246648769494 -0.010360251159967403 -0.04887850727348662 -0.11135816471452577 -0.001846390151601664 -0.1511908210043764 0.13965210522847038 -0.009250761240499717 0.08882857473696379 0.07257302464803422 0.0064607088877767236 0.12271753423170663 0.06374050134850118 0.04064331760134801 0.17634870185051213 0.07088602424688649 0.07382038424926173 0.20769449299811968 -0.10872594089820226 -0.06490753787542246 -0.10349167429712623 -0.022517122995732993 0.11083168105630767 -0.07790637723105893 -0.14447453016721798 -0.11949926465787354 -0.02702437091135356 0.0010455174831143733 -0.07227019288062522 -0.051652891495803335 -0.026673935993129175 -0.04254280068803072 0.046141633835255456 -0.2092439957751803 -0.07219356363698436 -0.0027800323000100944 -0.04610478083156011 0.016478465884261172 0.02395415604060613 -0.011534935475540183 0.032155073300443655 0.15388348196752505 -0.0659737036198143 0.0467131265755871 0.0654160674303574 0.0404992085106375 -0.17940160051454082 0.009303240282198805 -0.07010883684985696 -0.09183980037179552 -0.07874579583227535 0.09486680342937724 0.02675043834402182 0.11253105143206378 0.12046076485350472 0.06247998700747463 -0.04504586998228803 0.061171367997687805 -0.08073294098224751 
0.07110048999890073 0.013961226259117122 0.0884868019331884 0.12221687044826132 0.18368760192606903 0.051519938613269464 0.13421429285330588 0.07749452824901276 -0.12834268792312112 -0.12269694898935747 0.06962419029135353 -0.020022158608802354 0.058447418348551654 -0.018343954339600066 -0.024810595565286243 -0.040790791454958994 -0.015763644926057706 -0.0696696597282437 -3.79372736896665E-4 0.09398293999529485 0.04603049322370828 0.1083756658670844 -0.05869228179263919 0.047713879272276015 4.014062652451863E-4 -0.07954744602572494 0.0641014266735734 0.13937289323456345 -0.05294339210395378 -0.052807700381042086 0.012997879192357162 0.06561422197739843 -0.03169691985627834 0.043292520819393526 0.010655310294590284 0.11404393515252394 0.04493737038047089 0.09767072089440888 0.038049109484588395 0.07957377182260668 0.006450710188273378 0.0015193444011936184 -0.03173319850507477 0.10468655470664909 -0.004527521947069725 0.06235597780381577 -0.02390991422303758 -0.2451902755125605 -0.035841599200987916 0.13666164438307968 -0.0387068124297257 -0.08997327662456747 -0.09866588651916085 0.06745913063400624 -0.03564448537965228 0.008647256973411926 0.04171943855509485 0.02064105443466091 0.1084784913840823 0.12262545777617512 0.13499053623250584 -0.006632283405854275 0.14805475530836418 0.1202414369869224 0.06748530666069344 0.2003082793099005 0.1250483887640146 -0.08917544137490105 0.18003499253803973 -0.035187137289660685 -0.10913913174627074 -0.10302411223450668 0.011710514721753648 0.11803470705931401 0.1183300875241065 -0.07690743783979138 0.10509266895866272 0.14487206584675816 -0.057905471575394656 0.07493797829618773 0.015227211845755371 0.009888782867848936 0.21579068752576877 0.16491319638643862 -0.004072590556782706 0.024373606180851635 0.0024109360221431565 0.07141608913098935 0.02347843096837771 -0.0446729771281806 0.04253295427703519 0.08035431506334513 0.061676831222407746 -0.04558113217193706 -0.08039302971354753 0.06958675614794217 0.1506297284138951 0.06884467746453389 0.29542522214881894 -0.1805227884767784 0.1052304119031042 -0.09002711733602324 0.032785515923993355 0.00994412743561244 -0.17568000265317885 0.02361840100365201 0.09408791776441312 0.16773600708874897 0.03609888985390877 0.1359469388903096 0.04392682244324965 0.12269007058618861 7.245313797629287E-4 0.06606428868252294 -0.1495007726762492 0.04903759931471008 -0.0895541440256355 0.07397254467780187 -0.00799010042284668 -0.1152522611505115 -0.027794417197856507 0.0676619348533772 0.16882137136939732 0.039401381774573765 -0.03854494669964065 -0.24187937350297842 0.007578550879950486 -0.13067434400246433 0.10427603821115443 -0.05506546867822608 -0.012788452739938118 -0.04788668694934255 -0.00797214111636617 0.04108739717151176 0.08927635071497057 -0.01754127819335632 -0.019638118969526098 0.06028207981864907 -0.16538913011146403 0.030033613641056094 0.04381712291191404 -0.057964841940531246 -0.0747944308448383 -0.07607619264215269 -0.024957327321084723 0.08307331083668006 -0.04069229118353017 0.09711011470717541 0.15846413860117484 0.11789387664598068 -0.16849655588343176 0.014844370616055182 0.25019340433910675 0.03916723008251555 -0.025747215138145374 0.02692697902451641 0.037934462707548404 -0.04064627106775373 -0.07025603461313694 -0.13515124619865557 0.04531983313771838 -0.03081509642785753 -0.14675225031311487 0.008542992214925743 -0.1516094915633549 -0.013582961998061166 0.03887908342493674 0.1577066997377303 0.1014012956352205 0.027506070050391844 0.013162269960411442 0.20289951037790752 -0.04440275933805747 -0.1291319891322654 -0.16286758460469034 -0.06228403756146685 -0.054615263268804656 -9.99599535182484E-4 -0.0014975398928900139 -0.20035376673219302 0.056841657802731475 0.02063423639254328 0.02832823606092979 -0.015152659966024934 -0.00964173369681136 -0.040766006776395955 -0.041892614772287964 0.03132224937787703 -0.03291326982589654 0.2186038615435516 0.03856457833458952 0.1433960416936248 0.0402583601124954 -0.0575997586510329 0.04269466230860449 0.10378241677499504 
-0.07281294302841576 0.21924563687326998 -0.12310516407311835 -0.018460200099176243 -0.02685031151323523 -0.009399506987480878 0.13247762035352909 -0.16603793067607123 0.03549817550997987 -0.18561317651907677 0.021038734647541652 -0.2342799180012697 0.14006834565275375 -0.012307248127433253 -0.009722337072353593 0.030312852528478575 0.007041784830794007 -0.09342477367825122 -0.18449153467847437 0.01163610809102433 -0.19992402662764483 -0.029744938280231132 -0.041064246056123715 -0.04055615245924176 -0.18617001802164948 0.028999331422988456 -0.25826093951130685 0.053052144057987825 -0.023251428699013126 -0.04707672971501177 -0.04191189385516382 0.06360844935010267 -0.07365376625452354 -0.17387365555130363 -0.08125395856151789 0.10956536418655662 -0.1660502412164 -0.041326981448202196 -0.11869752817969018 0.09074962903341037 -0.004973695034062507 0.022280987834016053 0.05841950697863202 0.07357495586260955 0.08604563302848496 0.2513317235810567 -0.09447303983311674 -0.07725504094791731 -0.18384258528095948 -0.031113103924439854 -0.0593784668292463 -0.09150919116068612 0.0350355391150981 -0.04886015781820727 -0.0963647704306584 -0.06343818139437538 0.049272769639060535 -0.05203016604492623 0.09808330129965592 0.0638506253317997 -0.1324153264527381 0.2170041579611547 -0.06920772781868233 -0.11696117691177622 0.06821358310158558 -0.046736668556753395 -0.0976596002875056 -0.024445932062662136 -0.06673530275733991 0.026147491744201393 -0.044729099866908185 0.1619995991387526 -0.07322263673590768 -0.005647092229881568 0.008423663640848211 0.04191976238060399 -0.046032272557337765 -0.059372324728943465 -0.2604345572512075 -0.1246722409037484 -0.008278204345107693 -0.3533932278563141 0.057855588086292174 -0.03540288588028839 0.0508782708772786 0.16619049021316165 0.15483955752943016 0.1336464861420925 0.03819950791054671 -0.029960206127058398 0.27248007445732897 -0.10361965728171041 -0.20944389166110294 -0.009079296802894715 0.040973119021656165 0.09892349928472305 0.09043425067575088 0.1449749759250311 0.07499460994126782 -0.025201700418789646 0.01668197925441955 0.06355919893595217 0.16626613685150224 0.07219363628207365 -0.011711216726309415 -0.015340517058119335 -0.08621779966150331 4.760346420524319E-4 -0.06796547270268222 0.05472451436962787 -0.10762202086149927 -0.1397329897298232 0.16642095068884324 0.110344905714312 0.16445736259030955 0.18545704071055105 0.03882256760741836 0.03143395483039529 0.11462673533666626 0.07317286737935477 -0.14095878880976717 0.0780237060794509 -0.10628398476794144 -0.06087690359240695 0.22796797144015915 -0.05837973267311934 0.07887339949321613 -0.04059125271333479 0.059797010836027044 -0.097481103142307 0.1589278329058214 0.1523643924706327 0.19210654413322922 -0.010558323282504785 -0.02493127122510855 0.0939584713550721 -0.10333247861549709 -0.06302647931368593 -0.12272570021799563 0.010571242434984739 -0.032753921642909176 -0.01872486096553674 0.1735126745367323 0.004253885454111507 0.14974844565754383 0.011138075404143858 0.09564367367715668 0.09177069433121918 0.018919827951057597 0.07517351795793589 -0.042267502800298645 0.16038257455369917 -0.018791570341720874 0.08884292532135873 0.197906203976076 -0.07255904515678034 -0.02352509457181532 0.06607037129057773 0.06886251923325562 0.09209384030051355 0.14555077054349785 -0.06527891203751916 -0.052287010307617954 -0.07762561947476151 0.08161622328732954 -0.1419532393647861 -0.19167472543888336 -0.018806851628817525 0.04371467396954561 0.17457876669169642 -0.009788652652012064 0.16455989574054367 0.1974095728460343 -0.08420662209040536 0.06934793942879713 0.14447436292230365 -0.1467666817434544 0.04596874989799807 -0.10698414970974741 -0.027783478339198413 9.154544600306456E-4 -8.528387858100372E-4 0.14270722046647838 0.07317010466221247 0.0965125798063501 0.07677369116325004 -0.12539325702341095 0.17466541462037202 -0.016045930958482814 0.014934993863675644 0.005840804279959465 -0.20859457207743753 -0.06849941714027177 -0.07768995197792554 -0.04979816970355113 -0.041744550509922006 
-0.06573442810745933 0.017353279201007748 0.14446964812603524 -0.050790273255709124 -0.07744698988066387 0.08842113109245037 0.059795817956565654 0.02788671271615679 -0.01942603886740372 -0.13919465799885564 -0.07482153124512339 -0.03420436307455607 -0.001846441147962909 0.0417650905818231 0.0718722069603095 0.03516746433327258 -0.031399627407052426 -0.04741718827009938 0.036178643529670464 0.0669067223388005 -0.08025494703430035 0.17212755284773812 0.036848954185128416 -0.038217696137486094 0.07480805779168949 0.004514619269772972 -0.02220459651897898 -0.07507125968870848 0.050877077384769424 0.06073908732439082 0.08987016377100565 0.025580080016417605 0.2772669147298859 0.04746633444207942 -0.05080181862106577 0.08710153477895798 -0.03604178107275724 -0.07138354455481173 -0.10064523871024812 -0.04051602771472799 -0.1224034129450461 0.2553176290013877 0.05269821117777798 0.006610724936941218 0.025852966523404897 0.3083998725926863 0.1120870066543995 -0.12776086774732537 0.013837724581568133 0.06838326961800277 -0.05206391799198685 -0.04470675198001616 0.09913515033509458 0.05488751688324838 -0.024965553647834024 0.22705404475567756 -0.024563144342151847 -0.09195186589084098 0.0781209434368392 0.017481065225754926 0.0505491635792512 -0.03715035695380606 0.19684565749283053 -0.07211655505044237 0.023828610058750165 0.027526344106951255 0.1948782277647862 -0.1506699175788351 -0.032529926061406526 0.05520262242702891 0.06551608087007625 -0.03311218325560499 -0.09278171289458052 -0.159001555297382 0.046080960409125696 -0.02019986696148386 -0.16473791124638143 -0.057968265872044206 -0.08817708963850526 0.014419220741761458 -0.07727967934425581 -0.05354473388890447 -0.06333329028560994 0.0038043268519302054 -0.09452416393015885 0.0077151782442352 0.07317695682232857 -0.033569186960857325 -0.03244809693261533 -0.05489251453182455 0.03647773154918624 0.1364931124676659 0.017642899744359144 0.05325560561134531 0.07932067026188334 -0.046563676925402794 0.057137045985146025 -0.13927729078587517 0.05932885085746996 -0.01762833450209854 -0.036678871228940535 0.03777728613103649 -0.06289599924617982 -0.024946795110319008 0.06621261685158436 -0.03543802579646672 -0.08641129818037654 0.018644268359420266 -0.11833220459792387 -0.2020937946646614 0.012464970095960055 -0.09495413627215228 -0.05094945412654493 0.04462628924843943 0.07161885476928793 -0.02528156678204265 0.03046807597355359 -0.15512093489272996 0.19584905945565145 -0.013994526041346298 0.008622822821850349 0.020368159719620766 0.03258442178017248 0.018869268721109576 -0.07472170065211545 0.019976152137935 -0.01715684361515393 0.050605319680788755 0.12418025767847193 0.14076555172517477 0.05102045273984061 -0.13505448499549627 -0.19381411235847654 0.039548710198240675 -0.143760952376823 0.08244273593891621 -0.10220459115809433 -0.13730608451092954 -0.1129796206557555 0.010922354603390676 0.11894265181303383 0.1357920984641346 0.11806543895634132 -0.0028358348997935554 -0.07701770891678576 -0.055095281716257216 0.09410878260970221 -0.06654851410257018 -0.03569412647913939 0.14527709812197792 -0.03509697029922425 0.08269616296856695 0.08134057081532495 0.10916990055152923 0.19724478943875273 -0.07510602084830055 -0.08354420671283483 -0.12599487574742804 -0.13826926874317258 -0.04426089724132934 -0.05289994060453414 0.10156256387623443 0.007529060931626146 -0.07758499949237124 0.030464668690046947 0.036042092027621514 0.0481185509796349 -0.024715366855698407 0.05562967439791144 0.16286145407255573 0.01643791144555026 -0.04441009428974304 0.1008120594005071 0.21824901600422786 0.06579391337364789 -0.07142918779499148 -0.0038922676764537073 0.1603594101523263 0.009948483905520325 -0.10518119196345607 0.09636148679618035 0.022195071586190957 0.07232232384554352 0.2081634844689712 0.12166559102777187 -0.07881068381850628 -0.12426489691395373 -0.06505817224088045 0.011112579361510388 0.0784049893122723 0.01574890524974476 -0.09189857691011641 0.07097792844703842 -0.10923823834013975 0.24805556848014917 0.034772796531049845 
0.0666955707041467 0.046770332235525416 -0.07618045150628373 0.2021717652388622 0.05000852808760127 0.2941921570935019 0.15894557991324904 0.3150879900369293 0.15098713875019432 0.04682836049115267 0.05318065062608729 0.11869461004794313 -0.18314264778292824 0.07435734367287603 -0.02957644050720115 0.09234386916827896 -0.01355046501569529 0.15224694792121707 0.11456649161141211 0.19629669707741737 0.16668038670224497 0.1823034932067677 -0.11551447578795064 0.08183722129197611 -0.07266439817458097 0.17958205159751917 0.19897826854604114 0.0751861138223801 0.004828952835384128 0.08276792959023423 0.03820473982647557 0.06267558429110036 0.08489636258365019 0.03593909998058815 0.22835159516807482 -0.108794739800083 0.12099892639390326 0.10534220093042054 0.12143720071245108 0.21321348701391 0.08362348861922034 0.13023411053710798 -0.12580312272946761 -0.003243251506880516 0.10980943283037592 0.19105477423862466 -0.016596469474933675 0.14689375029918708 0.13180435920131728 0.2802104675198884 0.2142409182637275 0.12872095692197077 0.05691469487354432 0.10778335101004777 0.12931422247475383 0.005888467003153732 -0.04653402627020919 -0.06456670970108598 0.08025065937314423 0.04936230332163861 0.06760578565340539 0.09148762486408599 0.019975645243572683 0.23355492314957563 0.20472278725460308 0.11017420049152155 0.1218780370255299 0.3271616037511321 0.07120955255344272 0.1307520621084706 -0.010580766530354207 0.07712707194243233 -0.1555016387822898 0.09807042188943982 0.009435897308624064 0.0666849583200494 0.2866184212962086 0.3701700444811347 0.1151688624613368 0.15534384439171178 0.020215797417716026 0.048323292643110284 0.08622624865986472 0.14831009439363294 0.004650555157938638 -0.10900696618399475 0.13449399814488455 0.042137186231731724 0.01087360982113535 -0.0026600575556725756 0.13668000712453307 0.24078168160358643 0.18260090992259176 0.15131994794765352 0.24068982465818548 0.06710034062167933 0.07274831606790447 0.09568590691541871 -0.05787375008535749 0.12293469803046227 -0.058653892490349385 0.014122141461362188 -0.012576784606924858 -0.17642649479337333 -0.10155059527326547 0.12329299328015093 0.15542486670363204 0.19037170183774912 0.23183657734313792 0.13376152407605224 0.034828527542038884 0.048435323348365825 -0.00898298881992733 -0.10176669731861811 0.030695929421621415 -0.11372438697780335 -0.09307300464650539 -0.1850726522502116 -0.2728522032415988 0.12282881698539544 0.13162826353299872 0.14519618405010404 -0.1450436522809523 0.04139251429947367 0.1247578047006068 0.10886847386818567 -0.05523306219027866 0.07739900188154122 -0.03767410845648217 -0.1343319558235694 -0.05336232082110905 -0.09567163662117957 -0.010098843115590176 -0.0037930368393359684 0.06358658124175037 0.06073271347994487 0.02525765238308701 0.009440827121446532 0.3083461183580214 0.007824475759034137 -0.12991904768561102 -0.2557328936675704 -0.14374907370613318 -0.0670704696639114 0.05571555152222259 -0.11446385263341963 -0.13829657323919745 -0.1857422273368645 0.11369305039691112 0.22923344612868132 0.05981070619538087 -0.12072759651297892 -0.12877374648672016 0.15701896031428828 0.07885475957450215 0.01491264694040241 -0.08427341219557552 -0.011341944269977583 -0.19123828971547144 -0.04096073146262223 -0.0905056218193111 0.06702671349254323 0.07431383310843458 0.07889086075691305 -0.03440343299486208 0.20680439126642297 0.05488237243815763 0.13795838215851705 0.037266126984446535 -0.029908085343317084 -0.10366344316746183 -0.11391052666065606 -0.11755470147759457 -0.04710195386355885 -0.05807035955910641 0.2045483580580589 0.11879382559626245 -0.06819777602147409 0.1521317479163394 0.03586609846782236 0.049657276362181896 0.18296449478720267 -0.09643732862797494 -0.12984598287156623 -0.0487842017485578 -0.06740606172393758 0.006126114840754958 -0.10198786907497627 -0.09196462907091883 -0.05038229613527137 0.1226323851405856 -0.09487398947487749 0.018199973864749617 -0.20490804504329016 -0.037278740763450606 -0.0483883644689473 
