-0.04361268518326499 -0.009966429948230975 -0.14574709151935875 -0.04882903046534669 -0.03435756446040158 -0.016092034184630823 0.0031713489875008333 0.10694909567912295 0.10514048295651011 0.21280777451146854 0.11506410134569607 0.051148479109326066 0.08507928395761077 -0.07059394684756169 -0.009923436858308148 0.053340673990307896 -0.012079400380120828 0.019092971000390573 -0.1750401946610385 -0.03414817890054623 0.07704146617471337 -0.09905150301729806 -0.1373143839902456 -0.10403359926601731 -0.10258123582087643 0.0486684799726592 -0.10524631422428893 -0.009007487178807951 -0.1852554329691021 0.03300155711152244 -0.008047417998236639 0.09745101465667177 -0.031231595167488826 0.028333602276046428 -0.19996716288010324 -0.06125272116989644 -0.18246944341738314 0.09157502997002569 -0.054849328161675585 -0.10521820333528938 -0.2679336557977889 -0.09025607938334194 0.0715823236226242 0.10478190990197198 0.08434409273831395 0.11496692379783341 0.12871531808972875 0.04323062014628714 -0.08214975816035337 -0.08195195931641114 -0.06860864553900446 0.08093789319651168 0.19595214205810857 0.1683808087124398 0.08865089275270528 -0.06892506114434394 -0.09323632739305264 0.07409711486315973 0.04331441114944001 0.1568885164958119 0.07495530074908821 0.008617069724056303 -0.037081183415917096 0.0025736554554146467 -0.11141661768170269 -0.03566492619467574 0.04883206168060576 0.06915030540742012 -0.06374912338699187 -0.19871727779509066 0.09328312453239114 -0.24511448077069198 -0.026015771140405246 -0.057913681977842246 0.08438736906587935 -0.12386643961046266 -0.19824945437459435 -0.12961959447558116 0.0475623625118146 -0.1547534014738526 0.02137728036709967 0.06789351595308996 -0.022719296212448486 0.1931759762955483 -0.12355874583855077 0.13539332578499821 -0.0988306832309664 -0.14026001001418242 -0.04998791576260872 -0.14308548946325356 0.07368974155299209 -0.027888440767467684 0.11013220086516635 -0.1694289105389335 0.2082674671756927 8.538694490006205E-4 -0.17403612478813285 0.06685933718609026 -0.10416273186218347 -0.11609724570217454 -0.10034484563934538 0.021368965382561507 -0.024035968490818668 -0.1746039331776319 -0.023268061918481 0.03132795241585062 -0.06924095828982316 0.039799169126666346 -0.07870063948690768 0.010966650790660743 0.07260783327286761 0.05287092654394879 0.1876891325172849 -0.10535664720687969 0.09068140127439779 0.2295491933855653 -0.10614798926363912 -0.053671919154069894 0.10942135242719546 0.027414735139002375 -0.08928320160434322 0.02174788707879009 0.1306298113849957 -0.24109356110943764 -0.2108103341623569 0.1728015515220388 -0.17855791175312097 0.2171415716532723 -0.12965633015330866 -0.05505108085189838 -0.1384642747719373 0.07958638458987455 -0.05664223560781875 0.0638859783902536 -0.013793360353703564 0.010224110171661725 -0.05758525018421202 -0.046546360818910205 0.17096908957576737 -0.06365258061563692 0.04371974847322242 0.05586609715883191 0.14429949830271754 0.07362346075423297 0.06354455192855189 -0.028491704626006312 -0.16574879613135662 -0.07658990860786902 0.05589026405206402 -0.09267542215808217 0.1047224840646103 0.1766884943008984 -0.07992603830178485 0.08190973694006347 0.05561353201847063 -0.14777426779991656 0.08517953069926097 0.01860780084553119 -0.1272207371052842 -0.10653740915039164 -0.07266704191178457 -0.018693492286552316 -0.07294244536661477 0.15585570951162228 0.07228429479732287 0.013092959132433314 0.17110366255834356 0.12713150648304625 -0.07473411516667605 0.060447146843991835 -0.003254377827986084 0.1336925967639439 0.07782571921528934 -0.00385677976690366 0.016110175881203437 -0.06672762206363493 -0.14298512245338307 0.12264286372158029 0.038766187053743406 0.04672842841984236 -0.03408602805012097 -0.031807206438881575 0.15348074729097022 -0.03425108395225901 -0.06750805203733391 -0.09247509388892823 0.07982723776128371 0.004973233592189768 0.050609367556519735 0.1458255850310925 -0.054123819622364434 0.026434203926986692 0.10699979723210686 0.1077504257082946 0.03414063987955331 -0.09655868119185226 
-0.025398561393962484 -0.026168537276601945 -0.04606939838081831 -0.0027381218901346713 0.13056295198906728 0.06900019511518267 0.1681081061860011 0.15822110935964345 -0.07866156706633212 -0.06360145691380761 -0.08136014235633059 -0.1864094158568275 -0.24042931507037973 -0.13525601664160006 -0.011907134219311534 -0.02860264729768958 -0.023145255064644526 0.031639195198843305 0.195661673304343 0.038530225250838816 0.030459387334379716 0.20597303801816155 0.031913206686867535 -0.1649443031255805 0.06554959854956736 -0.17009137053213394 -0.03593156075810219 -0.30615524778239445 0.00977227276904594 0.02620271411024333 0.014054725575736077 -0.018336369606498124 -0.024199167304269513 0.10095481518199627 0.1863786351067559 -0.04238755630168921 0.08778333812033587 -0.08774460579672443 -0.03439358350721949 -0.19261859050341118 -0.22955066631025695 -0.06674076583926629 0.0014539345833990234 0.10082978765013001 -0.07880472785514143 -0.0026687903105556254 -0.012723772630230367 0.07484407479781797 0.07576068933131098 0.16438523956571757 -0.02990011502966406 0.008232158792431936 -0.17402917610904334 -0.24079205873887916 -0.0686871444734368 -0.16492990765842777 0.09551730468391693 0.03726882644310387 0.023758100308899358 -0.016631207123230397 -0.06698358139219807 -0.012459157036854464 0.2196161788871455 0.017568109710125863 0.0618196947611336 -0.271026452340451 -0.04941375291169106 -0.055094934269323874 -0.20206109415527923 -0.05585409568634296 0.033138126010806096 0.01057478021325659 -0.03747118810379894 0.07188790721984803 -0.07725887295349518 -0.07962351629052597 0.12883798210375705 -0.004126157673608493 -0.10028109356603748 -0.22696176611156402 -0.12955212819349313 -0.23871313000647393 -0.0467049273598911 -0.0902917538649927 -0.08271345329963262 -0.07438985128864258 -0.04785074317489352 0.0966174753309846 0.02068518491205179 0.13709389519264878 5.224800934615048E-4 -0.26580861015607804 -0.15354360011691598 -0.1547372974845848 -0.1455282767424727 -0.07102409460753932 -0.050425290943133555 0.01774347455461027 0.04669573760539362 -0.006638703078448366 0.012969979606743743 0.012393554107343894 0.10005315415547693 0.28208184430423594 0.03820646952680436 0.08358910942761766 -0.10271261045575888 -0.010172288272707913 -0.029316438665683234 -0.01302472879855756 -0.16069283659918612 -0.018540554374648216 0.012851008482669431 -0.033473666240874625 0.09289881249037678 -0.01357754492045697 0.2706302580256575 0.30094491034604876 0.16875553593710044 0.12972913970658603 0.06931034330363223 0.07576231427470861 -0.16566977058037888 0.01795476296533527 0.09755786079038568 0.12917138090532282 0.0026307351481090206 0.13984203331116327 0.11228361402254654 0.04367336895312809 0.1377637014627204 0.20115039290334225 0.1309455050274448 0.10020380241380013 0.09667005899787111 0.14843392617675086 0.07777648012933616 -0.029948478999658943 0.020895586694287316 -0.024801216725626206 0.12976691206321228 0.11729533339283059 0.3932229682065235 0.23784749243971479 0.3215210972803659 0.18589135445906596 0.1313654219079178 0.1017112233453629 0.1422225805657975 0.09786190732812124 0.15075115479873383 0.12574689682387405 -0.0662024886444291 -0.06068414055599135 0.1302386196920863 0.14616694887272133 -0.012004497269240286 0.10048099871890626 0.06013229652359422 0.05477647354561135 0.3009530493662975 0.05676974407133361 0.19702100627792543 0.19138200946326597 0.044856756414418206 0.2732335722088521 0.24249506531718226 0.19457751218222819 0.2635668236426793 0.11010458107800952 0.21892134160610924 0.26971055843016506 0.023898689826341805 -0.058180054975837794 0.12739008585793674 0.21278817319489007 0.06572004751734277 0.2903202624206509 0.30997271623743283 0.14151477326696016 0.07423384779043316 0.2369108813273166 0.5287518808788563 0.3604056234176762 0.10533252721125924 0.19545071154820357 0.14290701326001365 0.030760689447369805 -2.6144635397575504E-4 0.1409293328563529 0.1292087158974205 0.10900830040102427 -0.02673403633453896 0.28297076346494837 0.2523461144313764 0.25955603823936374 
0.024167690933395828 -0.021970671950440716 -0.05239135750326776 -0.036417807360218886 0.08943453696050976 -0.035055330642010635 0.015693669350071302 -0.08267594137100806 0.043511202660384524 -0.04866339960475479 -0.014734190602719032 0.13562346871674985 -0.04136650466620578 0.1410857500247571 0.020205972156158023 0.11874607791945366 -0.014569494878454879 0.074832910846901 0.03232564147157775 -0.004341547821823143 -0.03193622553255947 0.08454516535219488 0.08454582598739956 0.0034478678134379544 0.12518615062430466 0.24265789439723243 0.12058991542856887 0.028314853128015148 -0.021823314887196684 0.06927870440078929 -0.029926830236809625 0.055092778388218244 -0.11127221757574107 -0.06388298576321974 -0.0061566985512755724 0.01796077193487151 0.2309918349110017 0.056023445958800606 -0.001218799703118981 -0.035620622311845394 0.1733050562363815 -0.12916119974187745 -0.050116885141792 -0.14934971416269646 0.16512925458844 0.0035232335624464715 0.07174160535385712 0.09607285654333497 0.0714253419967669 -0.08450122754545208 0.034345215328809554 0.23176549488321926 0.21135538960571876 0.07448081224500228 0.05810469426446793 0.0078621166103059 0.0737313076625608 0.003409507439173039 0.11244552340172072 0.094414456866097 0.015652576242006257 0.010690832282502618 0.1765772394069578 -0.07311736450995585 0.19869110439442747 0.1622863028021259 0.10945800204672332 0.1234475011874162 -0.16497607877997778 -0.006271288460645867 -0.0012441933133876843 0.027090323149069156 -0.06958445213691883 -0.07256813847566458 0.1379226865026075 0.03121062334923426 0.12894101199782415 -0.03191134312613211 0.22170251925472428 0.037408579162115624 0.18666144161627088 0.05713969674933247 0.024601870920725136 -0.0262155727568996 -0.2005794758503226 0.0649086099119061 -0.09353646994110475 -0.011011400834783792 0.049962296973701574 -0.014149282779079873 0.07488358073925906 -0.0682894496490576 0.31501127069580387 -0.0812652721061544 0.032598211375632014 -0.09253823052750135 -0.03281041610620332 0.05123654851850727 0.010397405639223714 0.20091646832578858 0.22159967129611724 0.005801801913886468 -0.014364810937741203 -0.0049738245926684715 -0.10755303267079498 -0.05951427790115976 -0.01305725724374864 0.1376604080561356 -0.0822375510125704 -0.06654973880147508 -0.002484770645493538 0.09561367517497524 0.005915538591770078 0.010428472060949035 -0.045268115552899606 -0.029030516512923113 -0.21706878165825885 -0.18246390060326814 -0.09617939266389423 -0.03677320309267804 -0.06799345038083247 0.056912765271682125 -0.09708451880387213 -0.0013636529249549717 -0.08488591854777135 -0.038119943232450014 0.01604524875625142 -0.2578298823092413 0.02508641239460379 -0.19616718405076894 -0.047123494359846 0.03511387273525733 0.037128650753135754 -0.14268658836727852 0.007813209883854718 -0.039336899221847896 0.005172208763453038 0.061109748790977594 0.0663296919099319 -0.026379747544052944 0.005439227346006436 0.19344035160720438 -0.03903097656906124 0.07612530049060719 -0.12751612928959186 -0.023709565228939595 -0.06104508720929537 0.009897088964905945 -0.02128685690106014 0.07634277539103222 0.07754642727275333 0.06985950659628122 0.03757765002495999 0.13850141219853876 -0.1045318941758914 -0.08947875294408314 -0.01571041329975599 -0.06099003683153586 0.1495570711587824 -0.026125509872377616 -0.18965344663551242 -0.1967041534062114 -0.070115076067718 0.0730359727990947 -0.0063558210776322 0.0497347973658967 -0.11255691211690413 0.04756456855046658 0.0048196078600558166 -0.1020393272544435 -0.1766437071284831 -0.10872126441101744 0.013670883181686525 0.02714221381636488 0.04204998208153435 -0.15326034003808472 0.030342830346563893 -0.02305987608293971 0.09967168256097214 -0.05650266257593143 -0.1299781958847334 -0.032159490850472906 -0.08584605260124574 -0.07044417688164552 -0.044297173380426116 0.11888025947288436 0.08108725455663693 0.10792608512408541 -0.01588467267193799 -0.20333195285542935 0.051953330941451444 -0.10380957232963804 -0.11602989080292389 -0.053374476419961896 -0.15364801545945064 -0.07631067115871634 
0.016509194908857838 -0.033101814278806874 -0.03403364780490598 -0.0036789161840649386 -0.20628352766618105 0.04991532461967559 0.08314709419107635 0.030599663312798637 0.07700051936234316 -0.2263438714520588 0.025753808435176398 -0.11364664262295471 0.06942147833491885 -0.008575742562600679 -0.14631771455799414 -0.028846353344430555 -0.1161451568924784 0.4189844544047436 -0.07427440722487036 0.009267827204085971 -0.04430334361984351 -0.015777530499907738 -0.033878558360431875 0.03766356801927208 -0.1341755774119382 0.03656545751349716 0.0011755788630227499 0.09481331176994205 0.03149705516484444 0.08579638585208274 -0.09086594767849018 0.10830087134935618 -0.1290934321925762 0.07199203256445337 6.226957172758241E-4 -0.10617673457317921 0.08162924882960093 0.05164908493279273 0.030102883654031173 0.03665815499687124 0.08124078037548424 0.06763055087326457 0.05804053268246667 -0.06890900986013306 -0.18006216454351842 -0.10104048604195134 0.09194861640489205 -0.05432668434931852 0.015512943846765397 0.08585678492917455 -0.032676157704120745 0.06063397329655675 -0.06084869146057362 -0.13687507207857524 -0.028333947010696886 -0.008181966179484136 -0.017246805368764245 0.0012153986119207917 0.14114170842635998 -0.21222105069398187 0.17099766297153543 -0.07498486448597798 0.16623734442762847 0.10701793415551268 0.0351336822771368 -0.06519565476103262 -0.07585735203151288 -0.09734763311612735 0.09862943403608462 0.1483583913629893 -0.0013136964875461448 0.019713359846234783 -0.09039892685962614 -0.045444369653459035 0.05668966289968862 0.016306974257934207 0.021826781177481762 -0.05902213427205173 -0.110496378747607 -0.06470677970944315 -0.036834707761823675 0.08793746224577395 -2.1591942387119811E-4 0.04425170276296157 0.10423577795884423 -0.11166362482967215 0.18211374481114964 0.09169113574067154 -0.020220917516718284 0.18356728908542627 -0.010674822265986306 0.023547324470193434 0.1831215775660264 0.19948464740182162 0.03300055981712215 0.04106836336369279 -0.1402340416352003 0.13608737389972267 0.006531749676586702 0.21857390279054384 0.09835166863870004 -0.08758858121921591 0.11257082419123794 -0.04085087585287394 0.04231154742910244 -0.09701883743712501 -0.09148986720702296 -0.1710826207179566 -0.13799227585185778 0.17249170521803936 0.09735750257131934 0.04667441576230514 -0.1795503845504836 0.02731200714545283 0.08467504837722717 0.0028188556883959603 -0.1847396483442394 -0.08560980749170283 0.030963516846371865 0.09687766992043248 -0.14048988832786816 0.12460514096329149 0.07049549646115252 0.15276387099202293 0.19470013069014622 -0.13717006867915044 -0.06906532570108784 -0.007428154734647479 -0.006256362063808921 0.010792827382010444 -0.022274650748952688 -0.21675235594140288 0.042100184960339064 -0.04299971509638901 -3.0382279716738135E-4 0.0016440735366432828 0.13702597131850275 -0.052227093752634256 0.057628490027463945 -0.05186208115159062 -0.053743380716564086 -0.17715230170000254 -0.1288072441614396 0.022945922340639024 0.0280973512307291 -0.04882575240754801 0.09568378242143609 0.06493631780314461 -0.008837694576912854 0.24611440018414607 0.015569841379379716 -0.05774758273659584 0.019432865575673742 0.07009332286855063 -0.15201192504773106 0.15386951975466565 0.037227696468017206 -0.10308708742618407 0.02859135868854217 -0.09764883412361115 0.05373186661596211 0.07834845405328718 0.04506519131183299 0.12231761395527857 -0.08626232394976384 0.061889316021258106 -0.1822202616011056 7.739802999982649E-4 0.0673995133414184 -0.08160676381416558 0.11235963549013683 -0.017208324702133355 -0.0768211385409904 0.07803071997082416 0.1052697494915297 -0.005094227306452637 0.06959872317959635 -0.15323065701154004 0.14636556779072696 0.024311255214855654 0.07103890921307661 -0.057872399912586844 0.0592507686581009 -0.146687379241582 -0.0923221624146048 -0.24988565128420148 0.12111290353314173 0.07684922634043745 -0.017833684175401734 0.06892628064396464 -0.07669460656030105 0.007946946668740764 -0.13056665892200775 0.2082048129009051 0.027827539352156257 -0.086877499257199 
0.22188999976252413 -0.06678704219759102 0.14029347280570817 0.10854940782734515 0.02876017149705974 -0.19671424858841446 -0.0018791503633708972 0.026589206036701493 0.15259121064087658 0.15302747226017238 0.129845738484476 -0.10181058094155344 0.15561678747592153 0.20743230839828294 -0.13529695177460335 -0.04391881130275796 0.13410991939220868 -0.31013515274973985 -0.09314625517240335 -7.225698785380567E-4 0.016740787278391744 -0.06784944330713738 -0.22304677740385062 -0.06520923344647511 -0.2104446814082793 0.11035226278663969 0.18073430271604315 -0.19050119155605466 -0.060839208689999466 0.019866542758710266 0.09040483691014936 0.022883692284514628 0.0845612224531585 -0.10619605729325328 0.015854555480083125 0.18704672830561378 -0.18491919028085493 -0.06516097116369075 0.022926840830598868 -0.10413632005728805 -0.24424829138194312 -0.17154301412899783 -0.0925526547240275 -0.01616548706388385 -0.045185652267473946 -0.07164371486889057 -0.06149654397291071 0.09311588000077653 -0.03574592508381485 -0.21943019958724758 0.01870658187155533 -0.22621355055222514 -0.025997545532120366 0.19583903099559716 -0.06669622875043472 -0.05733135063999843 0.09925223782716594 -0.09922151103392807 -0.1432950844297593 0.15298498178353617 0.1493960976814197 0.11134708402584943 -0.007958005262660817 0.09904638876264586 -0.15406021005534404 -0.0437037207362655 0.022472922606368295 0.05918134971734302 0.0575935939676883 0.16641022836862662 0.022826929721379296 -0.08077089993102943 0.01167024907915937 -0.20600179738236513 -0.07506952114772715 -0.04415144673972971 0.010984315256730917 0.04358650922006866 -0.162984563536207 -0.21242113926108022 0.16350340922775414 0.06527470565409274 0.12631251914168828 0.0555428157422999 -0.13434961637499904 -0.019120299573978837 -0.15792069313906346 -0.16372180525890867 0.03925097551723019 -0.05427455227790041 0.08115653140568614 -0.07029005765177078 -0.02718342555684806 0.12233175424564226 -0.06578775359203227 -0.054229527004788995 -0.06429699401556337 -0.02857365787570269 -0.03925691869471702 0.04224771552331518 0.05004358237400767 -0.08437232835389875 0.05189468090170373 0.034274023626437354 -0.11820498760412536 -0.1644519691042495 -0.1145609341285265 -0.16986048493931552 0.006889579218571812 -0.05428939304917433 -0.06743385418929823 0.15782058719791656 0.035600812435270995 -0.00989737024851055 -0.06686388148302294 0.006441783670183836 0.04326916670468137 -0.15548687757221624 -0.046182602431313405 0.1260241820514248 0.021605639112770816 -0.048502225583078734 0.0519147361462627 -0.13109568311206019 0.26806646860890965 0.00155394987353452 0.08867764702559287 -0.10219400645854813 -0.14373697896203289 0.11219468447659102 0.08422731517778326 -0.08627753047230788 0.044846585103017526 -0.12937213614156579 -0.07532247589198013 0.07216891240481017 -0.08151780453309679 -0.11068255578567901 0.013315032625949616 -0.08832434903599991 0.24782901190040804 -0.1504101741803415 0.2239573943785413 -0.16801727072861256 -0.03787832463448311 -0.04469498407689001 0.0690899699503843 -0.07703505507385709 0.08762024274792547 0.11424656529543713 -0.10288522368564625 -0.006129988208859953 0.004579887438065878 0.05322007771745561 0.25479867624048336 0.12603135002141486 -0.33054532566393297 0.013600659203948342 -0.15810299528439037 0.14741607347001073 -0.188864048668129 -0.10984593480710256 0.1347572346031832 0.1805499779634679 -0.11099485419063837 -0.16356366837637412 0.003061505111778693 -0.1945833151179794 0.012072866690196757 -0.162969278189508 -0.11017253170505398 0.13979628462658505 0.03313632582517599 -0.01349584700560818 0.16707640952446765 0.10364644663941924 0.05065114939076719 0.05134026429110496 0.08612915529611903 0.005144751486778673 -0.25596392439595084 -4.8435993534196373E-4 0.05386225102842156 0.10468986372043007 -0.167039467868428 0.11008439563353709 -0.07001864643373937 -0.025546291040395977 -0.008653276089660553 0.08984798576796559 -0.048747055376531546 0.1233198764030213 -0.07810787253152945 -0.2533595468037401 -0.12188748114957608 0.07273095970558537 
