-6.353755517116609 0.033818369285109395 -4.5920116342265676 0.7005700914968651 -3.392698064053959 -0.06389813530972754 -2.0633135883758356 -1.8805890654984554 -1.4417922283333153 -3.336014377429474 -0.7039026898764785 -6.215238727249933 -1.7483378740643891 -7.477586251108443 -2.0438204902171995 -8.024415831151918 -3.855875895282297 -9.797524431578022 -4.314595443033787 -10.065067189983186 -4.681590440192028 -10.207160060323663 -6.952904193276254 -10.154319890942547 -8.039068592871669 -9.972230315049673 -8.713960956697388 -8.96354876114407 -9.44176260082766 -7.686408056154241 -10.332592249472976 -6.610706216568701 -10.775452232803005 -5.009092296475192 -10.928602649408294 -2.9059011835120017 -10.282396716825124 -1.1278532513882653 -8.081623813547171 -0.24571781366581613 -7.809634056440708 -0.12721563755009446 -5.296760812952504 -0.09409139130543043 -4.441224875284224 -0.07122644339594386 -3.329147078755391 -3.3485978386831174 -2.8306115840125115 -3.154822978286491 -1.6519352735056279 -2.762398344112272 -2.0224432629757922 -3.7169777353215117 -2.233530195541629 -4.246216060306052 -2.4492340794676197 -4.755783454229053 -3.122866462522054 -4.927528424418117 -3.8027219317650616 -5.110981260241193 -3.919943789504603 -5.2340854397148595 -4.22667034154255 -4.525676742999873 -4.288867271663984 -3.7011152876853144 -4.161434476775225 -3.0490053456349058 -3.288741096973021 -2.8280164583028067 -2.340026783516082 -2.833210373928137 -2.4155651454816414 -2.6451419486676215 -2.2139903935509633 -4.047011865329043 0.08355739507207088 -4.1334660430979 0.001343326830804889 -3.22906980062805 0.8907283184415793 -2.303521357946978 -0.22241137884235312 -2.7970986972548904 -4.176782055344107 -4.481505627876 -5.715364722345384 -4.317282764009036 -5.685090070324335 -4.167638221085713 -7.019769250305444 -3.0111483820627782 -6.054355245734863 -2.773161966311007 -5.7163655005022145 -4.377407465863168 -6.480191282157099 -5.021137268880651 -5.933018813308063 -5.260374395449353 -6.636171005709504 -4.908546696530864 -7.8803621094196385 -5.3143521124734 -8.430052877185354 -5.037576591990955 -9.154283444821477 -3.7507384512890867 -9.641515528941424 -3.3838041685032176 -9.78456423737985 -3.3716370169654444 -8.884027325930877 -2.9127262832069656 -7.080791526152491 -2.9025169404850812 -9.238453567536776 -4.086342893768553 -10.327547215606568 -4.025115658540539 -11.454790476077655 -3.326931850912425 -12.47341505859712 -1.975217565521468 -11.001180157177895 -0.36958874080303983 -10.54559164066158 -0.4159417027010046 -3.003044288624359 -3.8035327413153146 -3.873886216166441 -4.067920499151642 -2.8847851603549888 -4.153221239756409 -2.8770414308838426 -3.6811558715936954 -8.128594138094854 -3.3486568387624605 -7.871466228211014 -3.7495763445894594 0.2957875236846391 0.1875551793746063 0.3491541873313687 0.7355428974661258 0.7301051102297179 0.1878006502941899 0.6172417675864467 0.432123232572726 0.29854430416969713 0.8275322981519238 0.39643159087152047 0.5261319621404081 0.00973217774618218 0.4569029366471563 0.7650404868075715 0.41422035385171874 0.30081920113160276 0.5093449923942011 0.9192223698351504 0.19098657907734706 0.1589275489851344 0.8488118266609779 0.7588831145026244 0.799631006212566 0.8050241504561138 0.9787375276153666 0.9525392878174707 0.5679045277205732 0.18365695309833618 0.8769052038277926 0.04926636171514509 0.23777875847460772 0.22171992465479629 0.29170417271047466 0.1912340069919366 0.5591814130170987 0.3203886870434941 0.4377942286583756 0.24692689582840244 0.011303445890614272 0.8265948409580437 0.16298550599251238 0.7330019594202668 0.23939973658469182 0.29388429369300784 0.8231802400969277 0.7218336541530529 0.3506678528445294 0.18723114604941193 0.29851274475789025 0.042151224396650866 0.2997047398921563 0.31235477583695914 0.8113627522918474 0.47177256157201874 0.21220429014649966 0.6573154041007617 0.4657058294593184 0.29429196665966584 0.6449733139813737 0.5226388608669922 0.7173044808295125 0.5456795607382415 0.4610074601742432 0.785948652248863 0.30553187645857094 0.512102427786583 0.2102822888864243 0.8980594919263171 0.5301597087924147 0.5568787313136025 0.6500796045037504 0.7397132238676545 0.14023024452790656 0.15232789894371979 0.3130821216071623 0.7816147846410042 0.5171724259375714 0.07138116087550406 0.8371345433452059 0.08515195162275069 0.28061009146516447 0.05416874926390458 0.10748267577216952 0.557159722075349 0.9228501713769494 0.9064012024183732 0.13046647476725493 0.5293163600897477 0.5868271949825273 0.9092140050799317 0.9570567914734991 0.17123478977357276 0.6423201397156931 0.6242463994747715 0.9052900461679555 0.4660398504955615 0.2865458769810688 0.6630765319333367 0.7925683458587134 0.47819784588237946 0.9977735927886029 0.7567369910770547 0.8819578714493432 0.4255923160009961 0.30439247009494885 0.5088860240147232 0.771030793535272 0.6313154803706993 0.9969049506861395 0.5453115383545852 0.5074617306824701 0.7753723018424856 0.606606500893502 0.38279632234154837 0.8025025371954848 0.9924700465824304 0.7022517159691106 0.23197486065892525 0.33162376728087317 0.2692930369924984 0.31479605097682195 0.12166306516392589 0.7610254825955345 0.2831388054030226 0.5903415079057668 0.1862445622416915 0.3193836736001757 0.293518533612933 0.5927030456699978 0.6930479758375124 0.44611268871253074 0.9493010299995902 0.029552576697298938 0.40325206170601735 0.29058858976371016 0.9062060735104135 0.5598854009381774 0.15770602262203537 0.6111917577857424 0.9629298913950055 0.25559388826095375 0.15815509816030004 0.9286915650708332 0.018911330021879613 0.7362216813700693 0.27471197171136863 0.6254099878246777 0.5327248610769538 0.47351100797572354 0.8520171271062766 0.04976483740124504 0.31731213906557376 0.7711448347736086 0.9093819495555202 0.5852075672117113 0.4467411156262726 0.965124239038277 0.3343104831325605 0.0732346069864298 0.7689076818758801 0.46151121502494197 0.6541471094751469 0.942065184159216 0.01957222345793941 0.33080511717422045 0.23719920673341965 0.8857429266621771 0.8153487429798327 0.31201112343833126 0.3225348472656052 0.9628320251750924 0.8667422782840677 0.24449742677970854 0.10675800254199652 0.539543511633174 0.5970556345703926 0.14202698344058307 0.22641438511967327 0.5890407513634923 0.9789637370405304 0.3508892500204287 0.3662834125622655 0.4768374112385916 0.8077801586394661 0.4928455948844409 0.39666268265601146 0.511615493769856 0.818917238645281 0.18364199789614233 0.3968535301278958 0.22145477205494835 0.026767341208998152 0.8391307392467389 0.15740705479824246 0.527379121320929 0.4132096687805724 0.23358300185302971 0.2702925393379929 0.7292892979268514 0.6261737496073679 0.8585620977580176 0.7140006415562351 0.49376611314152363 0.6621666651107568 0.5457674733909917 0.9196962790380149 0.8388911221718324 0.6013984028008995 0.26354710388668523 0.6648870722015673 0.44814728134811266 0.3401158355784468 0.4743166710184763 0.7826750192382904 0.5136247795062681 0.9219823481202394 0.94891159536688 0.5975105806474618 0.7081724749353396 0.508817025751753 0.4739378361328236 0.20246992470991687 0.8167983729182126 0.2507335476907637 0.45947599895182456 0.17842768355717253 0.019537667317728213 0.3166957066997024 0.057032834036243374 0.12209910307781957 0.8111700493394245 0.12873297654341043 0.03142272681731395 0.39777687915679183 0.06758258049441845 0.4065359460284216 0.29530120322645237 0.8566898984152687 0.8242383636301561 
-8.725331276805278 0.7113615252477076 -7.156157595804321 0.7743608579670297 -5.74819482172403 -0.30145957957844727 -2.2780440004758775 -2.486474817516976 -1.753225137812381 -5.555956321862572 -1.835038702002607 -9.126359766555037 -2.7560149563175513 -10.368641323853023 -3.23189765096694 -12.482768593180296 -5.3796332195834164 -15.09931911724973 -6.980412052907235 -15.70041285967902 -8.248862779426997 -15.351092150212958 -10.684664252152016 -15.676315476553368 -12.654126988138865 -14.67779010015805 -13.201775097310037 -12.739829227269757 -14.329216548446535 -11.804610551585812 -15.07653006837683 -9.95998140069421 -15.989167346869637 -7.3855959414253975 -15.872354448624076 -4.265571995710574 -14.64019551207243 -2.2238806704809395 -12.323606961615127 0.16807517587552823 -10.734787056294012 0.015714418292457677 -7.759997289183296 0.5220468986338466 -7.218105505064144 -0.4560037884215291 -5.608228301825193 -4.885308228843801 -3.6705492493825633 -4.46698823104787 -3.7532855252299187 -5.2633316200639975 -3.336046096571561 -5.707129272024634 -2.903474530278547 -6.869901254537145 -3.194884937758462 -7.035976043601356 -3.99329273597589 -8.070648227672551 -5.543950069581234 -8.019657431899187 -5.932378116567907 -7.896517385728634 -6.622395107772465 -7.031580713588952 -7.32291276342464 -5.062191173986525 -6.08093092933063 -4.657224512601361 -5.622191696486356 -3.794543239108241 -3.6337269329092985 -4.38977479993012 -3.2625994753133836 -5.220508017494069 -3.1333593679368255 -5.537544599243864 0.050163610667036784 -6.0737595235706445 -0.1371703878895375 -4.90759056742314 0.4915001494310165 -4.118102713443239 -0.1045105813454072 -3.581478712002604 -6.476904535140236 -6.752504823519564 -8.795787019469799 -7.3436442308483265 -9.282381418588194 -6.817634906952874 -10.921150767455426 -4.788233229034334 -9.769445359525635 -4.942260512706118 -8.883675790962496 -5.471691243349267 -9.18890482912642 -7.393977399624126 -9.752741265179564 -8.018719134330448 -10.222272989951538 -7.903572810809621 -12.186858220704881 -8.492874296058748 -13.178777948652105 -7.740881221411975 -14.170758680562399 -5.895421817469277 -14.464637148253102 -6.083091626569772 -14.325724935115643 -5.381180447903217 -12.633941258827798 -4.025323044194427 -9.781657121536714 -4.036347351281711 -14.298975440720515 -5.2219449060933325 -15.450243920234117 -5.978310644246481 -17.827075013288336 -4.636055530043643 -18.117984149266924 -3.281466201556195 -16.374875460862533 -0.8651833467589704 -15.804431638506049 -0.4748265820657418 -5.362122505210186 -6.230149028620186 -5.1461694278068055 -5.8111277977264875 -5.056599451449021 -6.402155681242902 -5.250379095555727 -5.947150817025559 -12.52521473917501 -5.2338532805418865 -12.461074874120676 -5.147579556586931 0.46677735898576833 0.21476766172514672 0.5196735454277872 0.49867286211230066 0.7292859353312701 0.0675543833964789 0.10104411692668713 0.1554327257959357 0.8475547147538343 0.28178944584369225 0.5221623339211139 0.1345576523450316 0.2417310332265804 0.8202338094277607 0.6309483807823217 0.06479195275133931 0.4989361198339505 0.605793238141929 0.3953083406886163 0.4057667202659666 0.6973992938174698 0.02650466733997625 0.8791662579166242 0.2609090447342485 0.9968588885267792 0.04160531402731671 0.10416306750273852 0.4924990199617446 0.4530242604316913 0.4101994616619058 0.6342110969657567 0.24681528219937832 0.7179945840152394 0.9947019503062587 0.43981930223145127 0.06859886946545801 0.2738814858107905 0.05315130675415003 0.10008129181151626 0.8866041298963431 0.1134850953588602 0.9276496049605779 0.6824445063840622 0.28579451575791603 0.3297229131393773 0.5606002418069684 0.7038553406539872 0.6467804079591096 0.904614646599544 0.8260788171330297 0.421601997576308 0.9293845510029137 0.09897554529932595 0.7505862498644742 0.32815293178543437 0.10476052016720916 0.23557411958626162 0.31559787411891027 0.13151579163822635 0.49927823892075773 0.3413605101475866 0.6837352754040451 0.6911178257940217 0.603429539375283 0.06847389703755402 0.37105293663603356 0.3489357029704828 0.2202962460632616 0.5490887823531951 0.09984477714368212 0.8465790527093008 0.18066189260597776 0.3557615105918184 0.8095403934986543 0.5512586498290367 0.23563765062994468 0.5367898111531971 0.5776746412195968 0.027046573797666396 0.15271158736379908 0.7752002780125091 0.008577995406580441 0.08256266628627706 0.4874200141612933 0.08032927731017003 0.9843499988573398 0.3021975763424328 0.9803783267841671 0.0625653856615862 0.5408409189546617 0.725209753813022 0.03819808327501362 0.7646723105874456 0.03078216855952398 0.7755099459975008 0.29685573084676375 0.22721320552756974 0.6668690051000925 0.7646737538545509 0.8373680781444859 0.4509483984752952 0.999513737942231 0.29169867526733606 0.22616797401451427 0.18568075740694878 0.8771514647537483 0.6452495904119002 0.1863633062487059 0.022874026911541168 0.9613944150250879 0.8776120134725511 0.3711010639778717 0.598470874557307 0.9249952733812522 0.5643002502661045 0.406547573805185 0.3226897382152695 0.04749356724955589 0.3892431540067124 0.09953490050239355 0.9451799163656839 0.04158351002708627 0.602697350667715 0.4637125729993461 0.4367673862067861 0.5926558470624178 0.08751398857218251 0.008082629631924076 0.12312384712085978 0.27462981049338175 0.2391120272077275 0.5530856056631819 0.741044236479593 0.21710615761513452 0.11548708927907159 0.6919432310796926 0.10461914445346965 0.14203540615353893 0.3458121183521208 0.8987537097580024 0.36643969924810227 0.1625102307561862 0.09966206831549385 0.19987372739977272 0.43807481101805035 0.04195468716431372 0.013621850364915034 0.27141060146810114 0.9944115439025427 0.4488968697013914 0.3480127964481704 0.803187437058953 0.6280515730013184 0.1106759180187118 0.8037004386862073 0.9783325812165555 0.14280739014535848 0.6688484340331278 0.3674214586982212 0.9576842055160445 0.6794446805918114 0.46972291754345985 0.273795891446479 0.32948976425592535 0.35216769154120176 0.485365552358217 0.6731659359017658 0.5874190438792584 0.34094649085274 0.05358427912932984 0.8766299617970562 0.8336987319910005 0.9326369376773942 0.14981234970275903 0.11311661716004928 0.06921541472248316 0.8329449724616999 0.45947639778350025 0.5780707657060162 0.6287229572357828 0.18163885118270562 0.606348659261415 0.1792989307230336 0.5468293934654189 0.09501470763986386 0.5105462017893985 0.7927493918790292 0.8992273156286886 0.23247188111822736 0.999255065995168 0.029477854773364842 0.453671011953622 0.8381562252604983 0.4739202802463023 0.48477643185856445 0.2864927160331928 0.9439816109037994 0.649557557168867 0.19142064350059218 0.3729888561812267 0.9369402777123257 0.12500631172472254 0.5312148538184965 0.5437973037089311 0.49146589800602813 0.8173573665522614 0.1724940522842906 0.6144243663534282 0.9467129774639667 0.09945332884765523 0.6959656621976004 0.941370514949641 0.5689692368914833 0.8162731077507983 0.44725224522190077 0.13584209749600773 0.7810184133555624 0.22417677618778808 0.8117221631919455 0.17482587817941508 0.3631225126484019 0.2964004183114378 0.5456717358751597 0.6893419045212456 0.8343946700143913 0.7688548441366851 0.017649553921157524 0.7809793989971903 0.708684405812485 0.7621964857412447 0.21468946251455245 0.32035974954175916 0.08569966925490446 0.809302252202874 0.15044569254146245 0.3149591335883031 0.08594072755882698 0.6416946845345889 0.8757003561862389 0.598762909077096 
