0.28272329801996193 0.3811818771547166 0.19850442163087084 0.21130065596323594 0.12558270328641447 -0.024376441761283934 0.05829776655772106 0.13862965453253479 0.20547044688462957 0.11082450170345151 0.08801231387504897 -0.1300862706120483 0.029155398139028163 0.041612749651574105 0.25502072938305925 0.164269743560895 0.09036259804972108 -0.09869716421891886 0.14342744112315545 0.08783250834584579 0.005475234937000446 0.11524850420887638 -0.1385036979184528 0.09440443652911702 -0.09239771232178058 0.13620551922806395 0.047213378951418424 -0.10331501942845034 0.15486238471149477 0.21576600750092004 0.19307937061237507 -0.03504719994729708 0.10139050899015074 -0.23332533034300704 -0.14144091807475984 0.14384193342563534 0.20084950047038552 -0.16232176948602273 0.03222064090550158 -0.020780366213344243 -0.063020908439137 -0.109096857765852 0.22417973195679258 -0.042408079104674846 0.02752811008051518 0.12767869807091461 0.159717815607184 0.14273813840672106 0.07786322268711039 0.020841079724675582 -0.12000390907914392 -0.11891301863535263 -0.05824426657719951 -0.14377804576730735 -0.09127239345027922 -0.07662966606668684 0.07326756103148062 0.014950116910417841 0.03431175102785722 0.009111546323132519 0.06315938944951403 -0.21644296662466636 -0.0012800458882467043 -0.09285296602886953 0.025519178749380957 -0.0918973635143554 -0.05223128621039768 -0.01731153640555621 -0.21197180597967324 -0.07375782405690366 0.2161596133879064 0.11562268702553306 0.007000281620076328 -0.048121646436694906 -0.11012878241811395 -0.1386478442020414 0.0641918501559459 -0.07181156414405365 -0.054676912449980346 6.184543897071687E-4 -0.1073697287161508 -0.10778455746068404 0.12533359117030216 -0.17158177913568803 0.09034673450371096 0.04401291262074658 0.053421668656042594 -0.026787572084587853 -0.16899572362030782 -0.09781555509807119 -0.008566884666801966 0.002441888501144745 0.0011581084986597974 -0.06514611565785855 -0.19991446232347448 -0.013665620468682005 -0.07139157627429991 -0.0023727949414952872 0.10910802202447985 -0.1606152616094419 -0.10488625084849786 -0.1489102455957589 -0.042865438247066505 -0.08117669823372411 -0.1174096448381907 -0.05009603586283046 -0.10401395162989639 -0.13866796282727928 -0.07880441856747977 -0.05266213615479512 -0.18069475722512993 0.007058564696135346 0.15720479237732835 0.08531564260336111 0.04309003750928377 -0.18130203521511326 -0.10903852634771835 -0.11073208277109305 -0.11538274276473484 -0.16085435980846355 -0.2451247478502486 -0.13526412630670162 -0.06623782541632894 -0.036611616748866836 0.007087870056831757 -0.003906218956265594 0.02589702961625336 0.06622368619772626 -0.0965913295973661 0.05105957060414499 -0.10567400714560582 -0.08544499614736005 -0.1580944971196981 -0.1970227491226341 -0.1289829408135997 -0.18412894155509127 -0.13524435095693657 -1.7962489273641818E-4 0.14631651094251427 -0.07749679006680643 0.03447276331798714 0.13350972133114355 0.05983015154366321 -0.1079960784897841 0.011032885939645819 0.006725587922282694 -0.08187555814210763 -0.06471044257152814 -0.08249646498464608 -0.2434967004614291 -0.011649151818873148 0.027554298909856383 0.07880549057276698 -0.02342208629104029 0.13461523124874655 0.08574575680776604 0.024009454745992104 0.051337700470320165 -0.09598501011148199 0.040667084214643795 -0.10436804536834937 -0.20765304376719548 -0.056339869651513184 -0.18118691729146771 -0.07287986640201233 -0.05192446322794995 -0.042654318882611994 -0.03663693996093328 0.1304690987428162 0.181239724271627 0.06191248062950921 0.0257860318695948 0.036245402830476045 -0.0013018884253599614 0.05686822755888511 -0.19926770958906737 0.06724747937666314 -0.1471081919334333 -0.20451474775652861 0.0615187551419012 -0.1412126383470764 0.14107076363330362 0.1821362728201745 0.0931073342156556 0.07226250989283166 -0.33735052191455994 0.04473496144755916 0.03205696865315458 -0.1463366775288017 -0.2042365899266167 -0.1742993662785263 -0.044393337922767506 -0.18115559394093625 -0.10287916212473802 -0.06979445132730895 0.12822037193124677 
-0.05892757295189856 0.005538231306721071 0.005542854884351609 -0.15462694210115882 0.14747602407065866 -0.00456600960878467 0.01582069056050821 -0.045198866146870194 -0.033598206227986316 -0.15847231473944107 -0.06740110360285594 -0.05863364369361509 -0.05321645039033034 -0.28698275762287323 -0.012823653543723963 0.05630338243411139 -0.045015341830852665 -0.13142338021929328 0.13665995003994608 -0.1476709164202427 -0.05639936440889692 -0.03037174589433603 0.27140428514261805 0.0905999252946893 0.0640571969031997 -0.06400628568830605 -0.13024539103060956 0.04271506690282122 -0.01253320478467478 0.09322536631675073 -0.01322024559923406 -0.007450151004564271 0.0811669448776407 -0.049428909566699986 0.10299556609770509 -0.034309907514914334 -0.03998189560304219 -0.1091307087271236 0.03554028214398341 0.03192683811477749 -0.011573889701020766 -0.06057117749453044 0.04704302459429201 0.036398680307745096 -0.11720425059204084 -0.13195063367463908 -0.04718102333576379 -0.10934901504371933 -0.15233787650774225 -0.020950540751240285 -0.03948024749070038 0.11891988433080636 0.07900839604704936 -0.07430346695381418 0.03847250564692171 0.0643361842180296 -0.07133612798043912 -0.11472961026277849 -0.07806800023228894 -0.1305517059330443 0.021775708990528653 -0.07367871680944735 -0.05761568561116881 0.06015412222452929 0.03185512338176877 0.2134812868900529 -0.005759518412132762 -0.03240051254446267 -0.03751711281727094 0.1713280061675002 -0.1692196695199884 0.010545774345649324 -0.025161483763249014 0.07347601456591749 0.07930414128588033 0.0035425054709483164 -0.20302461167697208 -0.16347263234422713 -0.026850500786786496 -0.13190089622173817 0.04198370340759225 -3.5344734106888527E-4 0.04358827545899305 -0.04955417240996099 -0.19078304356513134 0.19629392014933209 -0.2399223449546826 0.06786214786333246 0.016565425010560287 -0.04972261329158249 -0.23214696692927206 -0.012025604640407061 -0.08043201190563597 -0.09182796668191541 -0.10440456461424569 -0.2114610377801376 -0.020856388556401227 -0.005244801381419148 0.06993165043643489 -0.15589166767761417 -0.10749851644657522 -0.04331064597934037 -0.15250142853095494 -0.03289667238132878 0.04342103020673772 0.26283376037025635 -0.09664594263005169 -0.0014001421530940967 -0.06351220798950076 -0.1397424383601526 0.03413440434661904 -0.03891705691132815 -0.059670128738634046 -0.13715940988263262 0.006147925249847833 -0.01519273219906015 0.020626523898302114 -0.022302861786803043 0.11205261715057999 -0.04594166125416613 -0.04946621606224941 -0.04010617458070106 0.1377292262840905 0.10435181315892537 -0.01782128074287518 0.08702686235159991 -0.10097417165997645 0.2355364604319382 0.03252456835851417 0.0157846184073632 -0.14627097080462942 0.20911520939515388 -0.19015294595969487 -0.1971730744197894 -0.07178397547222208 -0.15779435909985826 0.006972353063118206 -0.10201942496197526 0.05135444017864041 -0.04422075972929012 -0.07616841958986666 -0.03611506480445449 0.11999749284244766 -0.018989056534077314 -0.01117752389089217 -0.02584081022380416 -0.16303780999497966 -0.1340433733186667 0.2048487757744845 0.039853338686569026 0.08640325405822462 0.205123197469706 -0.06369365378075201 -0.03945491202649539 -0.1219440008323291 -0.08845008491635684 0.007097857231678784 0.0052611260963707 -1.0347572542633765E-4 -0.07015359804933936 0.00961533940513935 0.07255938440632113 -0.23174955083538348 0.03960598758080099 -0.14532821123811812 -0.13909784760139832 0.07464621606569956 -0.09254830865348891 -0.15753485392992234 -0.03188681345494835 -0.09990502532708759 -0.13066705140388762 0.11841949467276809 -0.18660424645914836 0.04540842763452767 0.025785377434880997 0.08544978707015918 -0.09834341714547068 -0.004730420447048127 0.02749089439507263 0.07130925888941606 0.003912002167126036 0.16097948021991657 -0.07837645857238135 -0.09791342669041009 -0.11404034261897754 0.12270349094776029 0.07779400499264907 -0.11932732743035203 -0.1564030183870305 -0.10882864897202638 -0.017942740165223237 -0.214471036859135 0.08646514996983225 -0.05635507042601388 -0.04525176567766971 
0.10703203066613244 -0.10132674142509117 -0.009378460542463307 0.08184977883202774 -0.12171283708946716 0.00899972291318577 -0.03164869633949465 -0.13414316893730097 0.023716236249520115 0.008204986814755347 -0.06404935654625951 0.001991525537405592 -0.09487100377424768 0.021965710311958774 0.012122256941491645 -0.03299072494158765 0.04912959901364574 0.12314523648411452 -0.0025147562467259577 -0.17498426824857763 0.038501704420899986 -0.22864083604565452 -0.08296671311946849 -0.277913439750312 -0.1025677489532869 -0.04727008657952698 -0.06473600344122482 -0.06950504016551354 -0.04357767202270753 -0.0741533929872762 0.0653581910625483 0.09988611191030294 0.1194984447024239 -0.20930501909037907 -0.20865053286472438 -0.0171208273527204 -0.03555811961596931 -0.20793487981961 0.09828281424785876 -0.09778920175627275 -0.14776680204350107 0.019576910429942675 0.12800284938269066 0.0498889402425507 0.18413315794261065 0.1422963919927436 0.09472581541670323 -0.004412731601271019 -0.20576872285640055 -0.1615265713372918 -0.12172393523789728 -0.08044316475267296 0.02858890503271258 -0.023729703407066184 -0.024306295195431135 0.11307357539458303 0.028618335790041832 -0.12616372140349322 -0.0881804198502222 0.24787559928292946 0.3378473106282113 0.09680119016313689 0.07880605577065997 -0.003736569064448213 -0.10523637747697286 -0.14915433874569395 2.0977376698046618E-4 0.054464914751245624 -0.20366557629827395 -0.15844306551465098 -0.09665915788056967 -0.23574898473964467 -0.04511939275239183 0.037710698238308214 0.1546746771455712 0.3855522772683055 0.31970071259430766 -0.03499324230781345 0.022403716503830155 -0.1016923859563821 -0.08414305546023441 -0.07527973462511477 -0.18077870248643815 -0.04159203193108263 0.008945026366627746 -0.11596069399797747 0.020426835367191518 0.033275904655911 0.08654232640150687 1.9148588580607075E-4 0.0016482618062647401 -0.14660169510563148 -0.036633155480520284 -0.08308186521024005 -0.010135742584268848 -0.029206497427903873 -0.09635532321697102 -0.06562176829260842 -0.23529965155376456 -0.12318513435098463 -0.1428694510091674 0.19528658039472582 0.07715134944941505 0.07413909069807507 -0.19647603704195488 -0.3769677180383551 -0.17225008921027607 -0.11481465000872675 -0.1359396804424517 -0.19217797683453663 0.15928893152583246 0.0317245714391112 -0.03262474926513859 -0.14999728144813548 -0.054303361850316055 -0.03261430160603032 -0.10326321624220645 0.15787491998178235 -0.26431227654223 -0.31641515806083786 -0.2586255146614981 0.09481457380205294 0.05909235050458771 0.07347886545389568 -0.10180636722133472 -0.017459184935694802 0.07529044671497084 -0.12435872037321664 0.14454318459609322 0.19926542773757827 0.12248383937712856 0.11356228261539744 -0.07456826746146177 -0.011885628715451157 0.09199449706142117 -0.06467376899464825 -0.2661757476874899 0.11787060836964576 0.09100025071324877 -0.005508370297276558 -0.041104898332170924 -0.2257117564051181 -0.15185815996679208 0.14114609940795503 -0.15453537792352756 0.12301676746301708 0.0396084139096904 -0.07073915483394862 0.02781120724450066 0.07215143860939525 -0.18501897560652505 0.0973934729287716 -0.0027069352961070583 -0.09186998933214079 -0.058813256951688056 -0.12470776678343767 -0.09722228050830346 0.07434010795778642 0.08241842314492806 0.011869347999119486 0.06931321035500795 0.061786813646522824 -0.18963441902823527 -0.1306794193352695 0.03837007852186511 0.05092497316655547 -0.09713165308809404 -0.07612457294178346 0.0020184870904149353 -0.04883223112056277 -0.12221381863238917 0.060078461715799565 0.08271541413953186 -0.11751686524055564 -0.07917578399760997 -0.09678863530402922 -0.038424511635749226 0.0391420318318088 0.09216940495105455 -0.10519993174910969 -0.031815970573364424 -0.053701098385525316 0.1159613266629278 0.06731201459461619 -0.013432045699221842 0.09241596067305764 0.016142740277692413 -0.14365764093247427 0.19901879331574668 -0.018471836180891335 -0.10920819123351926 -0.12309344422392439 0.00187660125703232 0.009690507771496125 -0.0040481188400369045 0.05187368604150328 
0.11739730277919531 0.10273852947062925 -0.14258513837091283 -0.17355097864601718 -0.28041545236061083 -0.19490210482202627 -0.24894483715486163 -0.301290977195236 0.038637346970958476 -0.1355436260292795 0.03915039799626354 -0.021636450076582808 0.05731586794807512 0.16735857642262497 0.12316839536180645 0.14822868312925427 -0.10917670285142805 -0.10489637996258955 -0.12969611080523208 -0.08804860530976909 -0.07367946239174716 0.030750056995862807 -0.10503930396218927 -0.08910923109992351 -0.1417667056008227 -0.030598493541291287 0.002013527201246121 0.17935593608979306 0.07186557536345724 0.2806127299822293 0.11702442372731862 -0.14420504253286529 -0.017623722699783663 -0.01827836991416344 -0.14929865771110565 -0.10152691238995713 0.0353606642031534 -0.029650431386634698 -0.06133841255057555 -0.027823494890049403 0.056730034548836065 0.07108879332887143 0.13954787065271076 0.10362572511375145 0.05319522051876801 0.12939628405622325 0.08470904699261458 0.04661433736643722 0.1401823089730295 -0.08172359467014041 -0.07803892542422193 -0.15584814716304154 0.037388343547068575 -0.044742445410695456 -0.05995980990491844 -0.026909706534849694 0.01851202294554904 0.13445342215794004 0.10037229800229726 0.11861826630992775 0.05661082321988536 0.06244086210332712 -0.058482492588586066 0.023276539191554892 0.19120468394843226 -0.1325193793674046 0.0077516886468128 -0.048274643525315644 -0.012299783149179164 -0.0077163053051382624 -0.03104914594381845 0.2180746004602025 0.2575369131237614 0.15275678279167063 0.04780351315010039 -0.05824127942332719 0.1980392127606515 0.08466584664718367 -0.1429663338464888 -0.1420447698743388 -0.05916867374803333 0.09114247093831905 -0.05135008785772239 0.021136840127396368 -0.13845911616634154 0.16578959695876502 0.24323399578126656 -0.03304829998421874 -0.020394742429299176 0.013834748563901107 -0.01026766278776893 -0.060061225574879244 -0.011718468369105605 1.5635344989361767E-4 0.030130714752471408 0.08598536105694989 -0.015259885764523884 -0.14383272916348994 0.009878946404392396 0.07910571974329764 0.2150208539665136 -0.12112790904481108 0.04113843806242772 -0.18214990817072463 -0.08536306689506705 -0.15861853108590582 -0.15123778203362936 -0.12774187560946837 0.0381282003869375 -0.05068207447000367 0.11821078054150427 -0.00854321275144346 -0.02382726259915416 0.09557830534588961 0.038433867545087035 -0.1991776212566678 -0.2536780189167785 -0.14566663301144445 -0.11931729445392765 -0.09235565472991807 0.006481429999427323 -0.13995132556339548 0.08448957933962026 0.07818272381318458 -0.05653368488144499 0.13189352522230283 0.00986955134106687 -0.1380789806078167 0.060060237385913894 -0.03420965971420844 -0.09736966553755164 -0.1281407516408688 -0.052509135867663946 -0.17789385756282977 -0.1711593717807126 -0.039203768435564466 -0.09675098249959566 0.06709381753813315 0.09506975346150148 -0.08140199099961062 -0.05505051350527447 -0.06545454709659618 0.0751355436039571 -0.08652039053541083 -0.0019692836148106616 -0.13665457518401267 -0.21051049865337063 -0.20046715596886588 0.16050176749918635 -0.1673039296151548 -0.04059787400357228 -0.1682180023964639 -0.08948243148424179 -0.19642893759234767 0.22342345806137734 0.2250454609888181 0.005593354777592634 0.08478794694900024 0.13188100362723784 0.04523834152308783 0.22218959334562646 -0.00835765429527997 0.04051408779054935 -0.17584209601553139 0.15072187728932462 -0.10185465646392276 0.015022756510598098 0.039829761003751935 -0.10722713446718884 -0.013732160912706582 0.10931933438672925 0.003503095541707622 0.1754818839142334 -0.25685046731906214 -0.14496892930522895 -0.02189419901956478 0.012521027851559065 -0.021923074600991996 -0.19843696356991275 -0.014407753020585922 0.09295969995591483 -0.3182201927674128 0.013241112194927015 -0.1990875988439171 0.09123510620647435 0.06720565173748438 0.07449283915528324 0.1396523307256463 -0.14016409202260624 0.06840098742267038 0.014672018307005671 0.04157919024519687 0.06115167693522327 -0.10738005997736881 -0.16988543958518096 0.04222171556332129 
0.05203933240703558 6.466287725273838E-4 0.23545907835148577 -0.006764496214171109 0.10683501239111616 0.06767155423125253 0.12290435527716179 0.06500642893464156 0.03207647478793905 -0.08134284889205262 -0.018890459559785078 0.005617782210048322 0.06389614314936984 0.035761223649515984 -0.03780204074051782 0.04832029888986659 0.11034088356674958 0.2733768187646203 0.18762492611406636 0.20829477581615424 0.07629797531471255 0.2997649908203214 0.09141915142794839 0.011135581952789636 0.08930992845098619 0.02449255929269258 -0.03837474345328522 -0.1705819741846714 0.010241858597203406 0.03837448501076943 -0.08704817698205969 0.11732896906265022 0.1545804835781016 0.24970958185254075 0.3215483951814282 0.06414677279232778 0.07201377993570662 0.1398295506604635 0.013555394438386322 0.013569055013702008 0.088367135345116 -0.007589610503941181 -0.08040386845597247 -0.007353545218111281 -0.031760765911906415 -0.06133204883313112 0.1793228272069298 0.14190048835398025 0.27117809789472747 0.11415778186827795 0.17080389849088157 0.03495818979624908 -0.16341510367486814 -0.23366450002362582 0.01820905933441474 -0.08046845404588861 0.010842396924037498 -0.06928996111828514 -0.1141368330881991 0.11621930619186094 -0.03917862028489675 0.0022955204030329825 0.19942436339429384 0.06845448867256701 0.11392129667974611 0.08903833157496831 0.11687277194751998 -0.036920650148345176 0.06199822871286893 -0.10042346287508973 -0.09762822169967712 -0.0828539365112614 -0.08735987496657933 -0.16145540664243657 -0.1636875147932458 -0.00240529940223632 -0.030469756220494408 -0.03680278022015645 -0.03960609090562471 -0.03175021614946786 -0.078329547060592 0.046690650696106124 -0.07845521998191153 -0.0785166927458634 0.10919963544426628 -0.1559230651633755 -0.1767733284347227 -0.014364648144208231 -0.10707528883648801 -0.23387229332584103 -0.11582498281763123 0.044750445230104935 -0.11747628611351124 -0.009744267724937642 0.03196884463935368 0.01137057530594847 -0.051920621866160525 -0.11203641990163402 -0.09999898027914522 -0.057234470813922377 -0.18319831088437666 -0.18714573046754432 0.019471495734382237 -0.23133765177926502 -0.058490585261837265 -0.1911859144815858 -0.16206368927579415 -0.04751252571447116 -0.15219991182854142 -0.08606286556995425 0.0031978660249994397 -0.08475957029988634 -0.16653801328608278 -0.012631557696846034 -0.103081031620301 -0.09327372323245899 -0.04721026124348932 -0.09805144999125535 -0.24294451126205086 -0.03007828462276105 -0.1623266354817633 -0.1585103227495577 -0.004640893259154485 0.019658674338587468 -0.043100182125788804 -0.008070876951880754 -0.026081502359618553 -0.054042824390230386 -0.04320511516817045 -0.13203740652039836 -0.2549072532274558 -0.21455793116979438 -0.001010917065143831 3.497938744232565E-4 -0.06807469169081078 0.002212704838644524 -0.005620276478326305 0.0662779026978906 0.15817432513873914 0.07980601618321048 -0.08791501906023019 0.02831703769154674 -0.026174990787801316 -0.09700172621644133 0.006281428277208459 -0.12837451065886687 -0.13043813617851477 -0.0639705889819341 -0.14438157005161098 0.12895697233030806 0.010444763773232252 -0.17203371929719752 -0.09038019733564066 0.02363803963752284 0.12117128387713044 -0.16355725251729863 0.05406966005046259 -0.02705241161186185 -0.18189981483372097 0.02064895342258468 -0.21391976208263308 -0.024030758594362028 -0.016863804843661047 0.01988650938808844 0.09438931041675447 0.06577027806029712 -0.021134748525633622 -0.02058359414936107 -0.0515361061995875 0.16419747237279342 -0.1729955215708051 -0.0965582078534638 -0.05308661734897198 0.005135952180870124 0.0489367042536636 0.013694512827644487 -0.10085030870315191 0.0589871844220531 0.010642576506892073 -0.128101974442075 0.1054146434335665 0.07931487588457833 -0.1613113402728654 -1.2610427400872948E-4 0.036103801062759906 -0.042010021167178765 -0.03620641379082233 0.053648514077659734 -0.017441719869400164 0.1383402462312121 0.18923423763553535 -0.009696106983050826 7.344578821489721E-4 -0.02885002573037115 0.04006933191745793 -0.04762311718852981 
