-0.1251273376893679 -0.0343032812881207 8.301292199781275E-4 0.050714003111425716 0.03542294613558475 -0.012078854499793835 0.22168161991370625 0.02664881728433292 0.05912484751746738 0.07595321059773016 0.013320667074183876 -0.10860432558759739 -0.13014308609488345 0.088977362447439 -0.12174666114485891 -0.09511220780524934 0.12362958433034593 0.2005100365802462 0.06934895622222242 0.10034847677000976 0.06312627881108575 0.11639528656571269 0.04251792766223158 0.03578320154872115 -0.17518801967782266 0.017113971407047214 -0.17605453169553825 -0.12730622573541064 -0.08877353545394812 -6.835364263564684E-4 0.04597382967061624 -0.011518648819240479 0.15536795528232897 0.10660711827286332 0.06247999957442688 0.08138899537320812 0.11723112878413966 0.056926268281055625 0.03431642222522966 -0.0628011210823464 -0.08879780043656162 -0.01969427440611956 -0.09411982503635977 0.04516668374522589 -0.07909432385605399 0.12637607199064052 -0.03804684408963889 0.07918898353729936 0.13365892483973185 0.12449518331774115 0.08877779576320209 -0.13333347861475256 0.04204678218518782 -0.11117650652081791 -0.09000304053933628 -0.06066473843252312 -0.15324774778787462 -0.03305887767680381 0.03716191404399029 0.10385446959119246 0.05044468552339683 0.08386863518639757 0.0394507174915097 0.14647101393336304 -0.08121391675668525 0.03463229826632256 -0.0809353725175837 -0.15216742961224544 -0.058187297546263235 0.08885478545840565 0.11623260374263175 -0.0643911165668437 0.020022776489823344 -0.0958149677146014 -0.08492352022351754 -0.08190511175618166 -0.07890179081087509 0.0314771488295853 -0.025411014241894556 0.03505256299127061 -0.17669770664697007 -0.038058886462655796 -0.007411459056715785 0.14470597006555952 -0.2023224559725705 0.08270971867121266 0.07215524145577407 0.061548737174316144 -0.0881724883841858 -0.10189764230114591 0.04810738997811032 -0.15262335047962258 -0.08023751060900153 -0.04242539041027112 0.23341719137542727 -0.1286171367372211 0.018917557795061244 0.06600148187168996 0.0741267946474752 -0.004963511372626867 -0.20914065981109192 -0.2595281477613347 -0.07523813373959655 -0.19735317485799242 -0.05194569612740293 0.04818878396178193 -0.03404289472075726 0.05669903081680636 0.0914703364362473 0.17973854897754643 0.059367352320824754 0.08411140463062725 -0.05775095070505713 0.025595702435890592 -0.05504405800026655 -0.11215961107041239 -0.37786149479644077 -0.22604765576166502 -0.28550383082424136 -0.14150709875793213 -0.18585947559394705 0.04797437456928656 0.18247187983011307 0.23876894381669453 0.024429297905239383 0.04115904583188871 -0.1091075838181285 0.02437691174797648 -0.10606248878234228 -0.04183481949508633 -0.3501088860671582 -0.29941059552766236 -0.39172447881617956 -0.30889451828346687 -0.08662795179680816 0.11724504349952412 0.13957207362505888 0.14958566808837842 0.11105630783807753 0.0478436257807186 0.08819442891766677 0.01681408010236949 -0.08326167882341534 -0.1487280867618064 -0.0014911704149548574 -0.15403632978497384 -0.06671094357702834 0.002359443759799997 0.23907376683616385 0.22384566604667858 0.055119149319474675 0.17292126027092253 0.12508475821885962 0.18262247841648782 0.10948402923711878 0.024614154710346527 -0.07471286253486116 0.045353401920085794 -0.0080389741592933 0.020544874755124294 0.10411143006896308 0.11897207448606506 0.13177836170432375 0.19957704345476243 -0.04083379353584414 0.18348643212968715 0.026018667112206764 0.22341628732014804 0.07925808436610732 0.013708384730032 -0.030093555195897705 -0.16833043275844245 0.026445106605303536 -0.07874711770460018 0.2081783421610765 0.14552376064923508 0.04909417133631755 0.1296511491293269 0.015173000332160923 0.16798571231083825 0.1981379759348243 0.08411325947178315 -0.04411386589897972 0.0011909499206622194 0.03319498670783934 -0.01464993004032785 0.10967271572642479 0.13117712921551838 0.16724987961711785 0.11178849202444892 0.02854782453431312 -0.0928050676837984 0.07563290995103937 0.14256520707326278 0.10439087939852987 0.47578454511066703 
-0.059358707590380574 -0.08972042987311182 0.22785865835877933 0.00569654151690492 -0.03995367902247668 -0.11291429017357572 -0.08720942955992267 -0.06699264977827435 -0.026371063936639526 -0.025537800618402356 -0.10542332894458543 -0.026630898807932863 0.1795182469291585 0.02908582608048084 -0.08794374150478182 -0.12810939324721485 0.048265052429401906 0.0683972079731193 -0.04216167792151785 0.004089306617491088 -0.14393324332437502 -0.0830790142468776 -0.23782993992830243 0.08138625510034009 -0.13337855550194028 0.05112925256722004 -0.059143358128289275 0.11668614518575929 -0.07230131029410401 -0.06403954711386965 -0.032466089896938194 -0.14984146173692542 -0.03278386434345752 0.07424460191616276 -0.1731293475251327 0.005478031833977426 -0.13644948962533396 -0.04899352131924635 -0.05857146641751781 -0.1781717674875824 0.12637136571277252 0.13062058116765704 -0.15488422430572923 -0.09342613942839133 -0.09605072280579241 0.0714541282564561 0.046341688348846166 0.13413165397298105 0.06863625508027266 -0.08268539463526078 -0.015353739028718127 -0.017892193634650243 -0.08430594100606223 0.057630259139516866 0.06297253101988765 0.07997780372956734 -0.016366983154715766 0.18479876002865037 0.05388917623436274 -0.2155751210146083 0.20386377119241342 -3.685904506792689E-4 0.024950266921368612 -0.17850185915400882 -0.06979710250817464 -0.018501497584989274 -0.14767455652387593 -0.0037021674488528816 0.0205884247616071 0.1367506377242902 0.08988337370411655 0.032228195103112714 -0.0296781154030226 -0.0012247012994952985 -0.003039279260978342 0.018345562507788238 0.14815022761259072 0.15164968076731017 1.1543780341448999E-4 -0.08604941961133968 -0.05912857748347694 -0.10242753507720165 -0.058328768708428305 -0.10252501128429393 0.17421674094943693 0.0014354238812592027 0.04904968164712468 0.20731868204290854 4.6222939865326246E-4 0.16776736320779392 0.11792392950293773 0.10986337344131016 0.13184288264901164 -0.09364662517073799 0.05610523389705042 0.08135774190358908 0.07546661507753674 0.10977889559329469 0.026873785431756864 0.1921797014795611 0.11348176491670826 -0.08820261665504199 0.04404099280866319 0.07112284746526762 -0.13474206257509672 0.019588637210084265 0.35121724423809003 0.19911763616964678 -0.19352284401247946 -0.07394384832243464 -0.043972104709296043 -0.1798593063458343 -0.003183344380636878 0.05594302708857581 0.02876652721663029 -0.060629226424919684 0.15371779864823887 0.11789330008380815 -0.16888796153939306 0.20013735860120438 0.06822705328076419 -0.08903247980008921 -0.12111499523742725 0.005971185520799903 -0.013967287529581195 0.050607894794079095 -0.13009988619562426 -0.01670170950357547 0.21510644475810364 -0.15153788737265075 0.08300097858963912 -0.019794183728555223 -0.1255070739983221 0.10825862402713027 0.10804271670601755 -0.0529050946931579 0.04086271318694791 -0.02342411254115209 -0.17162380172076774 -0.02581064343421232 -0.02447748181619736 -0.06296290250885955 -0.015107634616664308 0.23844737549587858 -0.1419521911338183 -0.1862984276660737 0.1487253272933764 0.0510172103732783 0.17942044144623814 0.05104306540865763 -0.20331351433530506 -0.015053515339692238 -0.022604727496828892 -0.13093054483323666 0.1435815023079559 -0.017064642532759862 0.10728627486046644 0.03748905111439672 0.06747646217620949 0.3238071537897281 0.10935657129226858 0.1064301546632599 -0.011645149019733696 -0.03819561489038082 -0.0020126011141093484 0.2390328744530296 0.11909461482909514 0.02837521743973353 -0.0031871405882237342 -0.1929241096217866 -0.1297031862251434 0.005606411154461364 -0.0046990903023689645 -0.09300645577593547 0.12319777763985083 -0.020472759471683102 -0.14410310853762268 -0.044471042731566726 -0.03157573625794718 -0.03572422240211814 0.10840153372110886 -0.1051302418575095 -0.09104908629720038 0.1299068933941939 -0.05034878565215709 -0.0542495343263033 -0.013811964788940877 -0.019937837988612223 0.003300407602777977 0.08781310927787525 -0.11560690269673071 -0.2033763647148423 0.008424991268266206 -0.07821930263560582 -0.26379881468925953 0.02125542818486115 
-0.133436550338016 -0.04241761867320343 0.03239269700366666 0.04229065489677721 -0.1297614763175332 -0.010163797877172696 -0.08134539423097291 -0.0016709044642386314 0.053585861850281906 -0.04271009606500879 0.06598826484931353 -0.1316474687720158 0.0888712292073983 0.03052492544967503 -0.025944566548844243 -0.05474194532939104 -0.10947210907397872 -0.08898937203226126 -0.16527527019029742 0.01308921694500267 0.1924007537970161 0.14049606201705012 -0.0882694025162864 -0.0069979556800363945 0.08066462731382627 -0.015167619003296013 -0.05654453695555453 0.09391849519079463 -0.13784709473605028 -0.05477564748412422 0.11244060102961666 0.18595765859983757 -0.05843130756058039 -0.0817683592904831 0.018909746224715005 0.1127634307517752 0.09859864228920515 -0.16149677975810198 -0.11656044735373516 0.0960605246526415 0.024715310653607176 0.016771384786921317 -0.08399329985049395 -0.055411544747442934 -0.04661752471333307 -0.07645487773288878 0.1901030745067085 0.01945255173211658 -0.05550376064637501 0.12291553918751541 -0.017827296691936372 0.06300159646064186 0.02298038986535292 -0.06322245580455524 -0.027116391678426378 0.010669489646986394 -0.07157254170086808 0.042989791717892654 0.11740465085075294 0.14154470411494147 0.11946005140575222 0.09475294350536849 0.24978726222014602 0.01604886853856258 0.1670415849696567 -0.03217910106376214 -0.07124470735623366 0.02178547631588458 -0.09735439218945005 -0.09675270835617779 0.3098588591543218 -0.14456326512235293 -0.0265951868111257 -0.08128857157315315 -0.07103296866829413 -0.07930755998486948 -0.08249556238591713 -0.07486735864093022 -0.02333056803547111 0.052794497976338776 -0.11623778055742867 0.03377587282305935 0.10748754530546932 0.010813475811504573 0.0287781832546087 -0.06835171209615787 0.04934157691874861 -0.23324592441884576 -0.06980193557687654 0.08138721992328911 0.0062713571491925975 -2.2733211205769064E-4 0.10648493355431458 -0.0597338146642271 -0.006794580191512591 -0.17874580606459964 -0.003210324491830912 0.015171831060238606 0.09220411795349355 -0.06352580724720851 0.06181255919849057 -0.02404318468805875 -0.017058763973362777 -0.0085794084740495 0.16392138710386692 -0.10042316599764234 -0.10490686552748145 -0.022362168166434757 0.029309820086543783 0.0018784973400325486 -0.16652639706006012 -0.22148114083087672 -0.10390356138988834 -0.06072336011765662 0.05335941993332542 0.03384562721917262 0.013044992049825357 -0.0027167461972788256 0.15470533568877837 -0.012874013919430072 -0.11839087994375407 0.1951143965576155 0.01753358288408734 -0.016100236036318657 -0.1854727273971271 0.002786903415375502 0.09257154678565027 -0.0526915560101906 0.1591802625034352 -0.07700573977244295 0.012296949794291287 -0.017771865451223254 0.04793142758446547 -0.09581640945477851 0.026073702460506294 0.122477977722561 0.1307741328217623 0.11165771480648044 -0.05821446760548411 -0.08403793575291492 0.023620457078295833 -0.13941743447521657 0.09935080139420657 0.03730845289440566 -0.1224097723955866 0.1121435962435725 0.025779526237573895 0.11081091675911915 0.05063525304230393 -0.021857576887041347 0.024533573778392895 0.022406611185636218 -0.0612907792925366 0.021318951324312826 -0.06779315438980772 -0.1631800635285871 -0.11864838663988309 0.04170334608119366 -0.05783343751066545 -0.16126863472802971 -0.08170222981208072 0.1635441146897549 -0.16485475402859054 -0.07245821875663148 0.02927453685198726 -0.10883100571708437 0.06375140340565538 -0.11200938418275844 0.07815939648499243 0.11661384362097649 0.045194486869136644 0.06040989129186979 -0.03135590635597806 -0.09417400313888959 0.0652133578416854 0.039198482068655664 0.05831377428435564 -0.10396447638366964 -0.0758888502396683 -0.09526724811705405 -0.02802848970954429 0.18386778530869657 0.014872158754197807 0.0331636809088012 -0.07300527711845937 0.05376741364442294 0.11575812984359278 -0.004857394260711666 -0.007288430724180107 0.10368055639705251 1.6086312861178766E-4 -0.038814647245037755 -0.07626428962587219 0.0032352938193223922 -0.26316635863564286 -0.027288382424711943 
0.10348888317098033 0.1899624085350052 -0.07209973271495793 0.1352170117923599 0.041096677864233634 0.0317886535936369 0.002969243590846843 0.08684314277098865 -0.14916713183459082 -0.06581797117728515 -0.0021887191365364696 4.0180296214442873E-4 -0.14122295750262212 -0.18893456786354432 -0.016539356381864444 -0.0030774907702636597 0.25591877719632833 0.015904979133104034 -0.09270268384290417 0.0919416598995201 0.05228134720899637 -0.10563865030300025 0.08514035082738157 -0.0882601363831849 -0.1334703679035062 -0.024799910534573075 -0.04300898504985715 0.05246708580846517 -0.13479414139227677 -0.020112975857588127 -0.06323820760939526 0.062441280871860884 -0.0013404184864531572 0.015989049795134255 0.10224737494713686 -0.07569552559896028 -0.07999613257382204 -0.05832717546285928 0.08412147739850674 -0.0016555776425846232 0.048396456597747585 0.07261489328130111 0.03012718691511942 0.04867719006102626 -0.05009531034692264 -0.051067026839515785 -0.23188117508650924 -0.07463691105519644 0.08063253298992917 -0.03836821382723821 -0.09020249758630172 0.0367401426650925 0.06618282117282931 -0.05172493243417188 -0.052300798370735035 0.03610644667020469 -0.0922505795280251 -0.21351864461340309 0.05526291030338391 0.02361979056838123 -0.11759462672537999 0.06129682801712617 -0.07463270402813357 -0.15885045394260905 -0.04848158966719952 0.14028063644033903 -0.07831465183686548 0.09927997040484474 -0.05412733272824689 0.10863976416207445 0.055753548827781337 0.02723045424955973 -0.06569496442385861 0.11165245704187525 0.22510584192808306 0.0036393535985616643 -0.19143641222404265 0.0314357144650565 0.1326696416995076 -0.007232565219428511 0.00137078972882813 0.05777853845271741 0.10071436996994684 0.023702542340661284 -0.04897848036175675 0.014940506317607852 -0.007130255515746236 -0.058857457271998335 -0.008770909227149595 0.15952107428589576 -0.002718073563246919 0.1843851276477231 0.07679010617833038 0.1968825084944904 -0.10485452883711822 0.027075190389853846 0.07232683999452413 0.022106114728798528 0.062346034802335 0.04575193811489087 -0.0038694577837551773 -0.015426051388197574 0.036811797521913825 0.14151373839013315 -0.05831719178824447 -0.10975731989045313 -0.020331824682131714 -0.02036676599367245 0.10245712552050604 0.1066735444287222 0.027638255423643628 0.16142001296392705 -0.04084946017080503 -0.08050743722909452 -0.1340674575281631 0.08082539013576764 -0.1434663727490262 -0.1612736795782502 0.013637681135387571 0.03912841746213886 -0.12257479395912806 0.05679380893441536 -0.08348939047022247 -0.08484552909333175 -0.13683367855955753 0.005744904848805685 -0.03885978678148561 -0.020806155437686977 -0.057351313513648444 -0.10863680384268003 0.027003691885795406 0.052015656148100685 -0.05120783652342507 0.11022985024705745 0.0013705512185880533 0.005131614197192304 0.1424341344779297 0.055050280595948665 -0.18189000566711527 0.09447118489752758 0.1538573766409336 0.16010781634834342 -0.047520210398407786 -0.06683733632688922 -0.2100012273593004 0.019485027131375194 0.0055508254850503026 -0.05650216601515433 0.09142953313532362 0.0743590323497343 0.002661247405580979 -0.0459451383308454 -0.14171402855140194 0.05389309002141925 -0.13240396867244303 0.19258308195254417 -0.06845668391291612 0.048553185292104346 0.09198938616750262 -0.04047872605555187 0.11602809262728656 -0.005680360581590948 -0.07586515638071609 0.13690392678154742 0.02801102099206689 -0.01515959985700772 0.0010348673775529796 0.04948279446743818 -0.026804811619432784 -0.04944704110527011 -0.06003421579204655 0.013495434689017045 -0.13768398396072407 -0.06097837614199963 0.09187138157866243 -0.1436826394228023 0.061059847663807856 0.14026531319069058 0.06919220400446897 0.0996718544635533 -0.04864197157596264 -0.13209531613391687 -0.06758028648554543 -0.08549171169538732 0.18903357650816674 -0.05609358593163382 -0.0284397603927229 -0.1692776590235625 0.06701758702481421 -0.08670154104878047 0.11951664317829334 -0.12382215951478773 -0.04747375455317884 -0.011151096615560904 -0.05152547982227671 -0.07221790790988032 
0.14414335038953072 0.04666448739454461 -0.022795555052119585 0.03734999712259229 -0.037556945487011766 -0.021683335246018683 0.20012063821129766 -0.10364565378755082 -0.09267493828019109 0.12147463396032274 -0.06972395877418966 -0.014841382881075295 0.13221852614321036 0.13546430981135102 -0.08961052883496858 0.09062013460973747 0.05882013066549482 0.07610998967982137 -0.05675467508231149 -0.0017318919798323877 -0.09468520005364865 0.04313895528635396 0.0549750497347358 0.08132512151171443 -0.09017846226457571 0.09371038576057687 0.019735649355778716 0.007869221165946882 0.1488270497922543 0.14871244512250006 0.23467027542158217 0.13959734432542836 0.06399467157490876 0.01589096785783277 0.08941769557747546 0.07385859590859364 0.10388575711741242 0.10153149594957683 0.0749211079375208 -0.03901707111842919 0.1370794522445457 0.038431252143894916 0.12270934608538045 0.06669547477374554 0.02046410658686444 0.12735930109926932 0.18228930948728697 -0.045356135495936846 -0.04025796625992946 -0.03738468686503101 0.08416278300378884 0.04153623178743166 0.1931446898118643 0.19374859620907253 0.048821123075154335 0.00917105540051647 -0.01871389218892862 0.09248896999053138 0.2950666734925354 0.1377577599586969 0.11302913761708379 0.15978498059114227 0.040661932920494935 -0.056355474527804386 -0.027184368572658164 0.2334437900816307 -0.06678537969326925 -0.09277630569181088 -0.031346983374919445 0.1415825486130755 0.22462855073064716 0.029852715448659514 -0.039844165434426475 0.03760254635010686 0.04456452006038773 0.00537660122600103 -0.07075584799927208 -0.06318356151832592 0.061977139985313776 0.2543012371653957 -0.10061158199451002 0.08364740459819853 -0.016583133748653483 -0.07847975209529418 0.18146569153195374 0.027165219753718044 0.08220990445658334 -0.034121954773699975 0.10372935699812606 0.15212328089340557 -0.04206197961421803 -0.10488129593930982 0.09021247763113933 -0.023670254712572593 0.03331138831197035 0.004419210121849771 0.02515363696129048 0.15535557830674052 0.16470198374146272 0.030715705173351055 -0.053255135203172016 0.004350296586454386 0.03324483743504708 0.2954116734500478 0.19000230194685908 -0.028452842146306792 -0.1837984577837343 -0.11610776473790975 0.12240683781944707 0.06253867564822142 -0.08672319859756328 0.11547396469664427 0.1759765964231481 0.1941589426620113 0.03554915673999134 0.011542286167973063 0.04744284479094644 0.020003232905846886 -0.02322956138893591 -0.22425866226724983 -0.048141575459460365 -0.048861688152967035 -0.10984478730989698 0.03210875687783748 -0.06774047865070251 -0.013141079772107654 -0.14493346404077323 0.054732260216587 0.11082784764940466 0.04236002074713208 0.10195716618687094 0.10145943881723614 -0.20162486743799132 -0.08376572495664049 -0.3129473242554324 -0.08643878275680889 -0.15211607961890483 -0.1145930902455595 -0.03552042309049892 0.02368653643643712 0.07634015076256856 0.013670203675306986 0.17846802161205116 0.07158712791860382 -0.012631188799588782 -7.642838339638516E-4 -0.11076740452362438 -0.07583215333453734 -0.026399685322891966 0.08618023869549303 -0.04908643556982028 0.0024180270292936696 0.05352796323090117 -0.06873731003497921 0.12838365598285778 0.10164139381542896 0.12217744203736534 0.10062356535076901 0.052102319526637055 0.020997862349337502 -0.16266984361376877 -0.09400806192266471 0.04091510653747617 0.09166010791804888 -0.10528662107552174 0.08939545160042571 -0.09130587057417003 -0.09852191529005147 0.1908934880469431 0.19611765278823887 -0.03759049267081741 0.23571175822675164 -0.030401797241535394 -0.04641106314105096 -0.17477961402259876 0.1326000591152859 -0.09401356751379887 0.06891873445769338 0.03764820661542132 -0.06255379577622548 0.058184952460819575 -0.14378904589959873 -0.21017840760836687 0.10019196170012434 -0.1430919535718792 -0.01846614960954504 0.054677893157089645 -0.11868409752008766 -0.008438221933359365 -0.050936961585865366 0.01626681944834689 -0.1532538758147239 0.15591980861501392 -0.17887389455867483 -0.27609080893589966 0.16267094129963589 
